[{"network":{"layers":[{"out_depth":3,"out_sx":128,"out_sy":128,"layer_type":"input"},{"sx":5,"sy":5,"stride":1,"in_depth":3,"out_depth":8,"out_sx":128,"out_sy":128,"layer_type":"conv","l1_decay_mul":0,"l2_decay_mul":1,"pad":2,"filters":[{"sx":5,"sy":5,"depth":3,"w":{"0":0.000300796215804026,"1":0.0005371511936731076,"2":0.0005561916832245368,"3":0.0003242093513193272,"4":0.00046724086446364856,"5":0.000050508218003208616,"6":0.0005548565670763122,"7":0.0006533621635044849,"8":0.0005384627712454989,"9":0.00037945276497652913,"10":0.0005288011904339564,"11":0.00037959032536624096,"12":0.0010134684963829038,"13":0.0005023337365010224,"14":0.0005956924829199467,"15":-0.0005420894881302621,"16":-0.0007085116356392994,"17":-0.00029011081468348273,"18":-0.00015556795390234517,"19":-0.00043521474725391636,"20":-0.0002997349095494895,"21":-0.00011685869084755517,"22":-0.00017066203845132684,"23":-0.00018236631853451872,"24":-0.0012318419580076994,"25":-0.0006055834951700886,"26":-0.0006789911765463606,"27":-0.00008250598837893193,"28":0.00020675724289859565,"29":-0.00028026558583684244,"30":-0.0005093898147129937,"31":-0.0002625934503664616,"32":-0.00017038909163879165,"33":-0.00017077580494125524,"34":0.000013295192226475234,"35":-0.00021412395599400405,"36":-0.00041291949748131605,"37":-0.0004897657299125476,"38":-0.00024277656469130743,"39":-0.0007327587449305137,"40":-0.0007360508104676221,"41":-0.0006258912763296396,"42":0.00014647801110111936,"43":-0.0000543584637757755,"44":-0.00000925189536209635,"45":-0.00019620831496367877,"46":-0.00012303116659843097,"47":0.000010595852497841021,"48":0.00020506551649243987,"49":0.00003066658101604843,"50":-0.0005130988900739733,"51":-0.00014798175618320057,"52":-0.0002855033998756387,"53":-0.0007758564089084762,"54":-0.00030540307417692354,"55":-0.0003577056323350933,"56":-0.0003243543718431345,"57":-0.000032282565292033676,"58":0.000013407946909114821,"59":0.00007680357214539134,"60":0.00007259421683031753,"61":-0.00011161842275082025,"62":-0.00013493203029896054,"63":0.0002824280030148453,"64":0.00004317230956081002,"65":0.0006084400571784153,"66":0.00034829840745924856,"67":0.0005088443010556737,"68":0.00031773753253937735,"69":0.00029011910461131037,"70":0.00024676056923686815,"71":0.0007882753863043761,"72":0.00031796952490582874,"73":0.0003202274869942243,"74":0.0002868437987576523}},{"sx":5,"sy":5,"depth":3,"w":{"0":-0.04543841787434488,"1":-0.05181385741962671,"2":-0.042952024021325586,"3":-0.020442522543212917,"4":-0.019128800722304315,"5":-0.019161403979800096,"6":0.030001807800782033,"7":0.02902682457695723,"8":0.02764706521623278,"9":0.07264136581612991,"10":0.0743446235125379,"11":0.0740131038028145,"12":0.09936177229055901,"13":0.10380541276868051,"14":0.10723783438808891,"15":-0.0573238510887365,"16":-0.05581945843100847,"17":-0.05276177567461237,"18":-0.06579999758600011,"19":-0.06758451396562744,"20":-0.062332836242117294,"21":-0.006899378174606147,"22":-0.004484962178294435,"23":-0.008961898980469936,"24":0.037843949087103056,"25":0.036997123759344795,"26":0.035146120393256874,"27":0.07942141720809495,"28":0.07669229664880753,"29":0.07403464071638334,"30":-0.05727229487320695,"31":-0.055665841696784596,"32":-0.05590921921758329,"33":-0.053841864566524456,"34":-0.05026755346864035,"35":-0.05237417173921187,"36":-0.012122092629322397,"37":-0.010680230375472596,"38":-0.007792308128716284,"39":0.056170642681747554,"40":0.05808223891677027,"41":0.05362801089813382,"42":0.1165938380285535,"43":0.11551590227392557,"44":0.11724449029078575,"45":-0.08820419948501933,"46":-0.09078783830203684,"47":-0.08587116298545729,"48":-0.07191144184597281,"49":-0.07543689506745296,"50":-0.0731245279331482,"51":-0.035138805604497635,"52":-0.035698278879558426,"53":-0.034931321299446955,"54":0.030162349437542573,"55":0.03063276482863371,"56":0.02965101366434896,"57":0.09193250385857452,"58":0.09272096578825939,"59":0.09329363107050732,"60":-0.10801092926742362,"61":-0.10696340282478625,"62":-0.10459900401720769,"63":-0.08888306841030102,"64":-0.08918816438753017,"65":-0.08422178662523984,"66":-0.048234147686486685,"67":-0.046539683860443895,"68":-0.04674896182522133,"69":0.01855604661073291,"70":0.021045788811463618,"71":0.021489011335026578,"72":0.05524933724500633,"73":0.05948569339326637,"74":0.05466057799785993}},{"sx":5,"sy":5,"depth":3,"w":{"0":-0.03748467892641328,"1":-0.038777044374062375,"2":-0.04154853153511115,"3":-0.01887401441662399,"4":-0.01875083692046191,"5":-0.01696168922800435,"6":0.07635683447818818,"7":0.09082888171495171,"8":0.08858200365556639,"9":0.15534195589483002,"10":0.15633676914925168,"11":0.15253296413136505,"12":0.20784155340310523,"13":0.20087680383213669,"14":0.19636656440792505,"15":-0.0939430425938051,"16":-0.08505466134836541,"17":-0.08961228714184383,"18":-0.06718767557888143,"19":-0.050171515757140614,"20":-0.05553920150379643,"21":0.04407184001359773,"22":0.03272711486360726,"23":0.03668746326607965,"24":0.09556141662836708,"25":0.09577770487775841,"26":0.09465818649284262,"27":0.15652916161054034,"28":0.15670518469070863,"29":0.14786170924659783,"30":-0.09985003651565416,"31":-0.10576750372610988,"32":-0.10360592475217323,"33":-0.05063283609529492,"34":-0.0553406065243471,"35":-0.055355875046873795,"36":-0.0021096136216167674,"37":-0.0038558785233869432,"38":0.0009982422698431943,"39":0.11556937687388928,"40":0.1135137077992654,"41":0.1129476160451397,"42":0.17958386278879812,"43":0.18294630078694463,"44":0.1787148066379222,"45":-0.15577235525635524,"46":-0.1521371403172175,"47":-0.15299217657464215,"48":-0.08692373520927295,"49":-0.09348017746246315,"50":-0.09230207752598661,"51":-0.03593863874616688,"52":-0.035518854480309746,"53":-0.033793366490849144,"54":0.052381298081960764,"55":0.04819679703729881,"56":0.06108059951123145,"57":0.11225049827069697,"58":0.11276424066960014,"59":0.11507749838740972,"60":-0.19858343497836167,"61":-0.19619159795508287,"62":-0.19963676187389892,"63":-0.14678938977732772,"64":-0.1435341843211318,"65":-0.1440454832699919,"66":-0.09453532976245178,"67":-0.09379239784584167,"68":-0.09346914987032086,"69":-0.02125422028082533,"70":-0.015368906454801311,"71":-0.031762853010324096,"72":0.026706524650053704,"73":0.02801704522797439,"74":0.023637118737303953}},{"sx":5,"sy":5,"depth":3,"w":{"0":0.03776182064706814,"1":0.04153612432097748,"2":0.044846200982337645,"3":-0.02738426522384362,"4":-0.022871881185204303,"5":-0.017036112486119706,"6":-0.08623802481699216,"7":-0.08603999543320646,"8":-0.08535585336137146,"9":-0.13912853542918188,"10":-0.13380376315112372,"11":-0.13542102053865127,"12":-0.17316395856270786,"13":-0.1709128144733812,"14":-0.17563205600067575,"15":0.09834689040076813,"16":0.10900689071340167,"17":0.10638378701061231,"18":0.04081674177439917,"19":0.034476511515807474,"20":0.037454277132214824,"21":-0.05084559524924888,"22":-0.055870054560333594,"23":-0.06070299004275546,"24":-0.11391450411499937,"25":-0.11877844868144494,"26":-0.11151563390563161,"27":-0.13962294009815632,"28":-0.13253355893206598,"29":-0.1263114004780883,"30":0.1466972247829326,"31":0.1460662655737804,"32":0.14356481757822873,"33":0.10465555499329879,"34":0.10004370360944648,"35":0.10279956112247363,"36":0.020206273087474257,"37":0.02277971757258745,"38":0.013728847483474395,"39":-0.07276659560154743,"40":-0.07306462966518065,"41":-0.07540762590371737,"42":-0.13038832390123556,"43":-0.1328676462360783,"44":-0.1395931856081654,"45":0.15294249144805222,"46":0.15383786170881428,"47":0.1532826520198205,"48":0.1449954608475967,"49":0.1497010140305823,"50":0.14313831182523407,"51":0.06783129840477096,"52":0.06555157781453452,"53":0.057086171257854916,"54":-0.00920175553939695,"55":-0.006886771766028744,"56":-0.006909344152006151,"57":-0.10141256559023244,"58":-0.09799493183470451,"59":-0.09881972175036496,"60":0.19290471039571616,"61":0.183517894903462,"62":0.1750406291983141,"63":0.16561766457586477,"64":0.15976483149251522,"65":0.16546594426403563,"66":0.11348224477349976,"67":0.10813912068297328,"68":0.10628341609961028,"69":0.04734460992345526,"70":0.048370992757659576,"71":0.043965465994611305,"72":-0.05162721663817493,"73":-0.05301961334925932,"74":-0.05264431292599196}},{"sx":5,"sy":5,"depth":3,"w":{"0":-0.026037961271286235,"1":-0.02717836309766456,"2":-0.02807551935640617,"3":0.04183638883205682,"4":0.0422995249584438,"5":0.043728164634306156,"6":0.11561918360766321,"7":0.11434894641606493,"8":0.11566870435811946,"9":0.10627438746695154,"10":0.1068496117990483,"11":0.10705055858090283,"12":0.12985335201663697,"13":0.13444385250594423,"14":0.12961353745446863,"15":-0.03607951870135356,"16":-0.03613923803130564,"17":-0.03734381230538518,"18":0.015299858927037217,"19":0.016183354547621154,"20":0.017356872639178456,"21":0.07659776298034351,"22":0.07204412324137734,"23":0.0774522559281047,"24":0.09795542561551857,"25":0.09914728619932422,"26":0.0975150305021528,"27":0.07737668502790485,"28":0.08041717034932475,"29":0.08244376713073458,"30":-0.07091204600049622,"31":-0.06943674387906885,"32":-0.06731455004435938,"33":-0.011119985895852343,"34":-0.015674641195270907,"35":-0.016147928399683244,"36":0.016222275103772135,"37":0.014363664564797507,"38":0.014338389276023331,"39":0.040140448247483994,"40":0.043183250350847,"41":0.04756988269047271,"42":0.08588808903259726,"43":0.07921494622127728,"44":0.08331449755323825,"45":-0.12153564162735167,"46":-0.12497359192378184,"47":-0.11756430877659872,"48":-0.06282572463372807,"49":-0.060505222955036346,"50":-0.05995451510142091,"51":-0.021413150871913686,"52":-0.021998019516779026,"53":-0.017861217399701635,"54":0.003884058741445522,"55":0.001758430887971946,"56":0.003599447553433113,"57":0.03316415970844792,"58":0.030089871906786213,"59":0.03426908037559529,"60":-0.15492419703521695,"61":-0.15157041046242195,"62":-0.15247289505485936,"63":-0.11625312031454618,"64":-0.11102797293007247,"65":-0.11208227585677644,"66":-0.06193752028356779,"67":-0.05745556287306212,"68":-0.05888591065660609,"69":-0.05664503432488246,"70":-0.055513581361287125,"71":-0.05683400876517116,"72":-0.009760654878237988,"73":-0.006606916382462392,"74":-0.011709148238453046}},{"sx":5,"sy":5,"depth":3,"w":{"0":-0.15462043784576068,"1":-0.155038038722134,"2":-0.1528017222251311,"3":-0.13430302075551726,"4":-0.13515838878404612,"5":-0.13673038067949428,"6":-0.12007020642990344,"7":-0.12130868915982723,"8":-0.12147449665854347,"9":-0.06747651832109476,"10":-0.06353676633476334,"11":-0.06527428654297662,"12":-0.0207960686977329,"13":-0.020380677869391267,"14":-0.023370497799888437,"15":-0.10838225036333965,"16":-0.10471465874086944,"17":-0.10737737034778322,"18":-0.09502867207277349,"19":-0.09457290586060182,"20":-0.09560522588773235,"21":-0.08256245971112962,"22":-0.08014076527747271,"23":-0.08054307863482985,"24":-0.005981902410857885,"25":-0.007530526744253293,"26":-0.007479017274655199,"27":0.027728109757364693,"28":0.02929200956648,"29":0.03066429624773273,"30":-0.06961694180096224,"31":-0.07022007630102241,"32":-0.06871640831568471,"33":-0.03787709839179871,"34":-0.03895467989102619,"35":-0.03941414558225972,"36":0.0036798585189172723,"37":0.004851350309809416,"38":0.007505201170009809,"39":0.0684299765171097,"40":0.07279012491120682,"41":0.07313685708737984,"42":0.05414127349471112,"43":0.05230442399101071,"44":0.05099522728505723,"45":-0.0161617834843233,"46":-0.014867232290950237,"47":-0.013615679307439498,"48":-0.006277521777144029,"49":-0.006406789667860888,"50":-0.007419593779198579,"51":0.04787806602666865,"52":0.04320812581210123,"53":0.043329560783988516,"54":0.11244793306687532,"55":0.11151422896879468,"56":0.11669216125182602,"57":0.10073201196742848,"58":0.10414160108010805,"59":0.10422680820500421,"60":0.048915946611795894,"61":0.0505099680276056,"62":0.046533489459181905,"63":0.0618711163817628,"64":0.062378663714564395,"65":0.06202741072000476,"66":0.10307429125083391,"67":0.1052630716453877,"68":0.09856896809985859,"69":0.16715389569659628,"70":0.1699364703295136,"71":0.16332577541095997,"72":0.13501104127855384,"73":0.13479319038269474,"74":0.13405616398129133}},{"sx":5,"sy":5,"depth":3,"w":{"0":-0.07804441625881925,"1":-0.07582356734126106,"2":-0.07346232669012798,"3":-0.12081005999488233,"4":-0.12245385319452563,"5":-0.12105547102051634,"6":-0.15034661179564499,"7":-0.15107661985748147,"8":-0.1558303848870412,"9":-0.16593658352739687,"10":-0.1648405502199679,"11":-0.1648779689266382,"12":-0.1517774603778755,"13":-0.15515457196175508,"14":-0.14832109250659933,"15":-0.09512510501401993,"16":-0.09814166202083743,"17":-0.09423539381847304,"18":-0.16354111503302413,"19":-0.17395507737954083,"20":-0.17176551399198597,"21":-0.21747610220738428,"22":-0.21551473109777639,"23":-0.21731897267780176,"24":-0.20566824092417452,"25":-0.20634132936591437,"26":-0.2056699905217825,"27":-0.1783717135466468,"28":-0.17663671576380852,"29":-0.17753298370986084,"30":-0.10114604144771583,"31":-0.09902073648454224,"32":-0.10438812677522792,"33":-0.16063260231309115,"34":-0.16567692107624757,"35":-0.16333070525989693,"36":-0.20033048799444095,"37":-0.19775751875708653,"38":-0.20014394161908405,"39":-0.24204563376159496,"40":-0.23987917731054847,"41":-0.23898425217219676,"42":-0.19032602634514292,"43":-0.19216026036823117,"44":-0.19244064763970806,"45":-0.10025308861219505,"46":-0.10292438509086937,"47":-0.10382643734117022,"48":-0.1643335523405087,"49":-0.1634308762253954,"50":-0.161746070969849,"51":-0.21336825360133585,"52":-0.21301467916324773,"53":-0.21577600016938603,"54":-0.23458948912163582,"55":-0.23643532350225524,"56":-0.23916330720965526,"57":-0.1722578590122805,"58":-0.17164653872549848,"59":-0.17406342994716123,"60":-0.0904047985381696,"61":-0.09166113947977776,"62":-0.0931601190860618,"63":-0.14722633167155483,"64":-0.1488434347206967,"65":-0.14710703520716503,"66":-0.2017521421922461,"67":-0.1966489790853147,"68":-0.19686086560689392,"69":-0.22336607843923367,"70":-0.22070971512971677,"71":-0.22007972617481222,"72":-0.16551101050761166,"73":-0.1668456421141278,"74":-0.168227534699065}},{"sx":5,"sy":5,"depth":3,"w":{"0":0.0430463902383684,"1":0.039823920165953694,"2":0.038691270873043776,"3":-0.00015856907598653573,"4":-0.001127340455564004,"5":-0.0027112928673183627,"6":-0.09129126824598169,"7":-0.0919308115570813,"8":-0.08290849302131954,"9":-0.13049997530147933,"10":-0.13212001417610003,"11":-0.13972921807788802,"12":-0.19008916724161656,"13":-0.19367649885520308,"14":-0.1814647954661574,"15":0.08090271667126227,"16":0.08341699299887163,"17":0.0727569336052054,"18":0.03662419884160731,"19":0.03453430657137051,"20":0.032963122081710025,"21":-0.049299909216571354,"22":-0.048158590288953265,"23":-0.05179986195554837,"24":-0.09342155278858116,"25":-0.09793574116398693,"26":-0.09210542414490117,"27":-0.1587542390909931,"28":-0.1553396184305629,"29":-0.1559005376817699,"30":0.1192537510965785,"31":0.11687888737380658,"32":0.12769722869871508,"33":0.10214175262129617,"34":0.1028262633920431,"35":0.09858292393149957,"36":0.019769386515368612,"37":0.018441710467363568,"38":0.02899296596269867,"39":-0.020906218528344858,"40":-0.02876369539788406,"41":-0.0317566123888226,"42":-0.10132779801573195,"43":-0.10560840760575825,"44":-0.1001521056927556,"45":0.15842463543016652,"46":0.16265610681045928,"47":0.16411152615063362,"48":0.12923569923703612,"49":0.13064543950845733,"50":0.13071981264521884,"51":0.05643644359715503,"52":0.0706064094017601,"53":0.05473636957800386,"54":0.009403255601351797,"55":0.012505393058238673,"56":0.010141872127370763,"57":-0.07356911023635719,"58":-0.07798317294072421,"59":-0.07405591957114417,"60":0.17377617957097174,"61":0.17875110736883063,"62":0.1826293804799814,"63":0.14283522438260293,"64":0.13716761476604514,"65":0.15379910651968784,"66":0.08730516791026326,"67":0.08416454502864011,"68":0.08289458212070712,"69":0.051439213805935684,"70":0.052699827637565415,"71":0.0537530490249776,"72":-0.03238715784596978,"73":-0.02997349510627991,"74":-0.03252179039788513}}],"biases":{"sx":1,"sy":1,"depth":8,"w":{"0":-0.12001851962895682,"1":0.22019351177415109,"2":0.3889819910763724,"3":0.2760374834565147,"4":0.21327284953978576,"5":0.32249410625816144,"6":0.5338467457090128,"7":0.314474932955771}}},{"out_depth":8,"out_sx":128,"out_sy":128,"layer_type":"relu"},{"sx":2,"sy":2,"stride":2,"in_depth":8,"out_depth":8,"out_sx":64,"out_sy":64,"layer_type":"pool","pad":0},{"sx":5,"sy":5,"stride":1,"in_depth":8,"out_depth":8,"out_sx":64,"out_sy":64,"layer_type":"conv","l1_decay_mul":0,"l2_decay_mul":1,"pad":2,"filters":[{"sx":5,"sy":5,"depth":8,"w":{"0":0.00000641748806058504,"1":-0.00001415195383256152,"2":-0.000012099255940774642,"3":-4.272059485296266e-7,"4":-0.000014229930632234407,"5":-0.000001988402483124276,"6":-0.000010611293940749195,"7":-0.00001688252730728972,"8":-0.000006603595794183512,"9":0.000012775929755768518,"10":-0.000014182640955814695,"11":-0.000004728022243230433,"12":0.000009043103126336729,"13":-0.0000037214017880617434,"14":-0.000018444573976184556,"15":-0.000016669516016324857,"16":0.000004263633743322473,"17":-0.0000051688570813502755,"18":-0.0000118128626961694,"19":-0.000009664592012805278,"20":-0.000012603044329499355,"21":0.000003404278152679959,"22":-0.000005553474336223397,"23":4.0588245391804484e-7,"24":0.0000034378675605280566,"25":0.000004758859303494972,"26":-0.0000031975341946466762,"27":-0.0000030301487332258593,"28":0.00001527283118164572,"29":-0.000006052884820102408,"30":1.6769845134420718e-8,"31":8.14708749425241e-7,"32":0.0000017519675067506736,"33":-0.0000019502377265308616,"34":-0.0000029296062769669205,"35":0.0000013265414534999975,"36":-0.000001194719313620838,"37":-0.000005880315772164367,"38":-0.000021407340775324463,"39":0.000002603199185613143,"40":0.000005615886855094659,"41":-0.000007436936834516528,"42":-0.000009717640284682989,"43":0.000011932760894370331,"44":-0.000013961268903234824,"45":0.000006137647522482009,"46":-0.000013921284803313734,"47":0.000006065344269485557,"48":-0.000014041481770329444,"49":8.088941074289871e-7,"50":0.000005366066074931415,"51":-7.070313648696712e-7,"52":-0.000006587108797763395,"53":-7.32441428750928e-7,"54":-0.0000123322513373908,"55":-0.000014738235030435603,"56":-0.000005973400425603304,"57":-0.000003227733820270036,"58":0.000005272500337272813,"59":0.000008139378380634359,"60":-0.000020546333243411594,"61":-0.000004064984056213194,"62":-0.000005503688649887635,"63":-0.000017951845350463232,"64":-0.0000026977015874162023,"65":-0.000022202435486437532,"66":-0.000005409494719053708,"67":-0.000016029075853380887,"68":-0.0000019934870980871805,"69":-0.000010035571676173264,"70":-7.145182975251805e-7,"71":-0.0000032997113986906258,"72":0.0000060789992184399846,"73":0.000002486913191009802,"74":-0.000010310427775155403,"75":-0.000003356056706485074,"76":0.000004594815985787284,"77":-0.0000010646123778746537,"78":-0.000021095150035424535,"79":-0.00000518633194087983,"80":-0.000002068272063618426,"81":-0.000013898957951514359,"82":-0.0000036409277491211074,"83":-8.577011428045445e-7,"84":-0.0000075857792805287684,"85":0.000004001976529484435,"86":-0.000003398719046567739,"87":0.0000016492398200265132,"88":0.000013846676459401882,"89":0.0000040538001334551205,"90":0.0000043597274104117606,"91":6.109810113239886e-7,"92":-0.000017452002693658534,"93":-0.000005374637259064987,"94":-0.0000066122204872071956,"95":-0.000002064691883808749,"96":0.000002459302815019364,"97":-0.0000020625821490765433,"98":-0.000017358864032667183,"99":-0.000005635028708730188,"100":-0.000016229056747971773,"101":-0.0000029701754213402655,"102":-0.000002542962140142224,"103":-0.000002767547207087894,"104":-0.00001193995830975492,"105":-4.964931164599299e-7,"106":0.00001157819208268503,"107":0.000011761900252583178,"108":-0.000024864442991633388,"109":0.0000075955609831031764,"110":0.000008132924598303386,"111":0.000004517536887551637,"112":-0.000006251738574016683,"113":-9.163297700034413e-7,"114":-0.00000394343781570384,"115":-0.000011701208381993935,"116":-0.00001609948624270181,"117":-0.000004978967252829569,"118":-0.000005730211373994966,"119":-9.829870608559021e-8,"120":-0.00000236272365403248,"121":-3.5502090418813624e-7,"122":-0.000010412877507502967,"123":0.000003522504301305865,"124":-0.00001465249011292411,"125":0.000002899468459870934,"126":-0.0000055185928346961595,"127":-0.000007393943081913429,"128":0.0000018379664074177448,"129":-0.0000024810151790424594,"130":0.00001137434835056092,"131":-0.000011160607993058897,"132":-0.000003683693373302062,"133":0.0000030253143756979406,"134":-0.000005799015576923286,"135":0.000008153628283108793,"136":0.000013755893289161672,"137":0.000013491126356867337,"138":0.00000763206366752679,"139":0.000002113822810850481,"140":-0.000014551941133832084,"141":-0.000006739681505184794,"142":-0.000011919166479433765,"143":-0.000003588595416805645,"144":0.000006085280670157113,"145":-0.000013989158859183657,"146":-0.000012687183198049318,"147":-0.000004537438933170552,"148":-0.00001059935916718747,"149":0.000014573032301206586,"150":-0.000015188764270298367,"151":-0.000007835141279154136,"152":-0.000007357164467374378,"153":0.000005191036930695725,"154":-0.000020641742910289233,"155":-0.000009485494493883305,"156":0.0000033078622414459,"157":0.000008879442408016358,"158":-0.000004316086591288098,"159":-0.000017844234892763183,"160":0.000005484547504041781,"161":-2.383355048246463e-7,"162":0.0000018167667507825864,"163":-0.000013801072937161406,"164":0.000008144470723186143,"165":-0.0000036111399247183953,"166":0.000006494648421340005,"167":-0.000007037908936402065,"168":0.000014102585820546175,"169":-8.061322199991165e-7,"170":-0.000007173460679116037,"171":0.0000035770774016650497,"172":-2.641720716755917e-7,"173":0.000006483385546282628,"174":0.000007319470481603883,"175":-0.000015509472102315652,"176":-0.000013903136564252027,"177":0.000005470950201682467,"178":0.000017742781351698414,"179":-0.000017078147119513113,"180":0.000008574775230051541,"181":-0.000011561795917653975,"182":0.00001684388362153286,"183":-0.000016618130229476606,"184":-0.000009617953585225424,"185":-0.000009401681273694067,"186":-0.000012746581673400699,"187":-0.0000034876295700781834,"188":0.000007399581805636691,"189":6.731292666195856e-7,"190":0.000005757134321025992,"191":0.00000275087137609953,"192":0.000004882911453827737,"193":-0.000019159138916940997,"194":2.407965476744242e-7,"195":-0.000005783548411497324,"196":-0.000027328027257884125,"197":-0.000012515450745553862,"198":-0.000003889556019990122,"199":0.000009084758787384331}},{"sx":5,"sy":5,"depth":8,"w":{"0":0.00019784760144729276,"1":0.033452317531472577,"2":0.016735724946185457,"3":0.057847990885673585,"4":0.05029164794175928,"5":-0.036435129894404124,"6":-0.011310093767112455,"7":0.03127458898905289,"8":-0.00024351844917297705,"9":0.007064287337301028,"10":0.03158692893573733,"11":0.020834584068940697,"12":0.05358025158982787,"13":-0.04788964634084669,"14":-0.04393673899561419,"15":0.030703545488230784,"16":-0.0008979842416391621,"17":-0.008133786136866553,"18":0.010341599575536094,"19":-0.015349229400066316,"20":0.017390678243790703,"21":-0.09491600607391996,"22":-0.04071167604362854,"23":0.017010097736304314,"24":-0.000680606350765368,"25":0.03306752556984679,"26":0.05526585116775256,"27":-0.09224672080933019,"28":0.04279165278773086,"29":-0.054879008920150386,"30":-0.04387121022871223,"31":-0.08527112335111961,"32":-0.0004010280345319357,"33":0.05291978599476514,"34":0.11206403279724418,"35":-0.11386462938136648,"36":0.06474462680200471,"37":0.0033404779627282145,"38":-0.056832598333679624,"39":-0.11570875049008902,"40":-0.0010418565190757876,"41":-0.000505173624239898,"42":-0.047954872265983696,"43":0.11450647524034291,"44":0.00740294738745163,"45":-0.029959853206289248,"46":-0.01829576009316577,"47":0.0873699868763859,"48":-0.0009506288358758305,"49":-0.004824736180426317,"50":-0.035427117694567994,"51":0.087057785031888,"52":0.014697514791762954,"53":-0.05342457900484826,"54":-0.015589109560062321,"55":0.07590599144796889,"56":-0.0007348710161791098,"57":0.0005131075632817166,"58":0.0002790422088491506,"59":-0.011017007989584836,"60":0.014935917422719823,"61":-0.0625954210377483,"62":0.012734816394576541,"63":0.007640497619272389,"64":-0.00012699610243032197,"65":0.05494393542850624,"66":0.06572319772017013,"67":-0.09213349609090675,"68":0.04089458281885518,"69":-0.014494643842859594,"70":0.01483883642558761,"71":-0.09479021204093135,"72":-0.00018036111533124778,"73":0.08118870511877566,"74":0.11909967513892304,"75":-0.13976544168924707,"76":0.06404136296241997,"77":0.012549645209079542,"78":-0.028511497605863377,"79":-0.12294510723589903,"80":-0.0003412994266938393,"81":-0.05051388950255353,"82":-0.1023350808000803,"83":0.12346056148554958,"84":-0.05872048030302372,"85":-0.03152688102767179,"86":0.024712064380993923,"87":0.1377437173968796,"88":-0.0007702327138142093,"89":-0.023545674432398887,"90":-0.08733991206063829,"91":0.13441489208751953,"92":-0.03642299224120238,"93":-0.0509973672031095,"94":0.04300911704094961,"95":0.11922075388174791,"96":-0.0006427665936522583,"97":-0.020466793042805756,"98":-0.03425008743000931,"99":0.021909447119220972,"100":-0.040530876935421824,"101":-0.03128587971069717,"102":0.01345069855876555,"103":0.004280940500782528,"104":-0.0004454421088868638,"105":0.0461666395111367,"106":0.06835414939232608,"107":-0.08690181828900335,"108":0.014158730099863301,"109":0.02867407554546267,"110":0.01933368173426318,"111":-0.09149777142140678,"112":-0.00021354944264039474,"113":0.08481874119600763,"114":0.10079963725528633,"115":-0.1323037574819221,"116":0.07086032729378702,"117":0.0660088244403539,"118":-0.027068181280239724,"119":-0.13289839245750656,"120":-0.0005235132249306281,"121":-0.06252591070960914,"122":-0.12323949552658137,"123":0.13813864463554715,"124":-0.0656573810823238,"125":-0.00579347194535216,"126":0.04283900548352705,"127":0.137138324810497,"128":-0.00048499283820146826,"129":-0.016895776082956997,"130":-0.10661935898991735,"131":0.15587234130751854,"132":-0.06963934924094642,"133":0.006245762338883662,"134":0.02001746020242759,"135":0.17161074470064788,"136":-0.0003750368388400825,"137":-0.01488586717892988,"138":-0.05738195872938754,"139":0.10709576920387466,"140":-0.04547452514857008,"141":0.02950754109167585,"142":-0.0027572756406527323,"143":0.06267665953697918,"144":-0.0004861101145229083,"145":0.05579699844381049,"146":0.04304659784133455,"147":0.0012862327971639392,"148":-0.009366396053179345,"149":0.08858472007471525,"150":-0.015874103622836908,"151":0.005705997842834006,"152":-0.00008950661429242393,"153":0.07069012681783089,"154":0.09431575528902329,"155":-0.05076343482894052,"156":0.023429452304759565,"157":0.11974453033934297,"158":-0.032703604684015584,"159":-0.05795927673918771,"160":0.00015980940239594254,"161":-0.08165813342602803,"162":-0.09375623733397853,"163":0.09900747140070233,"164":-0.06479001355028254,"165":-0.043561714044802975,"166":0.02754182881465606,"167":0.10220018636568746,"168":0.00011597069360276713,"169":-0.05501582287510562,"170":-0.13100497985054865,"171":0.15214008432605475,"172":-0.09661064780752558,"173":0.0007522037969997081,"174":0.020634304968337656,"175":0.13786634424243416,"176":0.00022468196013147358,"177":-0.026211161488695844,"178":-0.09612648310993582,"179":0.1301215393900572,"180":-0.08676380051265606,"181":0.07666704839816676,"182":-0.009654466480873048,"183":0.11715756755071201,"184":-0.0004750878435219145,"185":0.008365593288409216,"186":-0.03107642501987807,"187":0.08780945511932989,"188":-0.06003128916947601,"189":0.09320691357392388,"190":-0.03985895034360111,"191":0.06106197242408777,"192":-0.0001435474944681978,"193":0.05003366174721971,"194":0.06950657353266906,"195":-0.0030745769923188177,"196":-0.00009583867634439398,"197":0.11462772191852684,"198":-0.06213573849786795,"199":-0.031367040782216866}},{"sx":5,"sy":5,"depth":8,"w":{"0":-0.00045756372952102353,"1":0.032522027878373626,"2":0.05219300451606121,"3":-0.06001752891898603,"4":0.022852572695172498,"5":-0.005134547034282043,"6":-0.09505265521232846,"7":-0.08341448612357519,"8":-0.0008546656330896741,"9":0.016082428520912836,"10":0.035868586989995704,"11":-0.01674052898700816,"12":0.028073123545784062,"13":-0.02685127587697717,"14":-0.07777470241736675,"15":-0.019719855614031976,"16":-0.001332810161629951,"17":-0.04947511264916105,"18":-0.03362339794249708,"19":0.0697859693650093,"20":-0.014523373928753141,"21":-0.0854344420793584,"22":-0.05351021207346094,"23":0.061355302889234034,"24":-0.0009204412763208807,"25":-0.009305257795846818,"26":0.002071113788903331,"27":0.02727023361628529,"28":-0.02466622088590354,"29":-0.02291960225286895,"30":-0.04012336225337827,"31":0.03211301476983874,"32":0.000342071163184124,"33":0.04779924423880782,"34":0.07113773143038411,"35":-0.061116385075999924,"36":0.0230188124252169,"37":0.042465097482124195,"38":0.0430892067805784,"39":-0.04234146750326303,"40":-0.0007382179606259452,"41":-0.0031302116635447616,"42":-0.004423262698426396,"43":-0.008170058409378084,"44":-0.01817081062724982,"45":-0.02852169068036716,"46":-0.11803626553529598,"47":-0.03704850135550496,"48":-0.0010500901170937282,"49":-0.010187839164957462,"50":-0.016521987140518734,"51":0.01258368241563753,"52":-0.017993491012017363,"53":-0.046576279401282145,"54":-0.09605412709462928,"55":0.007190222371570831,"56":-0.0012080688569102748,"57":-0.027671516728783478,"58":-0.023918654349655663,"59":0.07545661987233467,"60":0.004649095265510977,"61":-0.08769373982247114,"62":-0.005812434541806993,"63":0.0490755373137751,"64":-0.0010775722383108513,"65":0.032797664790562085,"66":0.04435074855539428,"67":-0.0046661598859884705,"68":0.035833441977725644,"69":-0.07046052432840115,"70":0.04273397284584638,"71":-0.00847051985610096,"72":-0.00038572226156815474,"73":0.110154884169627,"74":0.1791060954080125,"75":-0.11076083967057405,"76":0.08050122503289732,"77":-0.011908902015652005,"78":0.08936345563565262,"79":-0.09004601171141857,"80":-0.00021540537195076376,"81":-0.009103005346042796,"82":0.008080599546876621,"83":0.04730451506126291,"84":-0.010778679892313969,"85":-0.010435741339852766,"86":-0.06653966872765762,"87":0.015405746096994105,"88":-0.0006066844592637167,"89":-0.0556311319548785,"90":-0.026673242284984335,"91":0.06484588165711731,"92":-0.028515930174044257,"93":-0.07585579730376085,"94":-0.021906475822860236,"95":0.05965936838440098,"96":-0.001345471536271441,"97":-0.053508032040269514,"98":-0.030671946336935072,"99":0.06924101920201955,"100":-0.003462011840614972,"101":-0.1265168675757716,"102":0.08717535386044668,"103":0.06195398868703248,"104":-0.0010712468005961082,"105":0.04963449323911801,"106":0.061338481321658644,"107":-0.05732299138605442,"108":0.03360022140001823,"109":-0.0824576696598231,"110":0.14215792142501094,"111":-0.0706553750252089,"112":-0.00012881214938677282,"113":0.11966528318980418,"114":0.15740100586717098,"115":-0.140017476235364,"116":0.08860902311089622,"117":-0.020787043120662103,"118":0.1625804004628583,"119":-0.15803987389424978,"120":-0.0003757147906877019,"121":-0.053720069220866945,"122":-0.051492999276982206,"123":0.07697500111086708,"124":-0.060136025315202075,"125":-0.030937168405018388,"126":-0.09780997377427356,"127":0.06110860971732508,"128":-0.0008057673750786954,"129":-0.0985141345399746,"130":-0.14676142664646838,"131":0.1311797861416393,"132":-0.10952760860662264,"133":-0.07502263592927137,"134":0.03235451539509546,"135":0.1469410852655141,"136":-0.000016579799597422442,"137":-0.03358430899280947,"138":-0.0642686508090446,"139":0.12160576804778012,"140":-0.05730903377299354,"141":-0.07891030641676698,"142":0.13001067940242064,"143":0.12318493279516239,"144":0.0005629146153470313,"145":0.04377590526300675,"146":0.05331418067580137,"147":-0.0046501224506121305,"148":0.01626940499870062,"149":0.010004298524401538,"150":0.17737884099049342,"151":-0.007689585418205041,"152":0.0012650198732114734,"153":0.13356609040025422,"154":0.18815833655062406,"155":-0.09172080437688315,"156":0.09169428179658018,"157":0.08192022506712505,"158":0.14980072924631552,"159":-0.09610663909572921,"160":-0.00032586300831118184,"161":-0.038728127618847814,"162":-0.02639962097620509,"163":0.07380881852504224,"164":-0.034268084826940166,"165":-0.023208354530154823,"166":-0.06606075709856489,"167":0.04903808709947597,"168":-0.00020374967449600858,"169":-0.0951935843318665,"170":-0.1405214940567072,"171":0.14919601687413636,"172":-0.10347101783182576,"173":-0.027639622722435774,"174":0.04140561308737573,"175":0.15614843363125902,"176":-0.000012659919261646976,"177":-0.01760951857120974,"178":-0.10405005464090682,"179":0.1590329540694159,"180":-0.07549634084196419,"181":-0.009436954334553365,"182":0.1447534199163638,"183":0.1614864087963817,"184":0.00027097665226535217,"185":0.04133269112881914,"186":0.02997377289004353,"187":0.02733257077148113,"188":-0.02371202438120264,"189":0.07380608741005494,"190":0.17716657438898983,"191":0.014793457210888549,"192":0.001255906712890349,"193":0.11867935460682875,"194":0.1788790660808266,"195":-0.08017471493821864,"196":0.08554313995507051,"197":0.08965303290417607,"198":0.0830596739024397,"199":-0.10497621812918541}},{"sx":5,"sy":5,"depth":8,"w":{"0":0.00004302809930301733,"1":-0.010248842550505542,"2":-0.0067110382775962705,"3":-0.0074785376815706,"4":-0.004581304546807459,"5":-0.008312388074508984,"6":-0.008745031192900557,"7":-0.004505198463352917,"8":0.000030962528260548016,"9":-0.008459109614166354,"10":-0.006319525001047832,"11":-0.009223272500290402,"12":-0.003588843087372293,"13":-0.008322446181058086,"14":-0.007105408904050109,"15":-0.005783086855811303,"16":0.0000472882340658362,"17":-0.006568476133543588,"18":-0.003517118299479451,"19":-0.009371682521655789,"20":-0.0011093691231729849,"21":-0.006130837636778772,"22":-0.007413052321071967,"23":-0.007928955938229957,"24":0.000001391229404290704,"25":-0.006895014417928895,"26":-0.004230854043990553,"27":-0.004097130360758443,"28":-0.0015204131359396484,"29":-0.005744524647603972,"30":-0.006496241970478814,"31":-0.0055173262334008944,"32":-8.811899288671823e-7,"33":-0.007045779846981114,"34":-0.006681913100459612,"35":-0.008221359561331514,"36":-0.0032212050497190154,"37":-0.004862048301621394,"38":-0.006141164991246116,"39":-0.004232754931236235,"40":0.000024276577731242833,"41":-0.010999128500641794,"42":-0.0070722245057642215,"43":-0.005821857707244819,"44":-0.0074403897524319635,"45":-0.005823329087615439,"46":-0.007688933686952733,"47":-0.004067449232181839,"48":0.000037266453048650236,"49":-0.009198153823602246,"50":-0.007160688486819167,"51":-0.008351435866001091,"52":-0.007302148659998379,"53":-0.005284304156193225,"54":-0.004619099739577838,"55":-0.004689169555312296,"56":0.00000756744011499145,"57":-0.007286808106662639,"58":-0.005418801472448929,"59":-0.009947787173648415,"60":-0.006160129698945515,"61":-0.0011587905608843262,"62":-0.006187092899664159,"63":-0.007432305393514523,"64":0.000013396995227581948,"65":-0.007878645065061248,"66":-0.007440781060787638,"67":-0.0041442995831454665,"68":-0.007147440864516126,"69":-0.0010028412955693942,"70":-0.005878336074857621,"71":-0.005899843532166843,"72":0.00002197036951098289,"73":-0.009120672625301767,"74":-0.009753776789928116,"75":-0.008500759057288892,"76":-0.008664510029600336,"77":-0.0016193431279746102,"78":-0.005406319034821023,"79":-0.004719804228928278,"80":0.00001938289801002698,"81":-0.013181095688249338,"82":-0.008492450694582593,"83":-0.0040281510653859525,"84":-0.008807788006187981,"85":-0.011014613710930984,"86":-0.004915039865031907,"87":-0.004534665115461223,"88":0.000057940225553318,"89":-0.01148810495655187,"90":-0.007676778602338675,"91":-0.008803219146724394,"92":-0.008063609278437807,"93":-0.008448427613690489,"94":-0.0005722052775965264,"95":-0.006605730999314301,"96":0.00004629699488875994,"97":-0.009896742620007441,"98":-0.0061490173689423035,"99":-0.009488935010036767,"100":-0.006719763398037564,"101":-0.003105806478094693,"102":-0.0002065214673312707,"103":-0.0073055387158264895,"104":0.000009472017088874029,"105":-0.01064687040208117,"106":-0.009156707357106803,"107":-0.006232466545625465,"108":-0.007591392176616691,"109":-0.0018890751787982642,"110":-0.002386216855282795,"111":-0.007275494913551135,"112":-0.0000026599238258533604,"113":-0.011542405239938188,"114":-0.011429960421658277,"115":-0.008505485341312879,"116":-0.009485990131478423,"117":-0.0026292144746288054,"118":-0.0032027701449791153,"119":-0.006966077769465445,"120":0.00001715645095806928,"121":-0.013882333984184139,"122":-0.01340930428998053,"123":-0.004239161557895117,"124":-0.011660390673329652,"125":-0.010472702644931782,"126":-0.0001367858637283567,"127":-0.007958224900811313,"128":0.000057019962832586105,"129":-0.011768713465564002,"130":-0.010760128656481554,"131":-0.007484525882713545,"132":-0.010533833001465561,"133":-0.010615313329303846,"134":0.0026664652977115466,"135":-0.009520611449392442,"136":0.00002405546076982617,"137":-0.009779739188460465,"138":-0.00759072369660462,"139":-0.012636948649719931,"140":-0.007976882123132424,"141":-0.004726167996000547,"142":0.005278259189729503,"143":-0.011597836563316763,"144":-0.000020667729940337754,"145":-0.00967555206982152,"146":-0.009064932985735177,"147":-0.009134388149631637,"148":-0.008540302925269675,"149":-0.004181266201355155,"150":0.0015670299543309003,"151":-0.011582232290425045,"152":-0.000020055213621404803,"153":-0.011361958208196198,"154":-0.011258636338569215,"155":-0.012467069439693546,"156":-0.01049458779592356,"157":-0.005995276663755001,"158":-0.0013651998995569388,"159":-0.010308715571040749,"160":0.000013500666627639843,"161":-0.01474585954685396,"162":-0.010913798695685465,"163":-0.0036407211734798195,"164":-0.01054707958652862,"165":-0.009756303826935929,"166":0.0009473214501956089,"167":-0.005408292017677634,"168":0.000059051784907331236,"169":-0.012758561404472192,"170":-0.010417812708953783,"171":-0.006241098392472546,"172":-0.009265988523182205,"173":-0.008529080074918264,"174":0.0023209723448157807,"175":-0.0084137704532562,"176":0.00002719950310786483,"177":-0.010553809881184588,"178":-0.008681782657942847,"179":-0.009249187983832981,"180":-0.007901379165302183,"181":-0.003593833822784617,"182":0.005781595839976821,"183":-0.01166658101519584,"184":-0.00001809335106810723,"185":-0.009330455431976,"186":-0.00853359683022331,"187":-0.010653676725631686,"188":-0.007679480973666383,"189":-0.0028893477043493536,"190":0.0004681068784422462,"191":-0.012329983381002245,"192":-0.00005174013048012351,"193":-0.010511092034645116,"194":-0.010296794706291596,"195":-0.012338840331308703,"196":-0.008955896825929378,"197":-0.004301239471166232,"198":-0.0019764273933990527,"199":-0.011146179371146312}},{"sx":5,"sy":5,"depth":8,"w":{"0":-0.00046295781879874637,"1":0.006212080585169999,"2":0.0278631779131342,"3":0.02779886986815482,"4":0.05230917295506434,"5":-0.10823618751352726,"6":0.08945180297414007,"7":0.006255643565665904,"8":-0.0005764191181248407,"9":0.03187136294701147,"10":0.06739868204863246,"11":-0.05577767631606377,"12":0.08414193869204119,"13":-0.12019304378872668,"14":0.11096936996583787,"15":-0.06952220626718014,"16":-0.00045286437662874065,"17":0.07375707065641728,"18":0.13597353321508443,"19":-0.09354973530942902,"20":0.11730586116583268,"21":-0.09402787074272055,"22":0.062070805670177275,"23":-0.11008309925044087,"24":0.00039818916408187934,"25":0.120891900388488,"26":0.20531614289621936,"27":-0.17993822828953981,"28":0.14568284917881968,"29":-0.05777368580949482,"30":-0.047759368907151746,"31":-0.1760085138465961,"32":0.00020957424494057235,"33":0.04656702592369054,"34":0.16953860685234243,"35":-0.08031974395049728,"36":0.09347096356978589,"37":-0.10803565721819444,"38":-0.09655121686774319,"39":-0.08002336396171762,"40":-0.0001354645231279993,"41":0.0008665875655474243,"42":-0.01999767129876161,"43":0.058795416890657495,"44":0.0628307893285516,"45":-0.04180228335657388,"46":0.12052264745061753,"47":0.06090431077123711,"48":0.0008017892655499975,"49":0.027406343967307192,"50":0.014352546094970157,"51":0.009353146094345195,"52":0.09019868620582704,"53":-0.07226101372078438,"54":0.12280228819239937,"55":-0.004162913743348626,"56":0.0004483445334474432,"57":0.09495112905874797,"58":0.13608452473111468,"59":-0.07150219613118428,"60":0.15384808894041918,"61":-0.03271632670077294,"62":0.11349265504563326,"63":-0.07362118865598141,"64":0.0011194076432245452,"65":0.09631759816020873,"66":0.15376712049566374,"67":-0.12127843195111317,"68":0.1501169438624241,"69":-0.010597199695682643,"70":0.04846883103051062,"71":-0.11575919594718741,"72":0.00042857858755683716,"73":0.08237550749570181,"74":0.16791546124945106,"75":-0.07759761404700702,"76":0.14909235220468983,"77":-0.007870829854064404,"78":-0.001206556901232822,"79":-0.0972881062284606,"80":0.00014607660319507955,"81":-0.01698646239722636,"82":-0.10088481602196431,"83":0.11901827495899349,"84":-0.06814200776362665,"85":0.02767184751237974,"86":0.11398582297679574,"87":0.11141692001778748,"88":0.0002021475156137348,"89":-0.053344735343524234,"90":-0.10171853818488848,"91":0.1497505176698099,"92":-0.08678285915018359,"93":0.045476267197370156,"94":0.1542056543334488,"95":0.14151548464514188,"96":0.000004323642552186224,"97":0.027500437484898253,"98":-0.001473558650537858,"99":0.06212707713904604,"100":-0.007067963470203911,"101":0.07453022199344532,"102":0.11005692858102156,"103":0.03650317820750681,"104":-0.000485290770458895,"105":0.026214526158897525,"106":0.02385191009134043,"107":-0.02967431163381376,"108":0.02245520135059364,"109":0.02141039192220659,"110":0.06233806776322598,"111":-0.008904908027651743,"112":-0.00017566996391078305,"113":0.03758033668956959,"114":0.03881235452945597,"115":-0.007739336047245814,"116":0.023025353720972263,"117":0.0030544171414277023,"118":-0.004734936478555493,"119":-0.030762305661458666,"120":0.0000723867955511366,"121":-0.04018847696423563,"122":-0.11554914500350698,"123":0.08547399182716858,"124":-0.08152676778508924,"125":0.05891181537308395,"126":-0.004941238099359506,"127":0.04993892475343494,"128":-0.00024318072215650453,"129":-0.05608833578983264,"130":-0.12471412183199823,"131":0.16899196846526066,"132":-0.10695747135590945,"133":0.0973124715764038,"134":0.007926650350701208,"135":0.14200656723496657,"136":-0.0007967018122856251,"137":-0.025557428731594646,"138":-0.1094444959624152,"139":0.1422622906177185,"140":-0.07299368966856731,"141":0.12669453457166455,"142":-0.024619803008156364,"143":0.14250827994288126,"144":-0.0004368039393692104,"145":-0.02428730850812521,"146":-0.06401717104103699,"147":0.11935320745775525,"148":-0.0654709963351553,"149":0.08291380452469238,"150":-0.05524047765594853,"151":0.09153457340946394,"152":-0.0008046197180686799,"153":-0.006730617598649409,"154":-0.04469825479089667,"155":0.047327058361254656,"156":-0.04470378520867096,"157":0.047401609966943856,"158":-0.09678538101730236,"159":0.03945292913300597,"160":-0.000043052232501577866,"161":-0.039174113517073346,"162":-0.04809125358169403,"163":0.007806421017536473,"164":-0.04255675790479498,"165":0.03273779014662268,"166":-0.10904141698676532,"167":-0.012299889510278265,"168":-0.00007929082253335062,"169":-0.06770055205970642,"170":-0.07417241735653227,"171":0.11087004414586081,"172":-0.07821150320528199,"173":0.04329889759151061,"174":-0.12642197934755578,"175":0.09009761615731098,"176":-0.0013903940439190976,"177":-0.05812950455319097,"178":-0.11238312383097698,"179":0.11932005755443358,"180":-0.08453345371447188,"181":0.06612696904228622,"182":-0.11719918300523732,"183":0.11590130197837165,"184":-0.001298434847928817,"185":-0.07451131978769943,"186":-0.10840743015373074,"187":0.12908704778854538,"188":-0.10139378841615862,"189":0.05457147993726329,"190":-0.12357361837837044,"191":0.11864791549596435,"192":-0.0016730702503423632,"193":-0.037893430694718365,"194":-0.04580518096401778,"195":0.09742891113942817,"196":-0.07656423336989164,"197":0.049614304876314325,"198":-0.14727127565492018,"199":0.11774658498347644}},{"sx":5,"sy":5,"depth":8,"w":{"0":-0.00014536368494699278,"1":0.07786580568815873,"2":0.07017523880231508,"3":-0.059928723630366006,"4":0.07196752975633454,"5":0.08409299862795828,"6":-0.05230711236957056,"7":-0.07470024657713059,"8":0.00004035656446772851,"9":0.005617507884302799,"10":-0.01861624645284421,"11":0.013983856227839753,"12":0.006231866838445478,"13":0.03882438111656374,"14":-0.08856677390681235,"15":-0.004463331682494416,"16":-0.0011886263603074956,"17":0.0064338129886506844,"18":-0.10477717110329143,"19":0.1123880372670666,"20":-0.015955094870324846,"21":-0.06459910906835843,"22":-0.04104551499609248,"23":0.1048548919331455,"24":-0.0017626072434954014,"25":-0.049841169956970986,"26":-0.0978520590399185,"27":-0.004475584301452449,"28":-0.04502533567166933,"29":-0.1452563982391623,"30":0.02501224186587046,"31":0.005287272616909595,"32":-0.00035895453749594015,"33":0.036406485305587884,"34":0.047472903997977156,"35":-0.0869314257327669,"36":0.048290835746359805,"37":-0.10946049905776636,"38":0.1840125002945737,"39":-0.07119045388959651,"40":0.00039655532076938885,"41":0.08645069607906831,"42":0.11746974137622128,"43":-0.04051423703318978,"44":0.06397216107910507,"45":0.1352914832144045,"46":-0.07023529510598331,"47":-0.08006494417332677,"48":-0.00015861841006772177,"49":0.009248853582329207,"50":-0.033878517171604276,"51":0.10658306283768505,"52":-0.030121053207699047,"53":0.07802089925381273,"54":-0.1043147053544534,"55":0.09066687600190358,"56":-0.0010010523379332626,"57":-0.03575066547880163,"58":-0.14715446230404286,"59":0.24120497669818017,"60":-0.057582267997890346,"61":-0.0314958311703784,"62":-0.01376733887422189,"63":0.2537457975077871,"64":-0.0012860122796774565,"65":-0.08265567702371901,"66":-0.18871140326725613,"67":0.12524958065426348,"68":-0.10936287247194032,"69":-0.04449762414352112,"70":0.06041856089836654,"71":0.13866846224803533,"72":0.000339148460780421,"73":0.009173669950761286,"74":-0.010119080299527376,"75":0.014626192114127023,"76":-0.002314179374272777,"77":0.02197002189702598,"78":0.23568657115374506,"79":0.03168536715567836,"80":0.0009911853054627889,"81":0.10687382550861477,"82":0.17134350963725692,"83":-0.09031351085675551,"84":0.1033403308568419,"85":0.10776770154109304,"86":-0.08582622059568863,"87":-0.11568440501649699,"88":0.00046335307188789224,"89":0.002077927106310648,"90":-0.0020141430397521546,"91":0.11414868229265687,"92":-0.005810372336105865,"93":0.038820299944203975,"94":-0.10820466328893155,"95":0.061659815535893676,"96":-0.00044987723571177687,"97":-0.07328684804033167,"98":-0.11996796581890949,"99":0.23588380946948512,"100":-0.08785504270898728,"101":-0.030859824251350202,"102":-0.010227620226516998,"103":0.20744643013994596,"104":-0.0006409874423683215,"105":-0.09187162644744218,"106":-0.19530077850424107,"107":0.1324131289555121,"108":-0.1353416580473858,"109":-0.03110447391030827,"110":0.08562587734990265,"111":0.1519104404028563,"112":0.000510050110449389,"113":0.0033096346480029825,"114":-0.006326713597262473,"115":0.07143624655987792,"116":-0.0047245612464412905,"117":0.13178889299568658,"118":0.22733488220192236,"119":0.07605349430232428,"120":0.0007756639982866104,"121":0.15029922784304298,"122":0.2515868654605402,"123":-0.1331911868627723,"124":0.1619124023182868,"125":0.09657942746509322,"126":-0.08839371799067731,"127":-0.14400228566116807,"128":0.00013718479197305093,"129":-0.007432248856957892,"130":0.02163465932042804,"131":0.028839921268199245,"132":0.03276871412239982,"133":-0.025075997861136963,"134":-0.08286505996110395,"135":0.007080581294747167,"136":0.0001934269010759259,"137":-0.03893187951288761,"138":-0.045739470299642836,"139":0.14810751272636033,"140":-0.025764474209144333,"141":-0.05481136017758252,"142":0.018419526809218507,"143":0.16519926556816147,"144":0.0007610040216795117,"145":-0.04691722700557719,"146":-0.13255232140462136,"147":0.0614992646184968,"148":-0.06701304141689052,"149":-0.01802078680076109,"150":0.12024332461671075,"151":0.06937732613708235,"152":0.001520992373063002,"153":0.026519465173715517,"154":0.016323147906638573,"155":0.05638277165290302,"156":0.017814165644925672,"157":0.12225025743170062,"158":0.21638993913228702,"159":0.04421333687607318,"160":0.0009215904006185544,"161":0.16375057839892435,"162":0.26153926245777664,"163":-0.12987671341153345,"164":0.14140960778182757,"165":0.12580537478803433,"166":-0.10095122228233344,"167":-0.12964060181121034,"168":0.0006068707843740796,"169":-0.006635386652133347,"170":0.0017724569155431985,"171":-0.02631195914227229,"172":0.042644012474553766,"173":-0.03676064208755712,"174":-0.07506358482918464,"175":0.0028459188760292012,"176":0.0004055575261703121,"177":-0.03174961162472803,"178":-0.05085868404674237,"179":0.05330486490723716,"180":-0.008068675313291685,"181":-0.07460039731031223,"182":0.05503176640584298,"183":0.05842983690566771,"184":0.0004947166847451104,"185":-0.0016929238998768244,"186":-0.10413279870476724,"187":-0.014382251669344093,"188":-0.055424804123031836,"189":-0.08088186354878009,"190":0.17105286040112114,"191":0.004584131616727595,"192":0.0008008104052945597,"193":0.03960294726067637,"194":0.012046181395114236,"195":0.021511420207126954,"196":-0.023522915465270286,"197":0.07242454898592572,"198":0.24692537412518872,"199":0.011348988389966577}},{"sx":5,"sy":5,"depth":8,"w":{"0":-0.00003738967011594722,"1":-0.04153875119788609,"2":-0.04374905867838222,"3":-0.007024128323916444,"4":-0.019701809067041685,"5":-0.06812517714243993,"6":0.058576596698800526,"7":0.002426907987094659,"8":0.00026976886477698243,"9":0.04657409235820503,"10":0.053188987319697484,"11":-0.04278180345778836,"12":0.039409390106013534,"13":0.0034121824675693645,"14":0.019988013551385964,"15":-0.05115000763630568,"16":0.00023961459361312242,"17":-0.009536940387902936,"18":0.01752267051401291,"19":-0.043786754502186206,"20":0.008250043103943179,"21":-0.027117977225878487,"22":-0.012473631139120872,"23":-0.03925976523201445,"24":-0.00007256572672736189,"25":-0.04744225580746595,"26":-0.005127830919181,"27":-0.006307158006198741,"28":-0.014787332426384168,"29":-0.0036264470208444807,"30":-0.10388935010284711,"31":0.008301036587465921,"32":0.00009002637438799552,"33":-0.03034148109073654,"34":-0.0380233007217861,"35":-0.016280438693175983,"36":-0.05970587937733775,"37":-0.029253003313217757,"38":-0.08400900725695411,"39":-0.006672938775945146,"40":0.00012797445515181865,"41":-0.03783219296080767,"42":-0.046225797858547385,"43":-0.006736796312808479,"44":0.00016151317792001375,"45":-0.04797012995485778,"46":0.11794969750396361,"47":-0.005651985839156457,"48":0.0005154626003644905,"49":0.05833763813106714,"50":0.05935615002876636,"51":-0.03153628460751412,"52":0.042206261436310656,"53":0.027489681896313685,"54":0.0821130943199683,"55":-0.04864793244888361,"56":0.000005819502154653638,"57":0.00042208957746615584,"58":0.03617766764767708,"59":-0.04657259642613546,"60":0.02703778678653586,"61":0.000009468121426454317,"62":-0.007287156780438891,"63":-0.041545478296022446,"64":-0.0007303383117448216,"65":-0.0217597950108516,"66":0.011801940862864398,"67":-0.004809971372060774,"68":0.01162652805212884,"69":0.012488614204728736,"70":-0.0814888564552317,"71":-0.003851858046554743,"72":-0.00009924721705809801,"73":-0.01728496995997654,"74":-0.013241365120429177,"75":-0.02266178435336873,"76":-0.008618854167699452,"77":-0.019512603002173286,"78":-0.04373012236761042,"79":-0.01805253788737179,"80":0.00015368230786997174,"81":-0.0524159360630031,"82":-0.08231508434248616,"83":0.006242090262037648,"84":-0.04839089209295207,"85":0.009559164967357875,"86":0.140441560578646,"87":0.014901495229275263,"88":0.00032372939675742783,"89":0.05685581925407615,"90":0.06423648746899785,"91":-0.03517277354785648,"92":0.02425620765630921,"93":0.06177233341297822,"94":0.07206797931906327,"95":-0.040752180166618676,"96":0.0005067651346850851,"97":-0.00660933369966108,"98":0.011215698419022221,"99":-0.0373721661990173,"100":-0.0046759128130402115,"101":0.0450242772141411,"102":-0.0011738298964439722,"103":-0.024395563156128133,"104":0.00022094454421137956,"105":-0.026152642267014276,"106":-0.014584796452031111,"107":0.02132458576229084,"108":-0.029617547734362593,"109":0.015857247435723355,"110":-0.07174990536738061,"111":0.0352834794967121,"112":0.0001039440041938468,"113":-0.02572893839645841,"114":-0.01091111608112825,"115":-0.007612058502823793,"116":-0.03862690951508192,"117":-0.014612441288539887,"118":-0.021642766823606892,"119":0.0033856071759043407,"120":-0.00017688976474483637,"121":-0.025529940909918412,"122":-0.07560825375195952,"123":0.03974995005836408,"124":-0.07172550827963177,"125":0.02894116229940512,"126":0.09986062679624949,"127":0.03501720531539908,"128":0.00028466006746604203,"129":0.02905629860067528,"130":0.024205231777300676,"131":-0.015267563238458747,"132":-0.006380768824900992,"133":0.08602547101130581,"134":0.02209528908810597,"135":-0.03511453001473667,"136":0.00012182278996040795,"137":-0.00025231299389527,"138":-0.00902839085587138,"139":-0.01991875100613778,"140":-0.028188536803160864,"141":0.04783934785373844,"142":-0.028633045351301584,"143":-0.012487767921658262,"144":-0.00010893573544231347,"145":-0.024318526633892393,"146":-0.01182473888738861,"147":0.014476921585369937,"148":-0.024298836896525112,"149":0.006165731007721534,"150":-0.07257768265120172,"151":0.042565841669463214,"152":0.000050984578287580485,"153":-0.021211080522325006,"154":-0.015376978515780498,"155":0.016056562676672232,"156":-0.021591200468671,"157":-0.03277621142811289,"158":-0.03361961936041286,"159":0.03507889708952079,"160":-0.0001794192270634314,"161":-0.022467243895807787,"162":-0.05727788948967836,"163":0.038378061772030014,"164":-0.04938084614484637,"165":0.027510580945644996,"166":0.07368207185446363,"167":0.013417660411334378,"168":0.0001725429066152347,"169":0.03258082167222039,"170":0.03656323955805826,"171":-0.003958171044617305,"172":0.012868128571915242,"173":0.06364282766100005,"174":0.0009093122787601783,"175":-0.02599091910766977,"176":-0.000013762321462669275,"177":0.010142315319618768,"178":0.022082958607703727,"179":-0.009744724589844388,"180":0.008951554656667358,"181":0.02008300910760687,"182":-0.045952487475128784,"183":0.004995799598914464,"184":-0.00024378481073107994,"185":-0.01731907576136171,"186":0.0061633490160363895,"187":0.03699730749083183,"188":-0.010397859907679226,"189":-0.016507848143196863,"190":-0.05763296871211883,"191":0.0347905616037528,"192":-0.00034240181894761544,"193":-0.0019847392045700346,"194":0.010748073235085706,"195":0.03437732025475115,"196":-0.03082300742392967,"197":-0.022684892063890617,"198":-0.007083901536889511,"199":0.038549167116777194}},{"sx":5,"sy":5,"depth":8,"w":{"0":-0.0017986601876485231,"1":-0.13646654699316463,"2":-0.09689889911569131,"3":0.09791952363186407,"4":-0.021152793907700702,"5":-0.163777978410232,"6":0.015022056646273648,"7":0.07204984488820149,"8":0.00030433434638629835,"9":-0.0848440455301909,"10":-0.0841560239998409,"11":0.03766471382357086,"12":-0.03894182089522236,"13":-0.13868180079383866,"14":0.06815398623580227,"15":0.0406379085532563,"16":0.0007822482222323725,"17":0.046367145535801804,"18":0.07674031155437348,"19":-0.04385328597119142,"20":0.05101856578056961,"21":-0.03767524791310259,"22":0.06998027342094612,"23":-0.016542508457593842,"24":0.0005320647488645627,"25":0.11364585730703403,"26":0.18521869322650802,"27":-0.06482886451868573,"28":0.10216520735169009,"29":0.010119116543032434,"30":-0.0337073767374714,"31":-0.03849998343218847,"32":-0.0005220588601434728,"33":0.0103377037104657,"34":0.12029743802749954,"35":-0.01778342852366395,"36":0.06080224268751529,"37":-0.034451368839633574,"38":-0.14339071300588327,"39":-0.04188497398421315,"40":-0.0015076314616422177,"41":-0.07426714777536812,"42":-0.08068516791201533,"43":0.059381896601145796,"44":-0.00214299441142458,"45":-0.1434927990240123,"46":0.12345911132237286,"47":0.046850366640477176,"48":-0.0007301711500189009,"49":-0.04590157501275238,"50":-0.04563110458420712,"51":0.06356819777828966,"52":-0.014737740933821533,"53":-0.1242861754722381,"54":0.15007415244101346,"55":0.03605602321746243,"56":0.00010523233369414436,"57":0.08284383558060116,"58":0.12981564878538476,"59":-0.030555550533648522,"60":0.06896381242322483,"61":-0.0324142166879082,"62":0.18791899564149064,"63":-0.029061111649317743,"64":0.000049448239778577254,"65":0.12587566891877783,"66":0.19427135993789274,"67":-0.027735875508268757,"68":0.12295618737199221,"69":0.047833720574325084,"70":0.019459300252751856,"71":-0.038290222047499,"72":-0.00025681440249261434,"73":0.05427822328695415,"74":0.1342433094228224,"75":-0.008569556329415758,"76":0.11636227242276065,"77":-0.011715894054232661,"78":-0.09792791006955459,"79":-0.01618677479062352,"80":-0.001055232148573165,"81":-0.07924871586389307,"82":-0.11200895327140672,"83":0.09202645917420257,"84":-0.048614239506223754,"85":-0.12062571525170769,"86":0.23019006127093106,"87":0.07049386612237177,"88":-0.00030820634202798,"89":-0.036497918314331475,"90":-0.08310252401573327,"91":0.045291901077856654,"92":-0.027091568848458984,"93":-0.1089575003325471,"94":0.34216690747268835,"95":0.02640686580851418,"96":0.0001561043061791895,"97":0.07229687320904421,"98":0.08336123084142481,"99":-0.030820105041665966,"100":0.0886026138619416,"101":0.006480665251275108,"102":0.2682419866205287,"103":-0.05788686587452467,"104":0.00013805485408285119,"105":0.12474497588492471,"106":0.20613049249662238,"107":-0.10352224286810675,"108":0.14889854823580803,"109":0.03278529088318762,"110":0.02882871613699982,"111":-0.10745306158128042,"112":-0.00019921745169102043,"113":0.034210149364988354,"114":0.12867730090450535,"115":-0.04575185324418876,"116":0.1345855623257955,"117":0.0005709712126663942,"118":-0.126009712980952,"119":-0.033442732972839215,"120":-0.00019785836900698735,"121":-0.091121572743373,"122":-0.16929620804170406,"123":0.1225214225747945,"124":-0.06217929719038399,"125":-0.05896894312560426,"126":0.19720836310140905,"127":0.10762925447092073,"128":0.00034856339801477194,"129":-0.07413879850692748,"130":-0.17521377249008874,"131":0.13184873862766172,"132":-0.09948181952854894,"133":-0.05231536417622647,"134":0.28763023599629356,"135":0.12174769197057525,"136":0.0002028025797154091,"137":0.040013368091254456,"138":-0.0013328643376180757,"139":0.03951797619174507,"140":-0.003185103583846308,"141":0.06603253779916038,"142":0.21580910960010435,"143":-0.015149305165790062,"144":0.0013232292035622018,"145":0.12128331845177409,"146":0.16844068357323075,"147":-0.06701373256384088,"148":0.0972257202923809,"149":0.10695869078985137,"150":-0.008476812859938924,"151":-0.08170329169494225,"152":-0.00035931583146454264,"153":0.02474753993716866,"154":0.1047782971884599,"155":-0.01931580442515653,"156":0.06971197243650458,"157":0.030448103093081866,"158":-0.17461379908704605,"159":-0.0332707022707204,"160":0.0007486835464170481,"161":-0.08760493678643826,"162":-0.1846031928488501,"163":0.11339257364557893,"164":-0.10472666444306758,"165":-0.008991899655754743,"166":0.1570112707508511,"167":0.11199297707858263,"168":0.0004142581609114171,"169":-0.10229128279561851,"170":-0.2216478460729251,"171":0.2067287899805508,"172":-0.16892244646463744,"173":0.054107769725697974,"174":0.16023030250687717,"175":0.1743903308237024,"176":0.00012520819425963274,"177":-0.02036066287683501,"178":-0.07566678198091807,"179":0.16843265521424247,"180":-0.07117036416266066,"181":0.14872262493608382,"182":0.0873161885580547,"183":0.1039085848763486,"184":0.00006057266388812141,"185":0.018478810913657606,"186":0.004394745193401085,"187":0.046793625557216424,"188":-0.004465022058520749,"189":0.12022328310491795,"190":-0.08846399072384675,"191":0.04387882498556357,"192":-0.001222040168590352,"193":0.008684316987410875,"194":0.03592243189989317,"195":0.07086290258399965,"196":0.01939678249485739,"197":0.04190822567846997,"198":-0.20364575329972295,"199":0.05974449214390902}}],"biases":{"sx":1,"sy":1,"depth":8,"w":{"0":-0.010250901934520414,"1":0.13394130725096934,"2":-0.060793219552768514,"3":0.008305447245232985,"4":0.016987819724264205,"5":0.12461439188952624,"6":0.14411025445722828,"7":-0.043148358609268994}}},{"out_depth":8,"out_sx":64,"out_sy":64,"layer_type":"relu"},{"sx":2,"sy":2,"stride":2,"in_depth":8,"out_depth":8,"out_sx":32,"out_sy":32,"layer_type":"pool","pad":0},{"sx":5,"sy":5,"stride":1,"in_depth":8,"out_depth":16,"out_sx":32,"out_sy":32,"layer_type":"conv","l1_decay_mul":0,"l2_decay_mul":1,"pad":2,"filters":[{"sx":5,"sy":5,"depth":8,"w":{"0":-2.3114598977951776e-7,"1":-0.01243423131102726,"2":-0.029299180829849437,"3":0.004415622473598541,"4":-0.023607687101043127,"5":-0.02030402735065975,"6":0.07172875408402997,"7":0.03589462810065444,"8":0.000006662556577176294,"9":-0.01402300464978552,"10":0.05127743863515583,"11":-0.007923801653541672,"12":-0.05197466002761723,"13":0.15586863486842256,"14":0.05726019027722695,"15":-0.05469579141132245,"16":-0.000015764025877382458,"17":0.05671173919460614,"18":-0.015053190290939229,"19":-0.015574975252668063,"20":-0.09911905460606324,"21":0.03389260036946434,"22":0.01843498281795566,"23":-0.06709282560124782,"24":0.0000037637599086567827,"25":-0.012402314104243866,"26":-0.05968997655336116,"27":-0.012774742248923287,"28":-0.050799428529193225,"29":0.03188670516196616,"30":-0.07099284181911211,"31":-0.17689301034313237,"32":-0.000013918359574739778,"33":0.12229952179789302,"34":-0.04229048736231149,"35":-0.003341017146938273,"36":0.0810182225409781,"37":0.004345904887614811,"38":-0.023576281633676775,"39":-0.030124951347806312,"40":0.0000011185014153997175,"41":0.03229078816856499,"42":0.01178993173639883,"43":-0.0011413327419277101,"44":-0.045245091517734023,"45":0.005694013472744968,"46":0.11604485291473521,"47":0.06266414836599941,"48":0.000009168035267469317,"49":0.05830279163815467,"50":0.09672310434490151,"51":-0.0034872769251125986,"52":-0.028499451991245126,"53":0.09621080685729334,"54":0.021772201029594894,"55":0.026632300343960007,"56":-0.000013597777020361435,"57":0.04503793752138725,"58":-0.017329808499896186,"59":-0.013393042203238344,"60":-0.1250212847977671,"61":0.008680043253979489,"62":-0.012896420463580301,"63":0.021232013587360446,"64":-0.000013038127593895091,"65":-0.09422670448928905,"66":-0.07043014775355227,"67":-0.007267925842520189,"68":-0.17853408873721582,"69":0.052741135461192586,"70":-0.018677802127066545,"71":-0.08658973366524071,"72":-0.00000556245037707484,"73":0.052149895727825094,"74":-0.056859264792805383,"75":0.00013802012993318683,"76":-0.022247839935140318,"77":-0.029377314496072726,"78":0.03799420263737065,"79":-0.10063762260894202,"80":-0.000004254051878421698,"81":0.021116568557225636,"82":-0.024982980349530403,"83":0.001377582592554429,"84":0.14543246345193403,"85":-0.0035074197648754047,"86":0.10771532529741888,"87":0.13072244892360696,"88":-0.000007546093623346482,"89":0.13429572798284417,"90":0.12092622659871478,"91":-0.002151702019190821,"92":0.15905956731979412,"93":0.07760949416566937,"94":0.04454297468589296,"95":0.09437602246091811,"96":0.000002577369710623896,"97":0.1631894783785069,"98":0.010001643107986185,"99":-0.008000715602739947,"100":0.13724261625714337,"101":-0.14610679650527475,"102":-0.01429531501248146,"103":0.12327537122510826,"104":-0.00001330970437624132,"105":0.01908939762901478,"106":-0.06282852372961142,"107":-0.003530329357523277,"108":0.021421215687197813,"109":-0.06986431286967291,"110":0.05708838902286058,"111":-0.031001763380506673,"112":-0.000005103955323739513,"113":0.019590071597759284,"114":-0.019636291722483563,"115":0.004492719431197469,"116":0.029307811492003736,"117":-0.11759875049198422,"118":-0.018820057160487836,"119":-0.05082698952690555,"120":0.0000035611630917118265,"121":-0.09491964025473311,"122":-0.1456331889765573,"123":-0.0017932310484277496,"124":0.046998790821889694,"125":0.06465769974500318,"126":0.06244829518500965,"127":-0.0032211484251838604,"128":-0.000008467490022034452,"129":0.11674154690619439,"130":0.04679397607881804,"131":-0.0022956722091422403,"132":0.07124678317205449,"133":0.14969479007633027,"134":-0.03581798233802526,"135":-0.039249273660658515,"136":-0.000010096429540263626,"137":0.1911377179739527,"138":-0.022576896774914985,"139":-0.007270345147415359,"140":0.10618771716728169,"141":-0.10676875711790307,"142":-0.043451117044551776,"143":0.0918147161180955,"144":0.0000014507972061329327,"145":0.05024040622214676,"146":-0.08723759827023343,"147":-0.006061767921582416,"148":0.010434262899249813,"149":-0.1281347199283844,"150":0.06604831344371156,"151":0.04518221853723762,"152":0.000006242165374645609,"153":0.012574162218685658,"154":-0.03628360219603337,"155":-0.0018368336778431438,"156":0.03198690480045545,"157":-0.03270202262712419,"158":0.0032670389217013067,"159":-0.14338216644558668,"160":-0.000008945326422075667,"161":-0.07335638550109613,"162":-0.10029022472498068,"163":-0.0005609690740348707,"164":-0.10236696970747532,"165":0.04585735071361914,"166":0.0020891642616207486,"167":-0.09538144818356842,"168":-0.000006228609237428936,"169":0.02436152210107033,"170":0.0565495945079954,"171":-0.000660215712536073,"172":-0.1521857113849966,"173":0.06254886092840728,"174":-0.05582824653116619,"175":-0.07737927346788764,"176":-0.0000046463992331447005,"177":0.12423684905103642,"178":-0.100125721490249,"179":-0.004178119996211198,"180":0.08744808191881087,"181":-0.07180918276921698,"182":-0.027944674102406388,"183":0.04711416822586346,"184":9.102950084898821e-7,"185":0.07175942539717033,"186":-0.09698973654055917,"187":-0.005023986489304878,"188":0.09755917068133428,"189":-0.20346243642267,"190":0.004197768940099584,"191":0.019973629927383486,"192":-0.0000056965299063589635,"193":0.12073270997871458,"194":-0.019036277680869827,"195":-0.0073007696011924295,"196":0.01910660940194694,"197":-0.04143473722712233,"198":-0.01623777066801342,"199":-0.060122154032544874}},{"sx":5,"sy":5,"depth":8,"w":{"0":-0.0000027922414593549325,"1":0.07532898481802316,"2":0.06727068972735174,"3":0.009933464625783919,"4":0.00531921410152237,"5":0.035221536347299104,"6":-0.04976016534101245,"7":0.024425341321630205,"8":-0.00001063877845558845,"9":0.11671528606976228,"10":0.04241283483598154,"11":0.011235287863295869,"12":0.05302529770544664,"13":-0.11041384608591197,"14":0.015459235750789379,"15":0.16095074663046235,"16":-0.000017453497773416162,"17":-0.037236465511709234,"18":-0.007521688786518101,"19":0.01283168841796201,"20":-0.17023405857414156,"21":0.018052625331646425,"22":0.015976365715849483,"23":-0.05392328501676416,"24":-1.3385736009347632e-7,"25":-0.018512756454128424,"26":-0.07583335024791965,"27":0.006547384498858817,"28":-0.15443422701264622,"29":0.11546623605050785,"30":-0.0402133602593577,"31":-0.127012093476182,"32":0.000015872072352899506,"33":-0.04965065930843514,"34":0.02181857642783478,"35":0.00905424208594344,"36":-0.061322309390351284,"37":0.09679601499423879,"38":0.037246618095515154,"39":-0.07828679964744233,"40":0.000007654835539616507,"41":0.032101193420567976,"42":0.04708479667510068,"43":-0.0037522546726966033,"44":0.013730075320541177,"45":0.049906984450699514,"46":0.003946110406141012,"47":-0.00508414568467576,"48":0.0000028580509285068066,"49":0.15029028015379836,"50":0.07490812873744676,"51":0.00030450139770148605,"52":0.026015253182462367,"53":-0.047150994787380836,"54":-0.014345942027325299,"55":0.09442700770851466,"56":9.645742649754697e-7,"57":0.04915330145139281,"58":0.05040481195602578,"59":0.006195535304118389,"60":-0.08129469185473223,"61":-0.02076587068214212,"62":0.03106917913545057,"63":-0.0283340406316103,"64":-0.000006090459415774413,"65":-0.07342278852170081,"66":0.05441608880219434,"67":0.012007567751783079,"68":-0.13623126393809815,"69":0.00866644948956207,"70":-0.017548066645583636,"71":-0.02352963740178777,"72":-8.21819999492553e-7,"73":-0.19254265456240718,"74":-0.02520546915593654,"75":0.01027335846610321,"76":-0.18161254945562444,"77":0.07617067719998985,"78":0.006601855021860034,"79":-0.1073335479868498,"80":0.000004087635253913747,"81":0.047872023023560625,"82":0.022091339180512197,"83":0.003118232202777089,"84":0.07256428102817854,"85":0.02500069616091569,"86":0.01587094184597053,"87":0.005915870297790681,"88":0.000006445555047390946,"89":0.10041258943390667,"90":0.08323636257912316,"91":0.0033253323198059177,"92":0.22607347451980578,"93":0.04046522157595325,"94":0.023021805711510208,"95":0.10787307100521004,"96":0.000012431875368619257,"97":0.13613849099408443,"98":0.05912840923754465,"99":0.004325916054168013,"100":0.14666749492149975,"101":-0.0025854215145729486,"102":0.04279888415630735,"103":0.12485134476285167,"104":0.0000020429525951647588,"105":0.11900718291702198,"106":0.09979323933056446,"107":0.0024231056076952978,"108":0.08641457361554386,"109":-0.14484487671741705,"110":0.02916357708874018,"111":0.16332580243137285,"112":-0.0000014998087695145767,"113":-0.13230847082952799,"114":-0.0031764652981874563,"115":0.005855550001018876,"116":-0.092463161413453,"117":-0.10395038952241752,"118":0.030589041794037233,"119":0.010527254083159004,"120":-0.000004435094608298804,"121":-0.07184046263511217,"122":-0.11758874437237374,"123":-0.0045925796732610435,"124":0.013734520620278112,"125":0.020116861793151843,"126":0.026687566444008645,"127":-0.026255544528333147,"128":-0.000002545782799780866,"129":-0.0169442208279563,"130":-0.07971120250478829,"131":-0.004177929314360506,"132":0.06760397911268338,"133":0.10917243664027494,"134":0.04283447532301727,"135":-0.09081224617382935,"136":-0.000001176047746344232,"137":0.11661659975272051,"138":-0.006440635017950228,"139":-0.008791014211802273,"140":0.06507904166118239,"141":0.0830881441669237,"142":0.0213903640114189,"143":-0.032269780117254156,"144":3.6366628229459826e-7,"145":0.08114868842241921,"146":0.0029455531817173084,"147":0.0036203869224806463,"148":0.12750300254801994,"149":-0.11192077366596823,"150":-0.012983886574028707,"151":0.1011675865696532,"152":-0.000019024346808158485,"153":0.0013836531039750964,"154":-0.0311373829798141,"155":0.007217302442769766,"156":0.08650727859683827,"157":-0.033576462493970734,"158":0.06318449930277491,"159":0.008555982170532477,"160":0.000003075619261266632,"161":-0.08466628018239829,"162":-0.08518732022180314,"163":-0.005234172528116333,"164":-0.005774221250400161,"165":-0.06805979644140234,"166":0.012273277488500649,"167":-0.03770248744312316,"168":-0.000007664105602415624,"169":-0.02854453966740489,"170":-0.026605529400328416,"171":-0.004945347770274188,"172":-0.16382204074268913,"173":0.026555743056113364,"174":0.013279325711892996,"175":-0.056242239314822286,"176":-0.00001642712587534052,"177":-0.004798582749349604,"178":-0.10749488735275349,"179":-0.004166346300035725,"180":-0.14018089785603607,"181":-0.0023761048420375894,"182":-0.005250820986762572,"183":-0.08141426208682061,"184":5.194450499328297e-7,"185":0.02077838947583507,"186":-0.052526509004023884,"187":0.004785067606529954,"188":0.05992974976725454,"189":0.01546376320158838,"190":-0.02645583289929611,"191":-0.05458832418179322,"192":0.000013495531563401564,"193":0.049715347504177346,"194":0.03445924551626606,"195":0.006983458608963002,"196":0.018918381871301015,"197":0.059580528021869764,"198":-0.009399470262422105,"199":-0.06901552844069216}},{"sx":5,"sy":5,"depth":8,"w":{"0":-0.0000076174477190196995,"1":0.04238222794934932,"2":-0.037634679701959016,"3":-0.003233474898586946,"4":-0.014022055147968662,"5":-0.03632642936704013,"6":-0.009253647288403043,"7":0.015542696111992096,"8":-0.000002055003770756033,"9":0.0034526195910065983,"10":-0.05111092843940397,"11":-0.00820854001451944,"12":0.058415524100553694,"13":0.12061896228742373,"14":0.07508942396421067,"15":-0.11954987443118781,"16":-0.000016586785636697154,"17":0.0023093588746317937,"18":-0.003957922518184099,"19":-0.0124805512311103,"20":0.009803126083890038,"21":0.040965148032108566,"22":0.037784450389264986,"23":-0.05660665186411498,"24":6.342842674196202e-7,"25":-0.01009349308199706,"26":-0.016194626213226305,"27":-0.0031374746810164766,"28":-0.03761231626782275,"29":-0.046840711100797565,"30":0.03030635257360281,"31":-0.03827456475319542,"32":0.00001678237682910018,"33":-0.0304810622692387,"34":-0.07806971768790198,"35":-0.007905583174176492,"36":-0.09813784889294437,"37":0.11611401106203752,"38":0.07715257992695249,"39":-0.07948864407387285,"40":0.0000064900195637609655,"41":-0.007584929985558907,"42":-0.03954197520186536,"43":-0.004455688718772487,"44":0.022540138449441586,"45":-0.08490391740564043,"46":0.030148901835694197,"47":0.012673585474463553,"48":0.000003702525230938855,"49":-0.09089027286644581,"50":-0.08495549953068797,"51":-0.011283660165335664,"52":-0.08872354708294473,"53":0.06507670759617414,"54":0.023055373184984667,"55":-0.21602642029271607,"56":-9.602947258320195e-7,"57":-0.03526873466003444,"58":-0.012519722322978242,"59":-0.017305355348062875,"60":-0.02888278158871192,"61":0.05578222850093054,"62":0.004263547591256992,"63":-0.045283498873994486,"64":-1.5031932313969208e-7,"65":-0.035275111429176255,"66":0.01568000655603656,"67":-0.004128613522045025,"68":-0.028095881615417487,"69":-0.01874084421904421,"70":-0.011451755271087268,"71":0.025160280823689936,"72":-0.000012042588275759768,"73":-0.015101792114684837,"74":-0.007389223882631795,"75":-0.004398208790671506,"76":-0.00945633914017279,"77":-0.015103679147848811,"78":0.08039202314203166,"79":0.005059042528358499,"80":0.000004696035762400688,"81":-0.010097384354427249,"82":-0.037160690932331916,"83":-0.005911694641290902,"84":0.05295595804386194,"85":-0.03108163182951678,"86":0.018278273101613705,"87":0.07214926824626798,"88":-0.000005085584929792256,"89":-0.007860154932777755,"90":0.13000707460838137,"91":-0.012339743237441327,"92":-0.11022901900103386,"93":0.007959618855603806,"94":-0.018214258350452497,"95":-0.006597176423618911,"96":-0.000002094509772282269,"97":-0.036381628209498994,"98":0.04775481942824069,"99":-0.017355225750848472,"100":-0.13084460045390506,"101":-0.0522054028316579,"102":0.012226627739624954,"103":0.09307147508284755,"104":3.533842301052235e-7,"105":-0.1144676185740571,"106":-0.07380231811396011,"107":-0.01744935447235811,"108":-0.08759570841999774,"109":0.009816709716882982,"110":-0.014341599211848374,"111":0.0087466929448136,"112":0.000001896103431537777,"113":0.11073419498786469,"114":-0.04287383022044121,"115":-0.012149352063332446,"116":0.04001572826064675,"117":-0.011243643089926633,"118":-0.002525606883120441,"119":-0.06410511776364841,"120":0.000011688702406110049,"121":0.0329213865271298,"122":-0.018667976240080014,"123":-0.0071663504957585784,"124":0.05961214358999869,"125":0.17963364359935666,"126":0.04010988339093364,"127":-0.12871535443344642,"128":-0.0000051037692868715104,"129":0.11157675588627486,"130":0.14961817999522636,"131":-0.017184792094933767,"132":0.09404036958042317,"133":0.1598107454211346,"134":-0.0024805977684711697,"135":0.08464424618745237,"136":0.00000351359758151437,"137":0.11086366221131803,"138":0.04326677580434751,"139":-0.021295207235428992,"140":0.12672603398856758,"141":-0.1756022655326472,"142":0.07112046700577761,"143":0.2283428973119541,"144":-8.319827957023432e-7,"145":-0.08498238762111761,"146":-0.12732391040918745,"147":-0.022173102991265313,"148":-0.015298390742334416,"149":-0.03807616543082196,"150":0.019083078935357635,"151":0.08444965186356392,"152":4.2984415609422943e-7,"153":0.05256719311863011,"154":-0.053118919841905636,"155":-0.014528762666049262,"156":0.03026844460169378,"157":-0.0020127391090451947,"158":0.017827843681887175,"159":-0.11746896349232702,"160":0.000006765340099530013,"161":-0.14752633558162068,"162":-0.11455493386045731,"163":-0.00453923133837489,"164":-0.11626678618578634,"165":0.2099382995582122,"166":0.036223885549175994,"167":-0.3117553288360916,"168":0.000004696782253266094,"169":0.12075910082049612,"170":0.01929627388407041,"171":-0.010024204567352944,"172":0.06577989168069143,"173":0.1945194444963355,"174":-0.021500907344951487,"175":0.0011212781241851594,"176":0.0000035758663557519793,"177":0.07853993261284994,"178":-0.03251684600650667,"179":-0.016859487713568027,"180":0.13676153741934685,"181":-0.19861914474541306,"182":0.03846514209819154,"183":0.07494700699194892,"184":0.000006594844730567179,"185":-0.00036868861223887265,"186":-0.13786716279856556,"187":-0.02012936690972781,"188":0.052199288912732345,"189":-0.08800229811737531,"190":0.0209107907861702,"191":0.012748796024376797,"192":0.0000024133662762622017,"193":0.030497770337156678,"194":-0.020470517415788664,"195":-0.016175901793279265,"196":0.058411063217798806,"197":0.01778437796281638,"198":0.05460540154197371,"199":-0.06515760913393427}},{"sx":5,"sy":5,"depth":8,"w":{"0":0.000003563160374002846,"1":0.0062945774876564916,"2":0.021608835862172247,"3":-0.0036919565608088743,"4":-0.08839179936250123,"5":-0.034802390437056095,"6":0.0026066654028375344,"7":0.07976781824434619,"8":-0.000016556845683150653,"9":-0.058658205829470025,"10":-0.005562561454918579,"11":0.0013607942953211313,"12":-0.12768154845158938,"13":0.050126958874210086,"14":0.012187652938698066,"15":-0.029877974051217056,"16":-8.54068459157246e-7,"17":0.02802066732430097,"18":0.012251636271643062,"19":0.01065272182815777,"20":-0.04409821769525361,"21":-0.00981439583520007,"22":-0.024332834289885707,"23":0.004644467816480646,"24":0.000005951760262700587,"25":0.01366469255134219,"26":-0.051084260104194756,"27":0.013314096498869046,"28":-0.010499575914197349,"29":-0.005099952497594514,"30":-0.0069542195001401136,"31":-0.007289883688009684,"32":-0.00001048676114145913,"33":-0.050184062418477865,"34":-0.040069038593071274,"35":0.013197597929567501,"36":0.006332128500468418,"37":0.03522786191072572,"38":-0.016047201501709747,"39":-0.05312519701764412,"40":5.244213537426576e-7,"41":0.13054708412898042,"42":0.04035687040157362,"43":-0.01118277472119386,"44":0.162065563364061,"45":-0.027122492566047977,"46":0.0942867479062081,"47":0.17001633410736317,"48":0.000006747570839004228,"49":0.1325332230026921,"50":0.0688422529071927,"51":0.0012021006942906306,"52":0.06563613043877793,"53":0.044370342826667575,"54":0.0629028606316784,"55":-0.005502853482545927,"56":-0.000004891937357216793,"57":0.1349310826624678,"58":0.0806579734918998,"59":0.017636208128215324,"60":0.07105991969863541,"61":0.006389324317895941,"62":0.016740001870053995,"63":0.06878575707957754,"64":0.0000068863767162516235,"65":0.09408714216787264,"66":-0.01179420867827705,"67":0.013138419910300014,"68":0.04089970777099781,"69":-0.05208266835575959,"70":0.008698659184813474,"71":0.019238755386389434,"72":0.000020017164905196176,"73":-0.0071440968417396345,"74":-0.024528885985128295,"75":0.010653339607585579,"76":-0.009391500131705264,"77":0.025024701682883295,"78":-0.015507962897536675,"79":0.011044110862683847,"80":0.000005903162073522312,"81":0.11243445247841335,"82":-0.11113852916077337,"83":-0.0031757227425098667,"84":0.13585751514250052,"85":0.011428859417884267,"86":0.06541468683103238,"87":0.04193311121307328,"88":-0.00001288876862259836,"89":0.12073053305291598,"90":0.03270773185022983,"91":-0.004389410559342229,"92":0.10208042052738274,"93":0.06567355743694223,"94":0.08322633956998578,"95":-0.015995041667962652,"96":-0.000004903625441960015,"97":0.09942578750191983,"98":0.03829264671613751,"99":0.014253809796926357,"100":0.09282915486980343,"101":0.0319123770547337,"102":0.0227934590416551,"103":0.002644697998220709,"104":-0.0000020168205134656937,"105":0.11573437166977771,"106":-0.000973450970659222,"107":0.015390103316049553,"108":0.044640835866836974,"109":-0.024435440850126007,"110":-0.001707955240910997,"111":0.011239428412691519,"112":-4.989339089281087e-7,"113":0.00256511310159225,"114":-0.03719964944388241,"115":0.009693094803585156,"116":-0.0015319115363508213,"117":-0.00767365408022762,"118":-0.007439137903196114,"119":-0.008695094183198887,"120":-0.000008562493543847859,"121":-0.046369367890446996,"122":-0.055899399170635786,"123":-0.004831637907384919,"124":-0.06477197150690649,"125":-0.000856654335571176,"126":0.025895004747571608,"127":-0.052962715608261754,"128":-0.000002254690790187984,"129":-0.00426503533492868,"130":-0.01970255483461455,"131":-0.006101662011015077,"132":-0.10837090936046764,"133":0.0672293722998922,"134":0.02741860076828903,"135":-0.0706875713129853,"136":-0.000019143999582313822,"137":0.013546707121510477,"138":-0.038231106861209126,"139":0.007959460197323754,"140":-0.06968330101079906,"141":0.0865977420010032,"142":-0.02734801776917377,"143":-0.09882806536941312,"144":4.5329185401809904e-7,"145":0.046343780238854555,"146":-0.01934035718294318,"147":0.009603596035374641,"148":-0.04521872864153113,"149":0.014987868709719063,"150":-0.04766038672656549,"151":-0.05449833077090441,"152":0.0000010932282821879607,"153":-0.027736930102508925,"154":-0.04359381116167624,"155":0.009707569319953759,"156":-0.007336861854311005,"157":0.0154769128949494,"158":-0.039628372024676964,"159":-0.06524102718057932,"160":-0.000013437351545378974,"161":0.07938532102909698,"162":0.06460532358066658,"163":-0.006627939453139995,"164":0.03282176306968685,"165":-0.018777553217218006,"166":-0.0001571988022101905,"167":-0.05865086605242751,"168":-0.00001646304187056394,"169":0.04712004419524671,"170":0.09425385192262697,"171":-0.0018851064390381976,"172":-0.05629603362040416,"173":-0.0004344726650127795,"174":-0.04908719485073094,"175":-0.02331784893989172,"176":-0.000004134288735970413,"177":-0.05638518950261067,"178":-0.004936984775734709,"179":0.007820592259939385,"180":-0.09603744160658814,"181":0.008748953665764694,"182":-0.03020293622510378,"183":-0.03643559742505534,"184":0.000010158021778724083,"185":-0.005004361173009545,"186":-0.03509709800879276,"187":0.008162382424728234,"188":-0.08989251334397838,"189":0.01958863977921046,"190":-0.02446798398335931,"191":-0.09746127007498569,"192":-0.000014697470529561322,"193":-0.05117852840543811,"194":-0.08891840452890544,"195":0.004528715959996945,"196":-0.04940407090120819,"197":-0.029516839845967247,"198":-0.006098062280103756,"199":-0.0585555757007949}},{"sx":5,"sy":5,"depth":8,"w":{"0":0.000008200917549393026,"1":0.005334054043378138,"2":-0.12053019600873922,"3":-0.0008969559415741413,"4":0.15260382987566037,"5":-0.0054488747913322665,"6":0.037591088457485634,"7":-0.08753897864831989,"8":-0.0000013087662592731526,"9":0.05983092799491974,"10":0.012398435563189368,"11":-0.006386221840024034,"12":0.12815794202970351,"13":0.03172033511057509,"14":-0.020279934205019914,"15":-0.044969436218013185,"16":5.853814124650735e-7,"17":0.02522231555226445,"18":0.02183417712575877,"19":-0.0024031287701864494,"20":0.1324461529196271,"21":-0.028181981693149113,"22":-0.01700278431126184,"23":0.025766243053544916,"24":-0.000016973464205221275,"25":-0.02092606600428868,"26":-0.05351552743541455,"27":-0.008585718222645493,"28":0.07149926652974156,"29":-0.0285487314316456,"30":0.0489539324659249,"31":0.020238104403317834,"32":0.000005564173827499145,"33":0.007846359940767511,"34":0.1035490091300199,"35":0.003625822121667548,"36":0.05159794224785986,"37":0.07345797660545654,"38":-0.0018844176565397158,"39":-0.0342324889916109,"40":-0.000001632830135269146,"41":-0.005286337393070296,"42":-0.0905560595764785,"43":0.0005310598066283223,"44":-0.05653472806838672,"45":-0.0019844677253542647,"46":0.02381751329699577,"47":-0.09395091121851191,"48":-0.000018957583591187086,"49":0.03052044144090863,"50":-0.08172625357635743,"51":-0.003915044225958313,"52":-0.10666702558579427,"53":0.010670224400803697,"54":-0.02243204611645052,"55":-0.14020871737085758,"56":0.0000019048057152901457,"57":-0.05380676616318709,"58":-0.09498578323893249,"59":0.0024127833560290985,"60":0.001257098791386699,"61":0.04350219961410572,"62":-0.04837821851940255,"63":-0.1276690635678403,"64":0.000009323007987626486,"65":-0.08763829327641103,"66":-0.060765609264626756,"67":-0.003276447423015168,"68":-0.007808601756956403,"69":0.052530938601744785,"70":0.0016460470561864935,"71":-0.13084334372403575,"72":0.0000010484989236336698,"73":-0.0841224571423,"74":0.04833081019524654,"75":-0.0008283527749392938,"76":0.011727248268376919,"77":0.161828064228583,"78":-0.00630374534332649,"79":-0.0827508978810629,"80":-0.000004178592256485117,"81":0.1286967876853166,"82":0.04760635047801622,"83":-0.010730382451436775,"84":0.022123431606067067,"85":-0.1353149081140853,"86":-0.02269692343608322,"87":0.049610504281851014,"88":-0.000011480988188195262,"89":0.023819950048498826,"90":-0.09573401117959844,"91":0.0025733962024968274,"92":-0.019941074795291797,"93":-0.14604123448565948,"94":0.03572877141013296,"95":0.047472896159740145,"96":-0.000008455324802484423,"97":-0.08935924663970465,"98":-0.15002824822581298,"99":0.003473065195014828,"100":-0.07271122084516997,"101":0.03541938547950159,"102":-0.021606089768070057,"103":-0.19090443798938664,"104":0.000011536106491389692,"105":-0.010847400660983657,"106":0.03730269494188819,"107":-0.0031761809753779752,"108":-0.08829642632094292,"109":0.11836574622544976,"110":0.012280968841226743,"111":-0.13752439244285067,"112":-0.000007235360799243079,"113":-0.07627807749225354,"114":0.0539823102788576,"115":-0.004414331900950241,"116":-0.1865175238224114,"117":0.12800911673124823,"118":-0.043118331814713036,"119":0.010870774251936853,"120":-0.000007579270237987891,"121":0.12828363546525398,"122":0.044513156033359313,"123":-0.010054737164673647,"124":0.0995987390118727,"125":-0.12090027840778857,"126":-0.04886402495954378,"127":0.12947284723498081,"128":0.0000107169346666289,"129":0.11065519800456265,"130":-0.03343100179514219,"131":0.0020325989165343302,"132":0.041185284518796494,"133":-0.24090411776601114,"134":0.07424837246618572,"135":0.1687840848637832,"136":-0.000009403076815330595,"137":-0.16182886673484406,"138":-0.13369905635223434,"139":0.003852991006609622,"140":-0.05317217777277299,"141":0.14129968301196857,"142":0.01343794622040361,"143":-0.13894073952570657,"144":0.000006569156337340245,"145":0.04766200559283476,"146":0.09584338535510681,"147":-0.0012455987706722735,"148":-0.032686165820950366,"149":0.1421972381636099,"150":-0.014562083639916066,"151":-0.07775533274767209,"152":0.000001231447239770088,"153":-0.041981267096161304,"154":0.0077565923829982135,"155":-0.0058301251062957285,"156":-0.025656210409116344,"157":0.008513151084456983,"158":-0.01827388693288306,"159":0.09980106130382084,"160":0.000001466054202354164,"161":0.10720412432617453,"162":0.08473760284000735,"163":-0.008713837513967294,"164":0.030661805943042998,"165":-0.06866756540880016,"166":-0.11137895366831459,"167":0.08403836149216934,"168":-0.000006110875072417911,"169":0.11908733777795036,"170":0.05589228022578644,"171":0.00031457485286753747,"172":0.08214572479617431,"173":-0.20395807598590307,"174":0.02453618867321706,"175":0.2434623619488951,"176":-0.000005242612043386452,"177":-0.1081040038105561,"178":-0.07232449142422884,"179":0.002605954083410864,"180":-0.007375520165720156,"181":0.1290403239784916,"182":0.04342898224230058,"183":-0.1032312369938393,"184":7.7663909332665e-9,"185":0.049683587911044956,"186":0.17271505748741353,"187":0.001848844515213305,"188":-0.06644473827110188,"189":0.1451187356584064,"190":-0.019510220023642014,"191":-0.03932447208067853,"192":0.000011884714377624181,"193":-0.048298241864015615,"194":-0.03947077189551238,"195":-0.0014665304591839324,"196":0.0021909852432785864,"197":-0.04737923532188616,"198":0.003424254400028066,"199":0.13730350414313677}},{"sx":5,"sy":5,"depth":8,"w":{"0":0.00000698605615404853,"1":6.463727903391366e-7,"2":9.532079463668994e-7,"3":-0.00001236554047551322,"4":-0.000007228000833796469,"5":-0.000008719241245491681,"6":-0.000009512014045948635,"7":-0.0000023569631159667684,"8":0.0000029472522053641127,"9":-0.000003470925723516182,"10":0.000009395070407995695,"11":0.000013766129442818125,"12":0.000004058261394704575,"13":-0.000013046796078469016,"14":0.0000027234503173749878,"15":-0.000015887615159148405,"16":0.000005922945532419381,"17":-0.00001769152318466121,"18":-0.000007859282456770274,"19":-4.490148204892008e-7,"20":0.000004226443142597556,"21":-0.000008043966063177902,"22":0.000009495460934689056,"23":-0.0000013341745329492105,"24":-1.9519729387656957e-7,"25":0.0000027962553198304256,"26":0.000004937863747060064,"27":0.000013398651519118123,"28":-0.000006365090758051053,"29":-0.000017566242723884944,"30":0.000004440055204425868,"31":-0.000008878636646753825,"32":0.000006049335932082566,"33":0.000002539870683840104,"34":-0.000005895452297500213,"35":0.00000149192101285105,"36":0.000008979140253921519,"37":0.000005012985651437502,"38":0.0000054199839782302006,"39":-0.000012051496252750566,"40":0.000008283894581013789,"41":-0.000010418772663509601,"42":0.0000011135951451221454,"43":0.000002616944149960248,"44":-0.0000017972290862545664,"45":-0.000015374724653342922,"46":-0.0000032703601520951687,"47":-0.000006757263536374377,"48":0.0000017086802759141677,"49":0.000005285225348288036,"50":-0.000001013766536216037,"51":-0.000006209449957797082,"52":0.00000590239733415007,"53":-0.0000013624928733519388,"54":-0.0000012933912764459543,"55":-0.000012893936045084954,"56":-0.000009407057676474426,"57":-0.00001529704874772685,"58":-0.000011580351352163581,"59":-0.0000138126977322942,"60":-0.00000953149964525908,"61":-0.000013248533758787022,"62":0.000019385721559017517,"63":-0.0000022123518926272344,"64":-0.000014854587894765205,"65":-0.000004942217541547059,"66":0.0000015772000247845336,"67":0.000007455872498676187,"68":-0.000019086313605399455,"69":-0.000007953120154272352,"70":-0.0000021325054164314185,"71":0.000002357335079492196,"72":-0.000012029305066694299,"73":-0.000001843240583586675,"74":0.000008795924300347946,"75":-0.000021063646209906493,"76":-0.000002243174394788232,"77":-0.000020686112321545245,"78":0.000012593983984409794,"79":-0.0000060691422845785164,"80":0.0000013598750963420094,"81":-0.000006897883398765422,"82":-0.0000035777215725893117,"83":-0.000009666711823188389,"84":0.000017076454264255064,"85":-0.000003037832973532195,"86":7.242499212219773e-7,"87":-0.000016659131355635256,"88":0.000002929741453936328,"89":-0.000007054307503010197,"90":0.000003869355633907254,"91":-0.000009082378164969041,"92":0.00000507373968050517,"93":0.000004344836715968218,"94":-0.000007228333523373666,"95":-0.000014729804463049223,"96":-0.0000032108017000671194,"97":0.0000021290233767199072,"98":0.00000768617683593337,"99":0.000004859304846386665,"100":3.9222284005305283e-7,"101":-0.000002023919312373799,"102":-0.000001626626143800181,"103":-0.000003643582348337591,"104":-0.000013283588319458063,"105":-0.000011830416959989797,"106":-0.00000813054416721662,"107":-0.0000036027367243860396,"108":0.0000016339074252763164,"109":-0.000006019536659201699,"110":-0.00001315710964329403,"111":-0.00001761836650079204,"112":-0.000003695514360885303,"113":-0.000022014020645095144,"114":0.000007853092048298707,"115":0.000002420353311934083,"116":-0.00000853385117578135,"117":0.000010187119899341665,"118":-0.0000013238776540177858,"119":-0.000009093656079622105,"120":0.0000047042422685786525,"121":-0.0000040212095958266405,"122":0.00000846142768635874,"123":0.0000018638091658525217,"124":0.000015040362367912468,"125":-0.000006203423434653299,"126":0.000002926649162548794,"127":-0.00000362326846137755,"128":-0.000006804116746747613,"129":-0.000014503994120789308,"130":-0.000004371404867763953,"131":-0.0000010623333878816925,"132":-0.000020255163980095366,"133":-0.000011239083878530915,"134":0.000011203150678944288,"135":-0.00002216641822299903,"136":2.818716306111326e-7,"137":0.000006738082119036814,"138":0.000015179351108753223,"139":0.0000010009759880098937,"140":0.0000015153667890983529,"141":-0.000005591820129386404,"142":-0.000007792870236631059,"143":-0.000007519471906095101,"144":0.0000011684876852051133,"145":-0.000006714633750685299,"146":-0.000020876270587468157,"147":-0.00001292119383419983,"148":0.000014918158477861763,"149":-0.0000020120173088139877,"150":-5.918315634680479e-7,"151":-0.00001778545167667707,"152":0.000009182364106168916,"153":0.00000505945538824421,"154":0.00001664286333943817,"155":0.000001824898226402617,"156":0.000007668276658243891,"157":-0.000018071394502280185,"158":0.000006495246824367485,"159":-0.0000053088149634817196,"160":0.0000040927798760812,"161":2.927751676736229e-7,"162":0.0000054045296736488984,"163":0.000003672147120403387,"164":0.0000023248329792519208,"165":-0.000009572740771958711,"166":-0.0000027016175699505092,"167":-0.000011607593568783274,"168":-0.000005257515757632294,"169":-0.000017263492069075083,"170":-0.000006090272837978834,"171":0.000005543499311560662,"172":3.6250588090474386e-7,"173":-0.000007291613600707069,"174":0.00000462163538063229,"175":-0.00001738000202872528,"176":-0.0000015283555489297334,"177":0.000004471714735005246,"178":-0.000004138808277002322,"179":0.00001180190834727994,"180":-0.000004380239477748556,"181":-0.000015663377986694826,"182":-0.000003188157051220795,"183":-0.000012426942408960825,"184":0.000007805106654333647,"185":0.000002427035973819327,"186":-0.00000550603275190717,"187":0.000009589795064117862,"188":-0.000003241307280615864,"189":-0.000012588690083178837,"190":0.0000021723677770246754,"191":-0.000007957557710642796,"192":-0.000008390960930286163,"193":-0.000005239622869467854,"194":0.000013608705952301139,"195":-0.0000010363467333367097,"196":-0.000018282740637632182,"197":-0.00001377222481848084,"198":0.000002986585551535281,"199":0.000004828279626790384}},{"sx":5,"sy":5,"depth":8,"w":{"0":-0.000004580263457650456,"1":0.0009697461907343474,"2":0.002318607100485164,"3":0.009477221961039502,"4":0.009062267773912416,"5":-0.015490791577116752,"6":0.0015714597418874353,"7":-0.011478098658927252,"8":0.000008259026548064049,"9":0.024534294192726732,"10":-0.028766907487835322,"11":0.004289028711918765,"12":0.012338801024984443,"13":-0.051424823152140746,"14":0.002051622350297408,"15":-0.008325995889493395,"16":0.000008960103593687204,"17":-0.005748282839026481,"18":-0.015995667930809858,"19":-0.002897472705579103,"20":-0.03261487213362038,"21":-0.027674767973652176,"22":-0.006986400538915563,"23":0.010643724854390796,"24":-0.000006102159813794691,"25":-0.03046795228627168,"26":-0.02814316578338271,"27":-0.004928094211635414,"28":-0.014521349974869084,"29":0.024263323631862496,"30":-0.001160336651251414,"31":-0.0034756383432945743,"32":0.00001189167274803109,"33":-0.049240529906274,"34":0.0064213634735332216,"35":-0.004701092684255056,"36":-0.0004883938974262618,"37":0.029415985885364676,"38":-0.04064662943856707,"39":-0.01314496789735134,"40":-0.000008674575915754107,"41":-0.009157734468737539,"42":-0.01505498816693456,"43":0.010638186116093374,"44":-0.0032656883150083897,"45":-0.0360056002569567,"46":0.02617141105137106,"47":-0.0017882027782738414,"48":0.000010933682791580632,"49":0.007195577034179561,"50":-0.054378040416326004,"51":0.007654177769462917,"52":-0.01623220326998378,"53":-0.07994523488986563,"54":-0.0040638032568228065,"55":0.009306289320254645,"56":-0.000005690507897735172,"57":-0.03912283400710245,"58":-0.05767237605722361,"59":-0.0010651782002982133,"60":-0.007523928762278361,"61":-0.034044090557546355,"62":0.02968780404559109,"63":-0.006084234931711885,"64":0.0000037213515540945067,"65":-0.008654083905901938,"66":-0.024772308633930012,"67":-0.008564781048816935,"68":-0.025530342712743594,"69":0.017555858162307633,"70":0.006594743635970395,"71":-0.029956380486650835,"72":-0.000022677052590238598,"73":-0.02260612213155718,"74":0.0015382515482347473,"75":-0.0047464085546431185,"76":0.004738323546502395,"77":0.009118892347998276,"78":-0.032750668736069494,"79":-0.014170548122482036,"80":0.0000034287499835139957,"81":-0.03030811132583185,"82":0.015228878670951893,"83":0.006803228007510123,"84":-0.022317285933901653,"85":-0.021061846913109115,"86":-0.0004206220282955824,"87":0.00029565467488667786,"88":0.000015915267895780398,"89":0.004104442780273817,"90":-0.008388909490845961,"91":0.006977582108362093,"92":-0.020318261397651333,"93":-0.0774062963687634,"94":0.03935815457054154,"95":0.058176379351346015,"96":-0.000005682747349137698,"97":-0.03570115770689117,"98":-0.030360855822837207,"99":0.003509163826882807,"100":-0.006379228272116664,"101":-0.028706854631340494,"102":0.005785620600152024,"103":0.0064904756684316875,"104":0.000003779701794193125,"105":-0.005410960306456078,"106":0.03452868991857516,"107":-0.0064739054270450186,"108":0.0043452976185767754,"109":0.005210852309066054,"110":-0.00107449956023349,"111":-0.01620627722997635,"112":0.000011855902060462667,"113":-0.007030700361819362,"114":0.04203959479630143,"115":-0.003469317128447333,"116":0.03463765128392088,"117":-0.02209412339068742,"118":-0.008379994742720172,"119":0.023824254315137176,"120":-0.000008730621194762709,"121":-0.019799077715658527,"122":0.05275737288946549,"123":0.007818349907158533,"124":-0.038665762242628895,"125":-0.010701026478525824,"126":-0.02395102810835647,"127":0.035257384225810075,"128":0.0000011660910110392948,"129":-0.005258693634451454,"130":-0.028173035814400275,"131":0.008530220375838766,"132":-0.0024777369575624693,"133":-0.06974011621844102,"134":0.023376071387975803,"135":0.07678503908472652,"136":0.000002945014669789851,"137":-0.02283067531959088,"138":-0.0853735940715255,"139":0.004437610577199479,"140":-0.041378125248472876,"141":-0.02863863750231744,"142":0.03448707502053487,"143":0.03341564686856201,"144":-9.911870431905649e-8,"145":-0.015316700649692712,"146":-0.00617384209021565,"147":-0.0046665596189494245,"148":-0.006834103739286099,"149":0.024013638434966473,"150":-0.005245387488590239,"151":-0.045635804877003416,"152":0.000010511404073159804,"153":-0.0007074486815259676,"154":0.029855100175580587,"155":-0.004897516337524548,"156":0.01336747349132775,"157":-0.003979179066470999,"158":-0.009654105753242553,"159":-0.004026434481752516,"160":3.0229574844767786e-7,"161":-0.011128265790653066,"162":0.04039035374107771,"163":0.007056202162020581,"164":0.03581711155364688,"165":-0.01763606352248739,"166":-0.031801468269002986,"167":0.029956658201988357,"168":0.000013071638311478947,"169":0.0022818239037824995,"170":0.0006391503013314877,"171":0.008110285246533589,"172":0.020091666058928072,"173":-0.09815226736911353,"174":0.022554627384524007,"175":0.06337655859907103,"176":0.000006145316492648458,"177":-0.023166478851002432,"178":-0.07010031148360832,"179":0.005630454704564172,"180":0.0008956572882885779,"181":-0.042742557324480034,"182":0.07158033937391105,"183":0.06131999540139234,"184":0.000016795527063161904,"185":-0.01061154578764623,"186":0.0030445462101490323,"187":-0.004233305874236294,"188":-0.06684936406437775,"189":0.0025160348695168586,"190":0.01512245544503715,"191":-0.06108410390103903,"192":-0.00000799574449701955,"193":-0.010086688922204054,"194":-0.0014219396799732067,"195":-0.005643998838691874,"196":-0.08890983912627748,"197":0.004159725687776743,"198":-0.03245065076763558,"199":0.005754539052070535}},{"sx":5,"sy":5,"depth":8,"w":{"0":-0.00000537747248553897,"1":0.04143204176734543,"2":0.01345342820221897,"3":0.002280007521100614,"4":0.01663683005149374,"5":-0.00929752562969483,"6":-0.052723891740540374,"7":-0.044763746375469135,"8":0.000008600945206446687,"9":-0.0171029079313523,"10":-0.01983353329992579,"11":0.0015254973953111744,"12":-0.0495585950419102,"13":-0.1360746698321975,"14":-0.014989355312449909,"15":-0.04642275904473455,"16":0.000006469537647361607,"17":-0.033968477644835154,"18":0.0036401755992911114,"19":0.001371755944463662,"20":-0.05849779769421035,"21":0.06642524693458618,"22":0.017320238071230256,"23":-0.15873344815316248,"24":0.0000157190513556244,"25":0.09490172657813505,"26":0.08555016468558838,"27":0.0009634492476689333,"28":0.11488555166815148,"29":-0.022879367654709243,"30":-0.07372699544204615,"31":0.0836762707376154,"32":-0.000007151211753503608,"33":0.044778433907442676,