[{"network":{"layers":[{"out_depth":3,"out_sx":64,"out_sy":64,"layer_type":"input"},{"sx":5,"sy":5,"stride":1,"in_depth":3,"out_depth":10,"out_sx":64,"out_sy":64,"layer_type":"conv","l1_decay_mul":0,"l2_decay_mul":1,"pad":2,"filters":[{"sx":5,"sy":5,"depth":3,"w":{"0":0.02860373713643122,"1":0.036146782975675716,"2":-0.08369267430578095,"3":0.001112560245718697,"4":-0.052583657187446065,"5":-0.014055837890863995,"6":-0.03026083567249552,"7":0.22763255272415717,"8":-0.039789911479774745,"9":-0.0220333636325231,"10":-0.15186097453351013,"11":-0.05409204166668117,"12":0.0041407311327299,"13":0.0684575679912852,"14":-0.14716063661316342,"15":-0.149232686074162,"16":-0.15441551968005393,"17":-0.09343793689734295,"18":-0.11160336187848369,"19":0.05084792355246793,"20":-0.1023437498631613,"21":0.08754817910651926,"22":0.1474522301147761,"23":-0.29508033485507357,"24":-0.07470959129887074,"25":-0.0215009520907081,"26":-0.050029995224130146,"27":0.08198853945862795,"28":0.06792978401213187,"29":-0.10490152333963068,"30":0.060050736745856315,"31":-0.14599637398891974,"32":-0.18770844759751953,"33":0.0016103156856357777,"34":0.07801049680149309,"35":-0.004648160974753091,"36":-0.07721881838510214,"37":0.020235763610874147,"38":0.06978761939551711,"39":0.1844386835949354,"40":0.136164682087972,"41":0.16149868005514287,"42":0.3020989766429906,"43":0.06485700169967332,"44":0.2825817471849942,"45":-0.008911279595512234,"46":-0.08940447897066559,"47":-0.10855837729358583,"48":-0.009701351207372711,"49":0.06858531652525619,"50":0.016652262491920828,"51":0.09647322853017333,"52":-0.11992384130820449,"53":-0.10357293865217412,"54":0.23376971160599636,"55":0.1317258987716833,"56":0.3083759555465828,"57":0.15226623798874403,"58":-0.010274341140415673,"59":0.3534131786933746,"60":-0.20876260084260315,"61":-0.08348325465035648,"62":-0.030884058310144548,"63":-0.09992151195522203,"64":-0.025621477334794206,"65":0.10377403981790968,"66":-0.06284303736057827,"67":-0.024213928007924292,"68":0.2485878713431306,"69":0.03223599626803373,"70":0.0851822469151583,"71":0.2387010562169191,"72":-0.11473315454733451,"73":0.12925287548706493,"74":0.0715884761325098}},{"sx":5,"sy":5,"depth":3,"w":{"0":0.15524085584212496,"1":-0.23064415139364078,"2":-0.03195923532210855,"3":-0.025815482991337253,"4":-0.2411837996234114,"5":0.03404843241489276,"6":0.1844085144884433,"7":-0.035366216220001356,"8":0.07506725512727494,"9":0.11157466782975115,"10":-0.20508151107260417,"11":0.006094138131970958,"12":0.05858924544531572,"13":0.0818765622023734,"14":0.28413501614155673,"15":-0.031009580188155486,"16":0.0052813019936606,"17":0.017713297321701273,"18":-0.009855288178864125,"19":-0.14868525115194975,"20":-0.1293965625979751,"21":-0.055199543835356676,"22":-0.22635747495571173,"23":0.18773131880156485,"24":0.09147410735897119,"25":-0.04274045481126981,"26":0.10485280041734162,"27":-0.10561931244801144,"28":-0.19939644567544773,"29":0.039317118785841126,"30":0.07990462783237683,"31":-0.1644802169693713,"32":0.02936591576873891,"33":-0.11482079059879141,"34":-0.19359586823118002,"35":0.03562351397321849,"36":0.04679142170910601,"37":-0.22874663483473628,"38":0.08823247542972915,"39":0.11017115107051503,"40":-0.14052202165570685,"41":0.07714295913010974,"42":-0.027276017325231643,"43":0.15791028173790234,"44":-0.009312786500073113,"45":-0.08423510908232922,"46":-0.16431998709325865,"47":0.06736491944683966,"48":-0.06699633375568666,"49":-0.12405635091029979,"50":-0.008074162530046215,"51":-0.1981226399654799,"52":-0.0873853860592991,"53":0.13269679979803925,"54":0.047141931456833215,"55":-0.10903509130370029,"56":0.1761465557329484,"57":-0.04042997355696102,"58":-0.07322191303321707,"59":-0.014326990901112752,"60":-0.13466554704637176,"61":-0.19879694075059456,"62":0.09125025820373214,"63":0.0007217006401257432,"64":-0.12844158342876852,"65":0.0927703353965503,"66":-0.16259183549148334,"67":-0.08906294585512704,"68":0.12590279321213435,"69":-0.09845550830757555,"70":0.025407923592978932,"71":-0.053339700484963906,"72":-0.08044603356868013,"73":0.04673664661507571,"74":0.041124448938476985}},{"sx":5,"sy":5,"depth":3,"w":{"0":-0.1360865034720443,"1":0.15915325105832287,"2":0.12232873418098421,"3":-0.11159594938734903,"4":-0.04929701670187738,"5":0.17649798490484156,"6":0.071392929224442,"7":0.05078898709387434,"8":0.07116540859743288,"9":0.03440824191589782,"10":-0.04595551875398946,"11":0.24904936972986422,"12":0.1289903990603464,"13":0.03373570934498073,"14":0.20959152394267735,"15":0.001854225747960778,"16":-0.05933074050382432,"17":0.09426976852919773,"18":-0.057862098505166215,"19":-0.03145483603513022,"20":0.33257268962358166,"21":0.05379304421442762,"22":0.16040028473201337,"23":0.20019962484681328,"24":-0.03758865714646993,"25":0.04269175484036538,"26":0.02380174079298634,"27":-0.11202385104026272,"28":-0.0059057784459790414,"29":0.07587297417517135,"30":-0.052460261820904706,"31":0.12124714831267591,"32":0.2886310931693773,"33":-0.17873813168278274,"34":-0.20726697023989962,"35":0.3988854533771636,"36":0.15257789516068987,"37":-0.09807572806575668,"38":0.1707538988375773,"39":0.07181309219821107,"40":0.048755618986419495,"41":0.2607003377378721,"42":-0.16317937035403862,"43":-0.030536065370177504,"44":0.1161386967671479,"45":0.0312599402567917,"46":0.051289735951457735,"47":0.2146155932853939,"48":-0.12893095632871346,"49":-0.10377493254817885,"50":0.2629019548437064,"51":0.008033573882127313,"52":0.14871699891458703,"53":0.2712404214029508,"54":-0.01975179642152689,"55":-0.024401906156426883,"56":0.051426012616154176,"57":0.04631189378821315,"58":-0.12770740831027247,"59":0.2207178989858754,"60":-0.18182860279829163,"61":0.05436214568706496,"62":-0.013691110729192204,"63":-0.2221303753383849,"64":-0.0009128804864661334,"65":0.004217903398264659,"66":0.2189631070212838,"67":0.1087726815156748,"68":0.0709815431140569,"69":0.06669678569396183,"70":0.18995013694372553,"71":0.2082824562611023,"72":0.043383684673450156,"73":-0.022228223427288946,"74":0.15758423375260538}},{"sx":5,"sy":5,"depth":3,"w":{"0":-0.07761716730381561,"1":0.08584166514295108,"2":-0.05271057492710059,"3":-0.11761301240018854,"4":0.04476450326565319,"5":-0.016096294096990663,"6":-0.19273370504366816,"7":0.3408045826939555,"8":-0.01210418867427239,"9":-0.052938019381416374,"10":0.13374520128526768,"11":0.1817453152014801,"12":-0.18759185237831472,"13":0.012915573642238177,"14":0.059837118764533695,"15":-0.10125603434893143,"16":0.02127466680151228,"17":-0.07732962083033326,"18":-0.11086329213113184,"19":-0.04964172027197583,"20":0.02911662472212549,"21":-0.22014716671372972,"22":0.05550776713356117,"23":-0.038607243340886825,"24":-0.09120718050980915,"25":0.05093864796216079,"26":0.016531869208552995,"27":-0.0514783490776702,"28":0.08616406383664188,"29":-0.04115676598411083,"30":-0.0960073462878517,"31":0.0680012995806037,"32":0.012588110714452186,"33":-0.018560821122456335,"34":0.0271256923347259,"35":-0.025030646080002533,"36":-0.2031877674284882,"37":0.0315893680926254,"38":-0.02285579098250331,"39":-0.001954376452463344,"40":0.38184559642477395,"41":0.0706426351105579,"42":0.005678052109209802,"43":0.14345917097960367,"44":-0.1522294358462788,"45":-0.08849512178231397,"46":0.012203246036377605,"47":0.11315766555692912,"48":0.019662737018208986,"49":-0.1437101994737302,"50":-0.060346800414790555,"51":-0.13856451729279762,"52":-0.01903653883816491,"53":0.20858576398042902,"54":0.1404076365190641,"55":0.21766307858658954,"56":0.24221494743467079,"57":0.3756741233429369,"58":0.2472566678711336,"59":0.22047021325237845,"60":-0.2139559410297304,"61":-0.19448151960508162,"62":0.022315107714675715,"63":-0.14461191063108547,"64":-0.0803432445364057,"65":-0.08590896179490706,"66":0.008710028938514346,"67":-0.01196542122338704,"68":-0.04497365844841221,"69":-0.024861899275343668,"70":0.04467452250220954,"71":0.06739853403911977,"72":0.16111213005919942,"73":0.1548757693744271,"74":0.05352152891691858}},{"sx":5,"sy":5,"depth":3,"w":{"0":0.037635753380762325,"1":0.08058199115819728,"2":0.06782802784256516,"3":-0.09043879757906566,"4":0.0018242134785324252,"5":-0.052713080305180925,"6":-0.2175617252675288,"7":-0.028651806690810515,"8":-0.11480680395715859,"9":-0.057283590413081294,"10":0.09324385460572053,"11":-0.10440036925589567,"12":-0.299661186420228,"13":-0.006022622581280613,"14":-0.11790278848068753,"15":-0.046193008718632196,"16":0.2342576854226276,"17":0.04102721829847556,"18":0.14356697128019008,"19":0.21719582728195727,"20":0.06121028608051421,"21":0.052550405758813354,"22":0.1988375199810559,"23":0.3275624498267825,"24":0.2608237283218772,"25":0.14214003534343717,"26":0.1823496760924642,"27":0.009113601813148025,"28":0.17423671813606686,"29":-0.04133973650129029,"30":-0.2441249369968534,"31":-0.062193283321928354,"32":0.1322354908110668,"33":0.008823074859709993,"34":0.14011221041268332,"35":0.23236007668758824,"36":0.0237509921844049,"37":-0.006748100094075481,"38":0.06307905964710658,"39":0.1180967105494652,"40":-0.020185565588692018,"41":0.32500108608490924,"42":0.14916347892147655,"43":0.16409478536693856,"44":0.26173124620402266,"45":-0.15051759100782935,"46":-0.008459775584399839,"47":0.023885422287001953,"48":0.13632978605519636,"49":-0.0016237009642956232,"50":-0.009361781685914962,"51":-0.16593715686926633,"52":0.006118273817829627,"53":0.0003526544915608708,"54":-0.2825256473292437,"55":-0.11800724560562098,"56":-0.06296367931699304,"57":-0.25642970257909903,"58":-0.1045878222765917,"59":-0.1955755477809594,"60":-0.08218614361514757,"61":0.022200403585487177,"62":-0.0986583126880527,"63":-0.17766153719293598,"64":-0.12993819478279428,"65":-0.059418916593638724,"66":-0.07713355358650169,"67":0.17222664158947076,"68":-0.036364038916051236,"69":-0.053289798445579024,"70":-0.002120074176981051,"71":0.017940814083509674,"72":-0.10413263665495755,"73":0.1703724667458458,"74":0.004796845717577803}},{"sx":5,"sy":5,"depth":3,"w":{"0":0.04519062225739721,"1":-0.08153147773453717,"2":0.044511297036885465,"3":0.08559952564831362,"4":-0.06647840945943975,"5":-0.15431030048787073,"6":0.0158435159431517,"7":0.05151488617258459,"8":-0.12414106793665186,"9":-0.02476880841266241,"10":-0.0007850213900070169,"11":-0.14729476664496796,"12":-0.03784835251769331,"13":0.03599849863237241,"14":-0.23425563923103213,"15":0.12914826646097016,"16":-0.04500374285592135,"17":-0.06318082124694385,"18":-0.09456948859298968,"19":0.07196480667688655,"20":-0.21263058326731038,"21":-0.00229968494402822,"22":-0.04259412946872069,"23":-0.22152295886855727,"24":0.04930927369040563,"25":-0.1889281727394129,"26":-0.17087109114809354,"27":0.28838323859468795,"28":-0.06869947171683337,"29":-0.1823683052033456,"30":0.07912201306141331,"31":-0.08498321743359426,"32":0.006809152128163147,"33":0.25562136113194595,"34":0.0034888995957812223,"35":0.07682160020126058,"36":0.2522881681403312,"37":0.0011764302340536163,"38":-0.02483090290838119,"39":0.2350615260552473,"40":0.11393524117833323,"41":0.19279125711653128,"42":0.1271306061380096,"43":0.03313027518092148,"44":0.14493822799745631,"45":0.0931297048504677,"46":-0.17447820210870765,"47":-0.2154445970086288,"48":0.2632433314671744,"49":0.029013133564934134,"50":0.1748157492612664,"51":0.39598334345293296,"52":0.20636370244076285,"53":0.12467560747022688,"54":0.4003438113863776,"55":0.06297457967800954,"56":0.07124566622353881,"57":0.09660328531315707,"58":-0.03582265802968153,"59":0.02013547497509714,"60":0.10478396155139702,"61":0.14746727295834725,"62":0.05946821300239096,"63":0.14718031877400423,"64":-0.0873108898470823,"65":0.0010756130543061852,"66":0.011686176240663643,"67":-0.12234188226650226,"68":0.14494865547214897,"69":0.04840860971074473,"70":-0.319562965486509,"71":0.06507731008104439,"72":-0.16351808421425199,"73":-0.26659313873307644,"74":0.00787558438517313}},{"sx":5,"sy":5,"depth":3,"w":{"0":0.08319666679215666,"1":-0.07564066913723139,"2":0.053777100055508585,"3":0.15665467713121553,"4":0.040243318952023203,"5":0.12872721647413832,"6":-0.114784833679063,"7":-0.1743520204398423,"8":0.027237144201207538,"9":-0.006155787957148348,"10":-0.2830283227784281,"11":-0.06467077441558146,"12":-0.04826530539337938,"13":0.05094590601707279,"14":0.009778057523044658,"15":-0.007872304980738596,"16":0.026155098422825793,"17":0.029101708847711332,"18":-0.23213155770430774,"19":-0.12672451624012157,"20":-0.044663806123113985,"21":0.041135692476564185,"22":-0.16233423593283872,"23":0.10080037303927995,"24":-0.14699353743977367,"25":-0.19708017361396032,"26":-0.055263404021295294,"27":0.0076144206011295335,"28":-0.12139813011927364,"29":0.12072275629840168,"30":0.0042329685845076855,"31":-0.09575118863852111,"32":0.05223126061040515,"33":0.01696220553941542,"34":-0.18390107931371896,"35":-0.08577684863210905,"36":0.0788357413195967,"37":-0.18040354705463252,"38":-0.13466456972327748,"39":0.01352022827695062,"40":-0.050823375908432625,"41":0.08724639081360147,"42":-0.018535486824722346,"43":-0.023184653309462306,"44":0.03379035185282895,"45":0.09888584302296216,"46":-0.07143294400166633,"47":0.14903028202353272,"48":-0.13229201544441654,"49":-0.07742580250326682,"50":-0.06678785196184878,"51":-0.0858365359696138,"52":-0.0882583024832464,"53":0.20018808423495693,"54":-0.23699680015601735,"55":-0.14202402927196184,"56":0.17969382630644032,"57":-0.06348723088066988,"58":-0.0889071157797873,"59":0.18142076655115832,"60":-0.014311499626761098,"61":-0.07025465087587004,"62":0.02033138088359678,"63":0.1597699593367125,"64":0.006234473734113893,"65":0.29220054055815364,"66":-0.0006747813473284306,"67":-0.16758244912792186,"68":0.16346536478189275,"69":0.01803195063861258,"70":-0.13074415230236608,"71":0.18323697040431625,"72":0.11759880965720254,"73":-0.14717534913163235,"74":-0.049736818481783275}},{"sx":5,"sy":5,"depth":3,"w":{"0":-0.09879825819599183,"1":-0.023374719719206072,"2":-0.16698653231152513,"3":0.38367083250389467,"4":0.1833217489658643,"5":-0.0058339623593962175,"6":0.3565331716369481,"7":0.024608557732480014,"8":0.15283369588438106,"9":0.09134029389829325,"10":-0.013168698146262385,"11":0.03470239347698803,"12":-0.25283400301870845,"13":-0.22235660168054427,"14":-0.049670968667865426,"15":-0.21950243684162637,"16":-0.14495556716598398,"17":-0.05261750302385383,"18":0.200832038267602,"19":-0.016782867417161312,"20":0.08380505577098549,"21":0.3398266899209227,"22":0.0460608432541418,"23":0.0338935543422731,"24":0.12397055252809278,"25":0.07690306297475663,"26":0.03846218091423376,"27":0.018510754743987376,"28":-0.23112717441350933,"29":0.3129391803535458,"30":0.17944130102623382,"31":0.08591460499750653,"32":-0.02409848794351977,"33":0.23627867422624302,"34":0.13382903115960215,"35":0.021020363086710205,"36":0.41894222282452215,"37":0.09708125715027728,"38":0.26293065133847343,"39":0.20338916756028041,"40":-0.050414101337306165,"41":-0.12407467212104217,"42":-0.12471615680652125,"43":-0.16960934372464445,"44":0.019681926837490274,"45":0.11836609682979499,"46":0.022520894038937013,"47":-0.006070770055782567,"48":0.26824809052473997,"49":-0.0213402196548264,"50":0.010918674960458855,"51":0.2857654792627385,"52":-0.002616675289625831,"53":-0.012486132090064724,"54":0.055374587247021476,"55":-0.16167237714116103,"56":-0.06352215623599386,"57":-0.020083113910720783,"58":0.23538412440940018,"59":0.054870034293382094,"60":-0.015862995240540762,"61":-0.062378739358244395,"62":-0.07363462021473402,"63":0.18015219594557935,"64":0.03243016086674429,"65":-0.062013228864370905,"66":-0.07313643332269593,"67":0.08673915788749148,"68":-0.22560903655851589,"69":0.008197270806143233,"70":-0.16569344536325692,"71":-0.15740880143621272,"72":-0.05018268712234589,"73":-0.043494929997628606,"74":-0.07785355100592997}},{"sx":5,"sy":5,"depth":3,"w":{"0":-0.1355147015933805,"1":0.05674069706989087,"2":-0.022126035617234557,"3":-0.20233155497466268,"4":-0.04586510266235502,"5":0.020070900054009896,"6":0.06666364208020291,"7":0.0024377244175349047,"8":0.04582497318252639,"9":-0.09119930957254659,"10":0.22401907127724785,"11":0.036712823568794115,"12":-0.09268829004916758,"13":0.13291666937837396,"14":-0.09636596648087924,"15":-0.1351569058153417,"16":0.17931410860710106,"17":-0.23493430303881987,"18":-0.04094100583091959,"19":0.1921578034058358,"20":-0.05977237231647832,"21":-0.06656697131952495,"22":0.12633142067756167,"23":-0.11506122180109031,"24":-0.17235065846947437,"25":-0.04562913449744435,"26":-0.03894191352280592,"27":-0.06930338986108854,"28":0.11629946277859425,"29":0.0672064099014478,"30":-0.0707602971775987,"31":0.1220730942401632,"32":-0.026826911892217788,"33":-0.1196927556610451,"34":0.18214183733518985,"35":-0.19281821801854737,"36":-0.05097382607103673,"37":0.14667045373019186,"38":0.04743927620682626,"39":-0.11104207808411794,"40":0.17143857951002817,"41":-0.06213088268662981,"42":-0.12742877972611028,"43":0.07191819355261773,"44":0.13582705308472162,"45":0.022613044325477585,"46":0.17853031007709988,"47":0.13128490658117117,"48":-0.08353706863161907,"49":0.08993709372129205,"50":-0.00486739259964432,"51":0.03104112224348488,"52":0.20548054467490667,"53":-0.0018981300063955562,"54":-0.060322244281714864,"55":0.11142673550106522,"56":-0.025037855764879633,"57":0.0014510339755842588,"58":0.18291448642810126,"59":0.03679502324115337,"60":-0.0058441205405893835,"61":0.21927782552712352,"62":0.13066842667176706,"63":-0.2572946898577578,"64":0.2420688634896283,"65":0.12183367192666594,"66":0.1897074840829123,"67":0.06566768805449681,"68":0.2012573654184279,"69":0.07174386817579431,"70":0.15109252991745128,"71":-0.1082475938132034,"72":0.010193930797549731,"73":0.08874831749848978,"74":0.24111303631025008}},{"sx":5,"sy":5,"depth":3,"w":{"0":-0.10367967019594646,"1":-0.004144041699640787,"2":-0.15685674022510948,"3":0.1265041574580683,"4":-0.17542937753974777,"5":-0.04070053001546285,"6":-0.11636907065558845,"7":-0.11816355158883121,"8":-0.299709749560363,"9":0.15124364545792754,"10":-0.0736607655033246,"11":-0.01802439611316714,"12":-0.04443842658037071,"13":-0.15152094254644763,"14":-0.24524687481117471,"15":0.02710137966902206,"16":-0.17163687802260205,"17":-0.19103283087433975,"18":-0.02207399003551337,"19":-0.08739517443257981,"20":0.08112323135714877,"21":0.018183965680298227,"22":-0.09291659154252044,"23":-0.17995935390097767,"24":-0.0032078395304927444,"25":-0.10842140273863364,"26":-0.20378777028586054,"27":-0.08276726544994603,"28":-0.054176659603317266,"29":-0.08999361758764811,"30":-0.13879949853239842,"31":0.10248787738642487,"32":-0.33668546219228374,"33":0.05954125468916503,"34":-0.10083838629236974,"35":0.10514720258169977,"36":0.15973682174662998,"37":-0.07128623034753194,"38":-0.008250994046604577,"39":-0.027982256419775597,"40":-0.21077342652034212,"41":-0.019620150129418108,"42":0.15534191003578526,"43":-0.13436746066930624,"44":-0.11172693969117038,"45":0.12226669864733915,"46":0.027108121403162627,"47":-0.15701371069622222,"48":0.29682485395150443,"49":-0.09607808240909027,"50":0.12161477322990825,"51":0.1470079503865875,"52":0.11840131308208103,"53":0.26637873418626096,"54":0.19074166962543662,"55":-0.023930846483575168,"56":0.009103989712853729,"57":0.09585171180005465,"58":-0.27909375465161446,"59":0.1820567100372999,"60":0.21239264101981092,"61":-0.07713760724043557,"62":0.047676132900162774,"63":0.3409625512911963,"64":0.052194604598819624,"65":0.20229612967957508,"66":0.2301963361333115,"67":0.27527967842724016,"68":0.34246071469630585,"69":0.14844148309770958,"70":-0.20121616297879297,"71":0.20673501619988452,"72":0.3184230120864939,"73":0.14203512407975424,"74":0.23465638841528177}}],"biases":{"sx":1,"sy":1,"depth":10,"w":{"0":0.058466896873702205,"1":-0.005857663569771597,"2":0.2284332601338685,"3":0.06683289583974543,"4":0.15652323578962135,"5":0.09409916962639267,"6":0.03141741347791962,"7":0.20576607131053004,"8":0.11636708866297346,"9":0.146182030874605}}},{"out_depth":10,"out_sx":64,"out_sy":64,"layer_type":"relu"},{"sx":2,"sy":2,"stride":2,"in_depth":10,"out_depth":10,"out_sx":32,"out_sy":32,"layer_type":"pool","pad":0},{"sx":5,"sy":5,"stride":1,"in_depth":10,"out_depth":20,"out_sx":32,"out_sy":32,"layer_type":"conv","l1_decay_mul":0,"l2_decay_mul":1,"pad":2,"filters":[{"sx":5,"sy":5,"depth":10,"w":{"0":-0.10597108342093015,"1":0.17002150261528012,"2":-0.035502618608281244,"3":-0.0211474679630927,"4":-0.09932988811533931,"5":-0.04892405793504296,"6":0.10290902370981046,"7":-0.026359501035632577,"8":-0.11112481528571064,"9":-0.12589178243777865,"10":0.028650743195892697,"11":0.02410208882829311,"12":-0.005619349113354907,"13":-0.04318566962331662,"14":-0.033820756276315436,"15":-0.01623467972545988,"16":0.17740834679587172,"17":-0.09979644104401536,"18":-0.027742490761714058,"19":-0.04079211273909508,"20":0.15503494087909261,"21":0.15924795960788188,"22":-0.0052385427801810895,"23":-0.005499793204123967,"24":0.023959970495945008,"25":0.09746540788387362,"26":0.027389238955935355,"27":-0.0021140244157273583,"28":-0.0011236128779274646,"29":-0.029838761757432677,"30":-0.045758553225828724,"31":0.010518810492638328,"32":0.07790860188225777,"33":-0.06253857925140216,"34":0.04910964224211222,"35":0.007223642943421461,"36":0.005988116605678011,"37":-0.09369059943205896,"38":-0.1385962600979987,"39":-0.050571842926465396,"40":0.04416988232621943,"41":0.0333041423873453,"42":-0.039898165431917855,"43":-0.11152963609964137,"44":0.012156357337559088,"45":0.007390840769364371,"46":-0.01865315788092746,"47":-0.0754868666887545,"48":-0.056865864045853795,"49":-0.08770204663817092,"50":0.03147962456801093,"51":0.08935125513371885,"52":0.058184916666324284,"53":-0.00009188994289589309,"54":-0.018628467539611157,"55":-0.03446624910257164,"56":0.1325057000732602,"57":-0.01279949093008249,"58":-0.04646528864110247,"59":-0.045867585682319835,"60":-0.05218899256854612,"61":0.21384657821063804,"62":0.013121085214551626,"63":-0.09211171645599726,"64":0.0005353642229145903,"65":-0.07142660357692167,"66":0.17979391460311064,"67":-0.05823142995144258,"68":-0.032821204313360296,"69":-0.10931879385374994,"70":-0.057514407973548606,"71":0.1340193485427572,"72":-0.030326304585888975,"73":-0.03704588402020337,"74":-0.14576740698798593,"75":-0.02538785326952788,"76":-0.0007572155939505463,"77":0.057473872935654625,"78":-0.09793046205535175,"79":0.06141027592999286,"80":0.029471660155549945,"81":0.12182704862256433,"82":0.006945335088448662,"83":-0.026838521938020787,"84":-0.07940432144214932,"85":-0.022555101938340233,"86":0.04394668562786025,"87":-0.03734257347261916,"88":-0.024921170921451012,"89":-0.0940958299374505,"90":-0.1012352100470242,"91":0.10739486344774958,"92":0.04989877785524074,"93":0.007090991135835656,"94":-0.01866371367300434,"95":-0.057804090060614884,"96":-0.0737264157692634,"97":-0.05573407302475371,"98":-0.049781669159241086,"99":-0.17729045697177503,"100":0.058111784737525964,"101":0.16441861998990814,"102":-0.004577911215718338,"103":-0.013959967897622057,"104":-0.017942923498643626,"105":0.02182253084956249,"106":0.08032546911798683,"107":0.008040605193425143,"108":0.027196004466232538,"109":0.07317387173072457,"110":0.005539672725231965,"111":0.04339996355799943,"112":-0.03844254222362804,"113":0.00012189594977392713,"114":-0.023196709873288996,"115":-0.014946434752137415,"116":0.0686502457150691,"117":-0.08966450056378476,"118":-0.029822838625477466,"119":-0.0547379555171859,"120":0.08316471353971681,"121":-0.09912832819126416,"122":-0.016185018831088714,"123":-0.004217383211557174,"124":-0.06975645309032073,"125":-0.014945998474708785,"126":0.06178286278485916,"127":-0.005273726023105112,"128":-0.04473881176188058,"129":-0.10790740038767606,"130":-0.10881743476688252,"131":0.05905102269890482,"132":-0.045485402710014604,"133":-0.05699030875280393,"134":-0.044131203537748125,"135":-0.1289052808030422,"136":-0.08448228229147613,"137":-0.16317080633318704,"138":0.004669278866905353,"139":-0.17382195803878875,"140":-0.028379433987511245,"141":-0.05103194405038303,"142":-0.033798934152365866,"143":-0.049028308314017936,"144":-0.05129074248718338,"145":-0.016009918003259564,"146":-0.02134895927202471,"147":-0.1673863175049165,"148":-0.02050336982934094,"149":-0.0799313575427415,"150":0.017317241814324834,"151":0.06694410178430928,"152":-0.00837251315099319,"153":-0.11276229181999217,"154":0.026022966005185097,"155":-0.09685527565112094,"156":0.06280136104492079,"157":-0.13563209112753302,"158":0.007580106097964026,"159":0.00658251621542818,"160":-0.06192496380418401,"161":-0.013836329607602501,"162":-0.094986721221186,"163":0.11643195830904962,"164":0.029659670520659546,"165":-0.1667022338082105,"166":-0.04495693545743537,"167":0.0038884001840985443,"168":0.02924606647528712,"169":-0.030401844921609977,"170":0.021385328961186816,"171":0.14322494905441252,"172":-0.109765320536414,"173":-0.05300981624979215,"174":-0.004815138280336509,"175":-0.04873092210633775,"176":-0.01928230665907346,"177":-0.0554504441081642,"178":-0.003162589063687809,"179":-0.035133363453109655,"180":0.015449679478316207,"181":-0.05454259850034463,"182":-0.05696583779315102,"183":-0.15476814132365552,"184":-0.08634585606309515,"185":-0.04155776004610984,"186":-0.03253541952835668,"187":-0.058493412607496416,"188":-0.06442884393397152,"189":-0.08712993462343809,"190":-0.021039930590761275,"191":-0.02126643709269613,"192":-0.03450827477349352,"193":-0.09850064742434958,"194":-0.0916579408127446,"195":-0.10331082453884002,"196":-0.02621340580192733,"197":-0.07249118041227379,"198":-0.11131051062325889,"199":-0.10155135221819027,"200":-0.016187450045165395,"201":-0.04161099553059371,"202":-0.21265086827121094,"203":0.03092721678586759,"204":0.0020704589415941675,"205":-0.013874255977457083,"206":-0.03818820064811846,"207":-0.08215581880160261,"208":-0.023337543342814824,"209":0.11197796000108304,"210":0.018332071479757347,"211":0.005301209086009341,"212":-0.07920696660560611,"213":0.014228520675289092,"214":-0.07776374059135664,"215":0.038952334924928916,"216":0.031097273213089142,"217":-0.07489775657302189,"218":0.13056562340068156,"219":-0.008453535632787397,"220":0.03908895541113182,"221":0.02274808883854666,"222":-0.06971078113264827,"223":0.08454542639798969,"224":-0.045521427661942476,"225":-0.09986116052494652,"226":-0.0632739685699439,"227":-0.0491259961226173,"228":0.18130819221228342,"229":0.1517505767161819,"230":-0.07921549158794045,"231":-0.12143979709409104,"232":-0.10640650537707402,"233":-0.002998928406209822,"234":-0.14470833277870612,"235":-0.04880065064552416,"236":-0.12369178342980976,"237":0.058824540008515225,"238":0.08386192029264881,"239":-0.0532651871819088,"240":-0.07277440720904188,"241":-0.12912124240024142,"242":-0.021990008412220933,"243":-0.07422576810952547,"244":-0.21525306905308106,"245":-0.05283086983782977,"246":-0.0216665952610511,"247":0.0019681639637008953,"248":-0.10934130663786149,"249":-0.03916274545187041}},{"sx":5,"sy":5,"depth":10,"w":{"0":-0.0729337602388067,"1":0.234832677939242,"2":-0.13205543116052124,"3":0.008018567004121758,"4":0.03914850214806777,"5":-0.05071694329741935,"6":0.10848388879964646,"7":-0.1180321631486334,"8":0.08269229999563273,"9":-0.16019021864034824,"10":0.070969620486601,"11":0.15324027897674367,"12":-0.0637414529268081,"13":0.04247556261707515,"14":-0.021654094859193024,"15":-0.06540448415385904,"16":0.09101681886041756,"17":-0.02242840044417208,"18":0.0656650263840168,"19":-0.04243997750644241,"20":-0.18003260721919978,"21":0.14338729437835088,"22":0.024895865189588785,"23":-0.06548864441535697,"24":-0.03252385298562094,"25":0.013418834085453468,"26":-0.021851673741117676,"27":-0.026048610396447333,"28":0.04429747993675631,"29":-0.02153624635583682,"30":-0.08546822092176629,"31":0.11428065875981745,"32":-0.06817860618624556,"33":-0.014555991778295611,"34":-0.07159217368533,"35":0.05000427822036771,"36":-0.01814854753032626,"37":-0.09812148454020962,"38":-0.08595780473955847,"39":-0.08963634025171484,"40":-0.08344096416833675,"41":0.0841885635410794,"42":-0.0889214292598295,"43":-0.07652963912493009,"44":-0.1215728268300412,"45":-0.09774948208044335,"46":0.12457029457129187,"47":-0.17048835997334705,"48":-0.04188968590451316,"49":-0.03683790424663677,"50":0.007238305112238466,"51":0.045308281321757,"52":0.029744939059353638,"53":0.179231367476108,"54":0.033286553640960934,"55":-0.13533187394261356,"56":0.058723047018112234,"57":-0.057770430077959026,"58":0.02917409249440698,"59":-0.11737440136334949,"60":0.01138407823135524,"61":0.11493542541130097,"62":-0.054197855332783304,"63":0.07303700739229349,"64":0.07238881813334161,"65":-0.14826507956131754,"66":0.052293321919367426,"67":0.05562164781782521,"68":0.08899749117900667,"69":-0.08483229285007463,"70":0.0039471651963913145,"71":0.11257234747441981,"72":-0.011643745694364094,"73":0.041380627248324364,"74":-0.08231217246172898,"75":-0.17884422704017927,"76":0.032507604871467255,"77":-0.03318098953715605,"78":0.0758991925078247,"79":-0.07534284072007764,"80":0.010910996582628662,"81":-0.0072584970684249055,"82":-0.08723059779266017,"83":-0.05303825234807604,"84":-0.06671904026023362,"85":-0.08409510648859553,"86":0.09022415606646125,"87":-0.062485929058078246,"88":0.07671829627890323,"89":-0.13565115206471065,"90":-0.09384531750707288,"91":0.07727382902841723,"92":-0.11539991634602102,"93":-0.058381899765964224,"94":-0.14115524290361528,"95":-0.08606766379026569,"96":0.029130960131126777,"97":-0.03771611382135037,"98":0.0019258943701063143,"99":-0.004958942812071349,"100":0.03329532172775412,"101":0.06270299978343016,"102":0.0016394687729731924,"103":0.06171655850906716,"104":0.20321003762742146,"105":-0.15982107334423842,"106":-0.0058783632775555395,"107":-0.17097362920424183,"108":0.0828489317734416,"109":-0.04643547073431417,"110":0.04165582295723415,"111":0.0346553699280863,"112":-0.0016188331040936288,"113":0.05894335012333425,"114":0.050644756387487895,"115":-0.15861671515889147,"116":-0.028275589001935653,"117":-0.20571248387799038,"118":0.07411736876068697,"119":0.011696669176793057,"120":-0.19219280077013162,"121":0.04269588624771785,"122":0.0791312964081259,"123":-0.03325586883911945,"124":0.07566392228678946,"125":-0.21671167156193832,"126":0.054304814282830925,"127":-0.155691331368693,"128":0.10926829074550491,"129":0.02731992954622537,"130":-0.1853575776882959,"131":0.014166210091063624,"132":-0.011021669519978102,"133":-0.017144484207627285,"134":0.029304019839213415,"135":-0.03992714962024552,"136":0.022774603893198807,"137":-0.10089990757877977,"138":0.027185506873695902,"139":-0.10089644315316848,"140":-0.18908445391420634,"141":0.007997447901420056,"142":-0.13181256063941066,"143":0.08447385940077519,"144":-0.06421072191096275,"145":-0.06577523809332292,"146":0.00004934200134435522,"147":-0.20075762789150123,"148":0.020286713852502317,"149":-0.036332600837918824,"150":-0.19704483367175918,"151":-0.012608948102489198,"152":0.03333878719133055,"153":0.12574614165471745,"154":0.01876238184695832,"155":-0.029977523844484606,"156":0.03410283328196665,"157":-0.10688650217788624,"158":0.0830326011594228,"159":-0.16988838827514657,"160":-0.16530586774352135,"161":0.04607536370781352,"162":-0.11124367156716326,"163":-0.004286402068280022,"164":-0.07939590137185128,"165":0.006169094253514863,"166":0.11295508530271894,"167":-0.14763071009194473,"168":0.08381551319114791,"169":-0.13069974961980538,"170":-0.0756597592180695,"171":0.10482562091779318,"172":-0.07702417873845756,"173":0.08482403654130558,"174":0.01761927549090466,"175":-0.03528342967587681,"176":0.052567657704750005,"177":-0.13278366729299532,"178":0.0383314951396655,"179":-0.11778218043161255,"180":-0.09723592459854209,"181":0.04087590371355513,"182":-0.09463628418522257,"183":0.22264078921940736,"184":-0.08956080562443566,"185":-0.002115800598011228,"186":0.12997355261911134,"187":-0.125484773015325,"188":-0.015281886880635776,"189":-0.08840213004972146,"190":-0.13150474571543663,"191":0.09948393507425075,"192":-0.12043649687820318,"193":0.04669886080938818,"194":-0.12651616491191897,"195":0.05484104472546373,"196":0.03370567728497923,"197":-0.11983375355194183,"198":0.09517571007466213,"199":-0.07957584122894035,"200":-0.15054931031890445,"201":-0.11608947524994917,"202":0.14650299858142943,"203":0.04340007637430697,"204":0.03867493103945657,"205":-0.1558034655499899,"206":0.06778593384547266,"207":-0.04050261681791123,"208":0.042413458559853394,"209":-0.04662170808807197,"210":-0.15884666950263038,"211":0.07192927579318655,"212":-0.013615313190301749,"213":0.06862074971925258,"214":0.0030141328561310793,"215":-0.03627348271325619,"216":0.11254951099330515,"217":0.0006972318940314861,"218":0.052282896754528685,"219":-0.06748723522666444,"220":-0.11684946581425129,"221":0.12917981024867836,"222":0.013784988177087322,"223":-0.04288508125040209,"224":0.06352032114715643,"225":-0.10665794415182875,"226":0.11448028693518314,"227":-0.08113320883196151,"228":0.041021571633422675,"229":-0.006613505983049854,"230":-0.12087494522221069,"231":0.17538735967487562,"232":-0.056410539402557476,"233":-0.14130308525952504,"234":-0.06987667655715965,"235":-0.09530038842887117,"236":0.028127961537262162,"237":-0.09750328128191951,"238":0.03394929695777484,"239":-0.060393486575366154,"240":-0.07102215112108612,"241":0.12532205971821186,"242":0.016849456912088268,"243":-0.013432871593141606,"244":-0.12286036357912625,"245":-0.014787904894367494,"246":0.05271737595806661,"247":-0.16367407971200562,"248":-0.06282017679120673,"249":-0.006229870880250878}},{"sx":5,"sy":5,"depth":10,"w":{"0":-0.030406616758035996,"1":-0.08264934893256506,"2":-0.09500335797174342,"3":0.05024400466573448,"4":0.04951991541967623,"5":-0.037700471085156666,"6":0.0013124787122672631,"7":0.11483158177077141,"8":-0.22230515581821195,"9":0.06859435443772516,"10":-0.04811368170366851,"11":-0.06919932667824662,"12":-0.12360336894717416,"13":-0.02927517178610071,"14":-0.06255111115073336,"15":-0.0340793247695166,"16":-0.0003419399496518147,"17":0.1351013144782746,"18":-0.1340374975955721,"19":0.09064365881946207,"20":0.09516037244640364,"21":0.06883077202472285,"22":-0.16584559953865452,"23":-0.06527202613824806,"24":-0.25386729408586733,"25":0.23816540758298005,"26":-0.03774776472325915,"27":0.13476352453243792,"28":-0.01890756069972855,"29":0.12782885896094306,"30":0.14700535179252877,"31":-0.07367931111627718,"32":0.029625292900227206,"33":-0.02513929500837998,"34":-0.041649931252857306,"35":0.1542579940456163,"36":0.09176237391914875,"37":0.12467226210725339,"38":-0.06526264536884031,"39":0.20613095086006314,"40":0.11109346477136939,"41":0.09348919520494797,"42":-0.00860165439567204,"43":0.01898204422121139,"44":-0.06140654447376771,"45":0.11672561730706486,"46":-0.05155006976522922,"47":0.0783440400542457,"48":0.002035223398361863,"49":0.03479248367038657,"50":-0.0059063083779549936,"51":-0.0006482528327562932,"52":-0.2652869845407774,"53":-0.029405897126132854,"54":-0.10282368706690456,"55":0.10036268832627646,"56":-0.016245942405305542,"57":0.031018086857517713,"58":-0.10772725770364865,"59":0.06676056063922986,"60":-0.0030390598575243642,"61":0.001093109841353636,"62":-0.13711509412861903,"63":-0.06765589212402164,"64":-0.11684893560642577,"65":0.22346989397069458,"66":-0.0673155350487317,"67":0.07060433285519603,"68":-0.05309949799211748,"69":0.19800809384293627,"70":-0.11532559521985303,"71":-0.06466773792345629,"72":-0.03835170982443041,"73":-0.16465079649079298,"74":-0.03181731600132227,"75":0.17858774826353685,"76":-0.09562156340011543,"77":0.11374764061794274,"78":-0.17368113518159714,"79":0.13686813675615073,"80":-0.013414821339764346,"81":0.11664734274587549,"82":-0.06329428619998477,"83":-0.06836447801340523,"84":0.13921896345357848,"85":0.03624647683085398,"86":-0.01646526305677259,"87":0.06275918036416046,"88":-0.06494913502320726,"89":0.08622240769561425,"90":0.06503849006648225,"91":0.11285224323646512,"92":-0.09319826517158028,"93":-0.033071115560966494,"94":-0.03112749179911232,"95":0.043289520061117664,"96":-0.030974599878370212,"97":0.14531686466706362,"98":-0.18213398588672722,"99":0.039711653157415434,"100":-0.011053198942300483,"101":-0.021767532158904212,"102":-0.1292319871439413,"103":0.029020746224466352,"104":-0.022585224732146452,"105":-0.05310295873998201,"106":0.025201996700478367,"107":-0.025150703744710387,"108":-0.04848421047065138,"109":0.08715451644358485,"110":-0.022320308500730204,"111":0.021020608435938053,"112":-0.23327900355207432,"113":-0.0021016239894220837,"114":-0.0722858368202037,"115":0.11494856792493088,"116":0.04126965968646996,"117":0.11928499616512148,"118":-0.07088820071615952,"119":0.1325103119231469,"120":0.06732485352961538,"121":0.013402845737852321,"122":-0.08237966495160436,"123":-0.06324953660774789,"124":-0.23525664895832699,"125":0.15735999035795914,"126":-0.0013176267645297168,"127":0.1316708150295136,"128":-0.002918890443145073,"129":0.057538141010129905,"130":0.03550539886104699,"131":-0.025723953946482622,"132":-0.10636405396504349,"133":-0.0551387806880385,"134":-0.05854415841071408,"135":0.05147653323337226,"136":0.1648284751341366,"137":-0.06997640427227259,"138":0.019515552465910715,"139":0.1221132245559265,"140":0.0950449516460955,"141":0.04311978898140361,"142":0.05213958542314477,"143":0.06479718842297671,"144":-0.09121424061504835,"145":0.1164864951246319,"146":0.152439710431568,"147":0.11624556592679144,"148":-0.09204353741158487,"149":0.10118159397746956,"150":0.08942508475021109,"151":-0.022132253663124716,"152":-0.07096510724711595,"153":-0.0028797183545365345,"154":-0.009237589313708747,"155":0.0756277873636242,"156":-0.10686114148935467,"157":0.028043716840017035,"158":-0.06969843375450936,"159":0.05588157812517138,"160":0.09347272739334403,"161":-0.054227915552440255,"162":-0.1265676016676188,"163":0.0005511662395967954,"164":-0.06520375682471957,"165":0.09719475924361867,"166":0.009249340511845798,"167":-0.07393355471728685,"168":-0.23449595049265298,"169":0.1054810428021302,"170":0.11518251275652353,"171":-0.1301330481772202,"172":-0.11175265308913337,"173":-0.1251138111701552,"174":-0.12004569860967086,"175":0.006356859117730109,"176":0.03273589481976793,"177":0.12638752671673534,"178":-0.0715492929991055,"179":0.13211375461623737,"180":0.08008396905891,"181":0.03149710511346097,"182":-0.09724458462893797,"183":-0.1215547186850253,"184":-0.05308273844878919,"185":0.09277836165989871,"186":0.026395956195657645,"187":0.00779830305220813,"188":-0.08743801291054218,"189":0.06804773264999436,"190":0.05394628775112052,"191":0.1253885914454818,"192":0.007027465652039198,"193":0.0371396745081074,"194":-0.022946001272698687,"195":0.03544278406988354,"196":0.050766274672501055,"197":0.12966669132282246,"198":-0.07706239330547265,"199":0.0476145323581209,"200":0.04495045673047569,"201":0.04336992010296862,"202":-0.10479996813436943,"203":0.09399300185993664,"204":-0.09058321518899033,"205":-0.00030964368808480345,"206":-0.08427631975078562,"207":0.06008256973875499,"208":-0.05334497922082893,"209":-0.06356962851505848,"210":-0.05141911770848213,"211":0.017804226144074148,"212":-0.060123122779104275,"213":0.008817632391086164,"214":0.037316524807313664,"215":0.08872734152716065,"216":-0.0915164534263606,"217":0.15733859174981502,"218":0.012785502978831355,"219":-0.04075743630691058,"220":0.030708297105232887,"221":-0.039291695770304676,"222":-0.03930531944982057,"223":-0.02140146125097026,"224":-0.04658073079305448,"225":-0.0014428159414038458,"226":-0.0789676929879884,"227":0.07924482064354156,"228":-0.05562273455449031,"229":0.02584227484667163,"230":-0.026254425093299505,"231":0.07529068125618371,"232":-0.032226305874944516,"233":-0.13801635749045443,"234":-0.08980954657196025,"235":-0.0018051172593036675,"236":0.006134176322367199,"237":0.10136790776742728,"238":-0.1421185854483972,"239":-0.12475205291649243,"240":-0.03799880737010582,"241":0.14370811409294384,"242":0.12979366655852578,"243":0.01853808394640512,"244":-0.06840030756463193,"245":0.0023934983919533265,"246":0.11946743009459515,"247":0.04086088712580932,"248":-0.11960031087699345,"249":-0.03431136005926501}},{"sx":5,"sy":5,"depth":10,"w":{"0":0.11764633277305364,"1":-0.02934699391151685,"2":0.053174312658005166,"3":0.06812086297337012,"4":0.10162505211316437,"5":-0.09115085179026498,"6":-0.10078027667399846,"7":-0.03975828448434438,"8":-0.10957902477674297,"9":0.0334603447042623,"10":0.05999793621425905,"11":-0.15298064352357263,"12":-0.04322918612294791,"13":-0.031884059753051794,"14":-0.101153536852426,"15":0.017302272137208585,"16":-0.051322958653936115,"17":-0.06558983868706884,"18":-0.05263238104713095,"19":-0.00930353200886191,"20":-0.04681466754336401,"21":-0.028294341665543177,"22":0.03710449271191532,"23":-0.08240518152426367,"24":0.011837568933574284,"25":-0.013974960796611258,"26":-0.043047447480663414,"27":-0.025899762494692346,"28":-0.06632910922680582,"29":0.0794626803978361,"30":-0.06064228250311824,"31":0.03770377207772587,"32":0.009018069533307986,"33":-0.0710317609476141,"34":-0.04121797552636729,"35":-0.041510610173874175,"36":-0.053487968342877175,"37":-0.021078225935461457,"38":0.02467134928466199,"39":0.07430977273160169,"40":-0.022744125265688905,"41":-0.02766881175320067,"42":-0.08495404833873041,"43":-0.11521320986026387,"44":-0.08113049626410757,"45":-0.03545461485069115,"46":-0.15150535221219655,"47":-0.043013761677722764,"48":-0.06764935362581931,"49":-0.06830095368162283,"50":0.048175064662619116,"51":-0.08981341796360996,"52":0.012190851121504203,"53":-0.12596520339395526,"54":-0.03458467634589075,"55":-0.04350495421875107,"56":-0.10413287656402516,"57":0.010220810732249957,"58":0.034527245515841916,"59":-0.14361172561274388,"60":0.04691499285646615,"61":-0.2937346770291711,"62":-0.04769065867694238,"63":0.021476256610035896,"64":0.014747504572053117,"65":0.14204718801852206,"66":-0.08882127652506153,"67":0.05481379040045711,"68":-0.03077160016611605,"69":-0.11563697370388842,"70":0.07408861985551503,"71":-0.12030406166161513,"72":-0.05681624857132264,"73":0.02385971039107597,"74":0.020115960431744368,"75":0.0574078407554202,"76":-0.08615296393209715,"77":0.07370537772400908,"78":0.07153231415734598,"79":-0.021788124489668652,"80":-0.04784745616007996,"81":0.024989580823155017,"82":0.08008137789245251,"83":-0.08562236643201236,"84":-0.021004037307757375,"85":0.1189537598307496,"86":-0.006692761003135015,"87":0.09644669157544801,"88":-0.025873764299130818,"89":0.04970330221183349,"90":0.018416987627476285,"91":-0.08096152026837838,"92":0.07594544545406405,"93":-0.09162955535160752,"94":0.035094625985938314,"95":0.007309985624050893,"96":-0.07238384102214743,"97":-0.054920208184879915,"98":-0.11636394661419418,"99":-0.02569269046960922,"100":-0.09906478683565015,"101":-0.15689722711799586,"102":-0.05881316249033604,"103":-0.1378373874212487,"104":-0.08185711493601076,"105":-0.017451594435447113,"106":-0.1442203041153297,"107":-0.03414024388945247,"108":-0.06638849807986763,"109":-0.019500705183476942,"110":0.05675355489669224,"111":-0.10118774038942546,"112":-0.012891112112722326,"113":0.06396921566307821,"114":0.053294096490432985,"115":-0.11400482968213782,"116":-0.10937803767516238,"117":-0.10341282416119359,"118":0.056381202080522656,"119":0.007222796167642736,"120":0.04796813658804666,"121":-0.11604388657893336,"122":-0.0024409420492948353,"123":0.07881119728583105,"124":-0.03628657355194009,"125":-0.044211078268896725,"126":-0.02969043111697402,"127":-0.011774810045251796,"128":-0.20832796683071406,"129":-0.03235965151438896,"130":0.15585921587369692,"131":-0.15742450915235087,"132":0.01718988161963777,"133":0.0361729217573819,"134":0.02183011999148739,"135":-0.03276996993431091,"136":-0.024305763805399203,"137":0.02004630333133095,"138":-0.031569283166501746,"139":0.06792288163519995,"140":0.06929368006324084,"141":-0.1484493641043751,"142":-0.0737326533010557,"143":0.0894538497892548,"144":-0.043536010533285416,"145":0.0236024379818659,"146":-0.0047266235292696916,"147":-0.04112865869465632,"148":0.028859995839550935,"149":0.20864900565742114,"150":0.004216853198653946,"151":-0.031093467599384337,"152":-0.048537529104869,"153":0.0228508542818551,"154":-0.011699850275483615,"155":0.05341801179019951,"156":-0.03701943697017529,"157":-0.033565404447721346,"158":-0.008436180078807153,"159":0.014396558806545568,"160":-0.07374600530477857,"161":-0.018914419811610555,"162":-0.06265684482334127,"163":0.02763253676616317,"164":-0.03556371500717298,"165":-0.03247555065014025,"166":-0.11960010345465168,"167":-0.07276585097303713,"168":0.03442943294228561,"169":0.09458563704453336,"170":0.028409789466071252,"171":-0.09597283887290019,"172":-0.05306988339196742,"173":0.06497125288631549,"174":-0.05131368431781578,"175":0.09038277580618567,"176":-0.14531314992934266,"177":-0.13818998373982674,"178":0.06252310219344379,"179":-0.0008814332679222728,"180":0.21895256646904104,"181":-0.11188367637706055,"182":-0.06178191355376845,"183":0.11006754578514089,"184":-0.09347979770909115,"185":0.09206277883097905,"186":-0.1582507039414307,"187":-0.006791232931562753,"188":0.0242315452349297,"189":0.09594090215429328,"190":0.13180738954602372,"191":-0.14199379666184217,"192":0.04913409278980561,"193":0.002467047247289047,"194":0.038739889125733215,"195":0.32156996384722486,"196":-0.034637845601550435,"197":0.19886940358601374,"198":0.029196072612595193,"199":0.21780651069958687,"200":0.014929353946709977,"201":-0.055564498811363924,"202":-0.030705953263966832,"203":-0.13027902655823606,"204":0.10136683749297545,"205":0.05538596998158819,"206":-0.07353456066173313,"207":-0.18418679005397828,"208":-0.03917841333219445,"209":0.09099188617258565,"210":0.10395892306911216,"211":-0.11590812325718976,"212":-0.14081550882793886,"213":-0.02085197167193872,"214":0.1678131226477531,"215":0.06277799674559974,"216":-0.09600412201533719,"217":-0.07377513366954934,"218":-0.025921541770124575,"219":0.12425643537490452,"220":0.10004449046344661,"221":-0.09498484557690329,"222":-0.06133176309598139,"223":-0.05717376925256945,"224":0.12401303961276756,"225":0.18448924123220936,"226":0.007649885273325472,"227":-0.060474221230891495,"228":0.03652133828641023,"229":0.027931416502947545,"230":0.1294362717655355,"231":-0.03166384321595621,"232":0.07141492060958907,"233":0.004939449582503768,"234":0.20211465908703616,"235":0.10922091503732594,"236":-0.10371040349159316,"237":0.029836725944156775,"238":-0.10570761725480426,"239":0.07867994294333505,"240":0.015441427400353315,"241":0.05573171209224483,"242":0.15924463157054916,"243":-0.04395557334116253,"244":0.10464208603773202,"245":0.12144369593712394,"246":-0.15073935264599397,"247":0.18731206806497258,"248":-0.03197644257250651,"249":0.13830250389050205}},{"sx":5,"sy":5,"depth":10,"w":{"0":-0.0694223498564281,"1":-0.12261329874122644,"2":-0.06201553850129853,"3":-0.08336877956495484,"4":-0.007961682863965227,"5":-0.07289368420650245,"6":-0.10425257572785107,"7":-0.05498362277515587,"8":-0.1263292522557436,"9":-0.07548381914780616,"10":0.10350055861818343,"11":-0.08181079307056474,"12":-0.11182517053775921,"13":0.05891494146107171,"14":-0.051382363783319555,"15":0.0076855768323924375,"16":-0.1773758416458616,"17":0.09739735198416502,"18":0.0373339065457909,"19":0.006205898417298292,"20":0.09927538287954321,"21":-0.1026748813633461,"22":0.04337764798735152,"23":0.04073879357814009,"24":-0.15894331004353837,"25":0.24674128419821442,"26":-0.1626701354942716,"27":0.04050618795701682,"28":-0.025558448869091473,"29":0.2502353807010347,"30":0.06415944666207354,"31":-0.013522638758410234,"32":-0.0006144630502828745,"33":-0.038913394579211925,"34":0.013213734629259675,"35":0.18366056059190067,"36":0.02995170356086587,"37":0.07907814446179051,"38":0.01842047372940402,"39":0.2053138405288414,"40":-0.06858052365689375,"41":0.029685245004777712,"42":-0.03694304721304536,"43":0.04297598758152347,"44":-0.0874794844992788,"45":0.046997323586883966,"46":0.07726111101030088,"47":-0.07574864656063526,"48":0.03752626982568467,"49":0.03347894512235175,"50":0.07136979177720947,"51":-0.1239218344142826,"52":-0.1439279061635929,"53":-0.08922504846473868,"54":-0.06325696993266447,"55":0.1417239099154826,"56":-0.06518988571805127,"57":-0.0071003420289100835,"58":-0.04879146209298685,"59":0.1656619855106061,"60":0.07989416131271881,"61":-0.11444928411872134,"62":-0.12119066432951177,"63":-0.05874794953508082,"64":0.14141076337768518,"65":0.12693902637661555,"66":-0.05701342634366534,"67":0.08330343779754502,"68":-0.0789076152556979,"69":0.11404061946472602,"70":-0.09799079537617884,"71":-0.17990548175979829,"72":0.058264702068251406,"73":0.008996201611549888,"74":0.04646469752902553,"75":0.09080663431280146,"76":-0.052768498637476895,"77":0.16364271945679226,"78":-0.16507830901129647,"79":0.19134464176962623,"80":-0.01858147725102114,"81":0.04519866609777876,"82":-0.01104880275284746,"83":-0.14185413135915545,"84":0.08602146037519769,"85":0.009816483891170208,"86":0.0813411810149336,"87":0.0330942471984408,"88":-0.1722053228359491,"89":-0.017489046127358486,"90":0.024179662777123034,"91":-0.1047768797013509,"92":0.0018480267976436011,"93":0.014482618275208371,"94":0.03182786125834718,"95":-0.10300219366622329,"96":0.08615699960395636,"97":-0.031004806967462606,"98":-0.11151749814576686,"99":-0.07359927775145866,"100":-0.013542802853819284,"101":-0.013174243902519115,"102":-0.15129447667547827,"103":-0.03809431807031548,"104":0.006638272748032653,"105":0.04256293285956029,"106":-0.001624464278629442,"107":0.02714907907131622,"108":-0.07888252020859249,"109":0.029787307606286794,"110":-0.09769693747327414,"111":-0.02283479189008404,"112":-0.12160863491532034,"113":-0.08879073874762491,"114":-0.0540640615865643,"115":-0.014024355193662873,"116":-0.02138596254212921,"117":0.02917011050619024,"118":-0.10680013125182133,"119":-0.06519977961629102,"120":-0.0661628412521331,"121":0.07976604817825314,"122":-0.1576201370689738,"123":-0.018102971168856685,"124":0.022365010294472368,"125":-0.07015529038886167,"126":-0.03751960676229422,"127":0.08677867046458858,"128":-0.0997544604337173,"129":-0.00012575886735545407,"130":0.038460856855625454,"131":0.07034688938993866,"132":-0.06689233072291366,"133":0.016799683025447376,"134":0.016525188492746184,"135":-0.031343563672403096,"136":-0.08869981534322352,"137":0.01488246001614577,"138":-0.11293499339291738,"139":-0.01099835609798099,"140":0.08542805978049237,"141":-0.01926065586002174,"142":0.040777647576574344,"143":0.1978443484249905,"144":-0.02365444083338738,"145":-0.001146278772078786,"146":-0.05664390856255082,"147":-0.009783405221517237,"148":-0.05084887434922753,"149":0.0961282240622582,"150":0.0031932587322265997,"151":0.13778300561428045,"152":-0.02956465243430822,"153":-0.030126523938702385,"154":0.04464442126054269,"155":-0.04711844307504801,"156":-0.00886508579775051,"157":-0.07855320194381392,"158":0.05248292118402531,"159":0.13447434646759543,"160":0.010084444346089499,"161":-0.0005899816483628452,"162":-0.09610221410560812,"163":-0.13036278361564652,"164":-0.11545736526314349,"165":0.047835354860135466,"166":0.075823763570566,"167":-0.046273431168651596,"168":-0.06847948438140716,"169":0.03521016606158459,"170":0.030672108301190663,"171":-0.0003210638359958854,"172":-0.16246420622434393,"173":-0.19210394346236404,"174":-0.12361645770267705,"175":-0.016637672773521617,"176":-0.04263713775449512,"177":-0.06866497341670617,"178":-0.06830729509343458,"179":-0.06843662275368746,"180":0.01496507051488038,"181":-0.06067120464327717,"182":-0.0978299766784367,"183":-0.07584415898951395,"184":-0.056264410293798535,"185":-0.03487012151795715,"186":0.019434320692461916,"187":0.012965000937664353,"188":-0.06567926875570138,"189":-0.10321898302978225,"190":0.21872385909956898,"191":0.03783848255271423,"192":-0.11865663781283727,"193":0.056181802245282284,"194":-0.03770138317812849,"195":0.04969270932962119,"196":-0.012357404903247413,"197":0.04942366479696278,"198":-0.09004831251697736,"199":-0.00394315667784869,"200":0.012909947225191877,"201":-0.07624329689276094,"202":-0.056460086081532114,"203":0.08019390471765024,"204":-0.00422486772419908,"205":0.14459321917808324,"206":0.10378017072881562,"207":0.040598174613130145,"208":-0.04209206883588571,"209":0.04553672577264778,"210":-0.01148480754169405,"211":0.020257335175110174,"212":0.11701265690927296,"213":0.0042656000073986915,"214":0.06434902433919347,"215":0.09654972538707401,"216":0.07955630580524277,"217":0.07341566501239812,"218":0.03405396245601348,"219":0.14328125334538183,"220":-0.09970071414195632,"221":0.0373068081237251,"222":0.05870849901236552,"223":-0.0739537227532212,"224":0.09178149644103147,"225":-0.11924493107543134,"226":0.09854886715080427,"227":0.08015153632020477,"228":-0.05289659960004758,"229":-0.005230023007221631,"230":0.03748437065678765,"231":-0.025041506683282495,"232":0.004338755406517964,"233":-0.0520624115201348,"234":-0.0014198190093128622,"235":-0.11774189014944071,"236":0.10625559632149034,"237":-0.020590287445660393,"238":-0.17628063191972404,"239":-0.04191723489917274,"240":0.10881895333918702,"241":0.16545610419445445,"242":0.03853088749400748,"243":0.10136046080360281,"244":-0.07540575880328973,"245":-0.035525106477205075,"246":0.035176241550074226,"247":0.10267040023757482,"248":-0.10819016153621863,"249":0.029090555275244366}},{"sx":5,"sy":5,"depth":10,"w":{"0":-0.13312351366564165,"1":-0.07990242750826511,"2":-0.19891029613832548,"3":-0.14474065417621082,"4":-0.006128803608915605,"5":0.15351576418311186,"6":-0.04322963791496122,"7":0.02364725554535043,"8":0.030622571753972382,"9":-0.0029111330215811342,"10":-0.13916937601123247,"11":0.08060390281875349,"12":-0.01725832947634702,"13":-0.14654762872909205,"14":-0.004396414848673472,"15":-0.06750806054140901,"16":0.06554101103665338,"17":0.004793924944062246,"18":0.018730876992310685,"19":0.04284363901752676,"20":-0.05888521035943241,"21":0.20672538972343465,"22":0.06029392378134042,"23":-0.19901410542700168,"24":-0.22376405247343792,"25":-0.09374857658640166,"26":0.04934569319104714,"27":-0.11856364298369138,"28":-0.015180265058227217,"29":0.10495967599341759,"30":-0.132450591550599,"31":0.03998208496369755,"32":-0.06954278546877557,"33":-0.16794054486788454,"34":-0.24698152914509705,"35":0.07840748858779062,"36":0.08229026540147891,"37":-0.1612687387578149,"38":-0.16165837138253514,"39":-0.043105607361384725,"40":-0.04220621597831749,"41":0.098418164168288,"42":-0.15665443586762448,"43":0.015532350892580205,"44":-0.010913651020197885,"45":-0.0805905181227718,"46":0.0918679640059226,"47":-0.13023530797529329,"48":-0.11050662316085186,"49":-0.026591919790544146,"50":0.04188610300204353,"51":0.09191299788908502,"52":-0.056760255729868286,"53":-0.02215815996816529,"54":-0.20867607488164405,"55":0.051006161870187396,"56":0.014026181751379012,"57":-0.029398245447605227,"58":0.10034165580635741,"59":0.07698999631725788,"60":-0.0715424269669807,"61":0.0043092109701248285,"62":-0.07774324191465162,"63":-0.07534664187978703,"64":-0.17433774047128295,"65":0.08985433446803223,"66":0.018829252050858763,"67":-0.022066971866685374,"68":-0.023407243380016998,"69":-0.01742581583768925,"70":-0.03217133777958911,"71":0.1159533073275663,"72":-0.12769614701083834,"73":-0.11984948977135598,"74":-0.1766459634171653,"75":0.027943985841079474,"76":0.0817918905613507,"77":-0.12084331396631434,"78":-0.0014803848203114736,"79":0.08910808788577868,"80":-0.05422272306292431,"81":0.19389743816694224,"82":-0.07910664546113684,"83":-0.24535809912517634,"84":-0.16325841655731865,"85":0.11583899245667025,"86":0.19046566976068388,"87":-0.07052488330506314,"88":-0.16451181706843687,"89":0.13644445094133242,"90":0.03412185483134553,"91":0.13429986439724978,"92":0.06433513067800185,"93":-0.0003579806572901076,"94":-0.1864936684487381,"95":-0.07150637193264164,"96":0.09761614642943828,"97":-0.107035686067402,"98":-0.1213011124014052,"99":0.024226978466324402,"100":-0.15376147608897636,"101":-0.18723744197877898,"102":-0.07980844685011257,"103":-0.03698766832320763,"104":0.06434416064136875,"105":-0.04644370764689971,"106":-0.06382066854175938,"107":-0.06060983791895544,"108":0.07483444964956185,"109":-0.07747504910621163,"110":-0.2606058099442555,"111":-0.05332595459783032,"112":-0.04460643112373169,"113":-0.12781712915358864,"114":-0.001217505456789917,"115":-0.09363465467070835,"116":0.03766139014905591,"117":0.10290713561357417,"118":-0.10290778781325959,"119":0.09862066381945543,"120":-0.04579236520060891,"121":0.120349841192945,"122":-0.05783932886668593,"123":-0.17061932182748504,"124":-0.0763121616455633,"125":0.00656013861655832,"126":0.07600704153620368,"127":-0.0004322730881722887,"128":-0.06390559084362685,"129":0.19525454896656233,"130":-0.042092614318743865,"131":0.18897883808537647,"132":-0.01071672130666877,"133":-0.12593211909963198,"134":-0.13993818443274306,"135":0.02364140749967735,"136":0.13382012951135555,"137":-0.06893608546106328,"138":0.016296860489772465,"139":0.15875502537099506,"140":0.000075243666249416,"141":0.2199060070782401,"142":-0.051994396028591364,"143":-0.05842049327237343,"144":-0.22610366163679638,"145":-0.002387666573030205,"146":0.07222576400902257,"147":-0.02975866185259708,"148":-0.06924161087007759,"149":0.028399154066775668,"150":-0.11608164571419209,"151":-0.23329826953289834,"152":-0.11511223341786207,"153":-0.0040981599369483215,"154":-0.1159505096117383,"155":-0.03683843710882211,"156":-0.12344091669760231,"157":0.036351553048874975,"158":0.05018573862950333,"159":0.000985710708111133,"160":-0.1630075326329857,"161":-0.07831196648988918,"162":-0.18338462520242269,"163":-0.18187301516065912,"164":-0.013391028805875595,"165":0.05046797351200686,"166":-0.08845746874416484,"167":0.15556890119648567,"168":-0.01845683128000769,"169":0.031344904878223605,"170":0.024426227719091163,"171":-0.10651279787588151,"172":-0.030833653950387143,"173":-0.04843344233222451,"174":-0.061849330043201464,"175":0.15189300478317405,"176":-0.14024507749013493,"177":0.06889657173484438,"178":-0.02353574259952827,"179":0.0677410809319011,"180":-0.004372994950123696,"181":0.12989961877332165,"182":0.047991801346894014,"183":0.045180181798498066,"184":-0.026525623933220006,"185":0.0728056972219107,"186":0.10796066669940063,"187":-0.014065696065764908,"188":0.03803793650661555,"189":0.1364223505222145,"190":0.0505406388105222,"191":0.10165120741708296,"192":0.021142228118601808,"193":0.06999120784929456,"194":-0.10946513847645717,"195":-0.014931446711092292,"196":0.06144609305920464,"197":-0.04786973581029112,"198":0.0446553512284462,"199":0.11086199319284282,"200":-0.10542719535495419,"201":-0.24923921099211246,"202":-0.19734646075144774,"203":-0.06531409455012294,"204":-0.04839380176230468,"205":0.06260670154434003,"206":-0.16844056254954975,"207":-0.05736746679609599,"208":0.07335728664049604,"209":-0.022088744507677557,"210":-0.05253430643604755,"211":-0.1760169210499323,"212":-0.04492160152523811,"213":-0.10629844628721945,"214":-0.15075982165046486,"215":0.023746135825729445,"216":-0.1810382670679968,"217":0.13361393055293896,"218":-0.05712800012038328,"219":-0.04551326253241528,"220":-0.05570899015112569,"221":-0.06206266468269373,"222":-0.07905966962099426,"223":-0.183965984346066,"224":-0.0673182882676289,"225":0.0472655026183987,"226":-0.16664828952131902,"227":0.026514424668245076,"228":0.006415569320749028,"229":0.048967433454850696,"230":-0.019383193614589345,"231":-0.010457645447156584,"232":0.011163517080281328,"233":-0.01698777971095186,"234":-0.09965838467161331,"235":-0.0800823675268355,"236":0.04850797007152653,"237":0.029615270047471685,"238":-0.041222039442969635,"239":0.044900712327236136,"240":0.10082716319858875,"241":-0.0028831254728064397,"242":0.09212021621993025,"243":0.02566939909667997,"244":0.0003296941766500503,"245":0.0831455116389131,"246":-0.07841846654569234,"247":0.14148046298650183,"248":-0.0447639018932372,"249":0.15438026564940072}},{"sx":5,"sy":5,"depth":10,"w":{"0":0.14231242191084578,"1":0.19085086383661187,"2":0.09372514290542189,"3":0.21792681049999452,"4":0.13055706894670976,"5":-0.11566745106247024,"6":0.0754260419020082,"7":0.017674293388580592,"8":0.1600924683202006,"9":0.15567185209152176,"10":0.13362092847785517,"11":0.0401699153039357,"12":-0.0052033010326637905,"13":0.20369671809912496,"14":0.04569154054246776,"15":-0.02430967030224872,"16":0.019880392201365775,"17":-0.007722208022580617,"18":0.08279185900961555,"19":0.06526688839725034,"20":-0.012948548144623763,"21":0.15637295651337055,"22":0.05249910247049158,"23":-0.12555415800736683,"24":0.02708729800381212,"25":0.0038907034155285015,"26":0.0726575303959161,"27":0.16483982036050895,"28":0.14587011999878963,"29":0.02414385034749315,"30":-0.06318130264482617,"31":0.12378685940062775,"32":-0.04021629322205375,"33":-0.06364213757056185,"34":0.0274623899028605,"35":-0.07592238140158725,"36":0.08694331070208072,"37":-0.0475913171613268,"38":0.05411651130574915,"39":-0.018902885712746318,"40":0.08041763637008625,"41":0.11419838069540983,"42":-0.011345723166984527,"43":0.09545173005677668,"44":0.050793692209990554,"45":-0.02806479727994849,"46":-0.022420874439429864,"47":-0.053781779934615484,"48":-0.01099051294857875,"49":-0.09934457553058217,"50":0.18911157146112131,"51":-0.002560593354786362,"52":0.051564246980609386,"53":0.11064063129857998,"54":0.002514876240357967,"55":0.08116437994469299,"56":-0.04237186730991404,"57":0.12587849934637266,"58":0.051439034500109594,"59":0.08212569919170086,"60":0.21618352372788133,"61":0.0021712175537201236,"62":0.07285161482772674,"63":0.25432173679123,"64":0.0315649178853136,"65":0.1501306802076781,"66":-0.021922879980658734,"67":0.15598472854534218,"68":0.20350490138873828,"69":0.15360943939777494,"70":-0.010402263969549397,"71":-0.1425098291173753,"72":0.1892219085943416,"73":-0.022802874835774093,"74":0.031407557633778796,"75":-0.0416165462748908,"76":0.1325399814289357,"77":0.1180130693688771,"78":0.10878474699734354,"79":0.03931012471486202,"80":-0.18268829332781594,"81":-0.026257505079776585,"82":0.05432929810590954,"83":-0.0905285260771322,"84":-0.03772846920613514,"85":-0.1629500936015059,"86":0.029690417771252094,"87":-0.148972128882789,"88":-0.13198441115464443,"89":-0.14761039818986876,"90":0.0024933885817313376,"91":-0.007900935216495732,"92":-0.00800529973370814,"93":0.07144157781670792,"94":0.002763145773178927,"95":-0.13439457161680252,"96":-0.010278196122959108,"97":-0.05634486374668722,"98":-0.11277418860661641,"99":-0.1185006721274188,"100":0.16537562443278933,"101":-0.021752031899180513,"102":0.16947715584207612,"103":0.08450524598273373,"104":0.18276401022869604,"105":0.07850861586254018,"106":-0.08558656660144556,"107":-0.019039161265550174,"108":-0.002700406157988836,"109":-0.0026728661171086547,"110":0.07226679714983524,"111":-0.10950089963318704,"112":0.02334780067946654,"113":0.18834285055708444,"114":0.16609066546984885,"115":-0.010149219159140663,"116":-0.13694359020929212,"117":0.3076413758422819,"118":-0.09889880552463208,"119":-0.04612296020086352,"120":-0.10891071164697136,"121":-0.27058514105735404,"122":0.10950039085019227,"123":-0.00594467083233165,"124":0.25109795215991587,"125":0.04750757732024842,"126":-0.10286837693228587,"127":0.2713597211152036,"128":-0.03294677072698769,"129":0.031327192411275545,"130":-0.08156833699551458,"131":-0.02165305967373777,"132":0.07588140123359896,"133":-0.038068050955375236,"134":0.005403056707935588,"135":-0.053311469014723514,"136":-0.05358614853323193,"137":-0.09604656427211428,"138":-0.14668187787073744,"139":-0.07661925767426653,"140":-0.020965045510555638,"141":-0.03540601217763827,"142":-0.12786452085904051,"143":-0.001885580666050382,"144":-0.13293258961414417,"145":-0.0028796914374536703,"146":-0.02412297250300867,"147":-0.06431957811150989,"148":-0.022214275971679444,"149":-0.021223693379772743,"150":0.08197250246295083,"151":-0.0671251399833444,"152":0.014444786919301459,"153":0.03701817701728727,"154":0.10151914937308772,"155":-0.02822490712237727,"156":-0.10737898966867503,"157":0.07328666256902334,"158":-0.07126290445560231,"159":-0.2260695165376268,"160":-0.005762320178066369,"161":-0.10786201931907119,"162":-0.002276867294301363,"163":0.025729128536472367,"164":0.18174298897514082,"165":-0.015152003959159312,"166":-0.13013185610147157,"167":0.07249904334528931,"168":0.009934025828687229,"169":-0.019676120185169572,"170":-0.04860122294405999,"171":-0.204735159135435,"172":0.030666719478276174,"173":0.009758852700901946,"174":0.1874114501928755,"175":-0.0018291377615822532,"176":-0.02858611228573884,"177":0.14515464498444136,"178":0.038988156560403255,"179":-0.02603360631156787,"180":-0.1432105544537025,"181":-0.13052583906268836,"182":-0.09682615225828675,"183":-0.02092865772852475,"184":-0.09621422947684861,"185":-0.09765913840612472,"186":-0.12257822886880097,"187":-0.06660765237844554,"188":-0.10825968921325897,"189":-0.10946931505601133,"190":-0.024557897679005302,"191":-0.12348209936151414,"192":-0.022905361954119036,"193":0.03071059005082058,"194":-0.10807253112925647,"195":0.014510032636790744,"196":-0.026404376621854967,"197":-0.04873903827852928,"198":-0.023193937597987078,"199":-0.07674970335456022,"200":0.05078591837880098,"201":-0.1548105143009376,"202":0.004732099669719278,"203":-0.06507200763889187,"204":-0.004582355306074024,"205":-0.12038543281373419,"206":-0.17637973411055616,"207":-0.024784979710307433,"208":-0.03197442974928134,"209":-0.13072638696729888,"210":0.016733587952073997,"211":-0.170426776945539,"212":0.008464812580817526,"213":0.08412663787607144,"214":0.0071194638925722855,"215":-0.007596290974802083,"216":-0.11593017453100107,"217":0.12877044803372673,"218":-0.028278983544968165,"219":-0.0437797752770246,"220":-0.11229888881672172,"221":-0.18816974263010103,"222":0.04711453316935609,"223":-0.11341053868203352,"224":-0.04098596912334967,"225":-0.061458897605149165,"226":0.04759244184593702,"227":0.05026125261455763,"228":-0.1040136174798197,"229":-0.14905266150335233,"230":-0.09502094318422849,"231":-0.1879109423452353,"232":-0.21229174520263092,"233":-0.06259551226979322,"234":-0.12826164509186141,"235":-0.17003263390015835,"236":-0.03351568215889754,"237":-0.05841059647663632,"238":-0.062119797164825394,"239":-0.10172219043573766,"240":0.05840238073728846,"241":-0.13478619203090839,"242":-0.006553904996505455,"243":0.06248173018027768,"244":0.019484249608499597,"245":0.03648615792574795,"246":-0.025983603012577256,"247":-0.05807885792100541,"248":-0.11432787651639534,"249":-0.03558887774867669}},{"sx":5,"sy":5,"depth":10,"w":{"0":-0.033879369469844545,"1":-0.08085956849215158,"2":-0.0467574060890191,"3":-0.09085847052315497,"4":-0.16120274457529546,"5":0.06742702139007851,"6":0.023511585707201806,"7":0.10165579553383915,"8":-0.13078072375824792,"9":0.05014022836635056,"10":-0.046343463711825954,"11":0.03815098833216152,"12":-0.09812933831333474,"13":-0.05140206738687696,"14":-0.1619599748656301,"15":0.052650319574766964,"16":-0.04813495204839951,"17":0.10758458750124308,"18":-0.1773032664937923,"19":0.056929119304309536,"20":-0.025341393142678335,"21":0.05233496625948434,"22":-0.22061083998918385,"23":-0.0004235047896771352,"24":-0.113562390413269,"25":-0.02040282097955727,"26":-0.01920853390669802,"27":0.06087566042950836,"28":-0.15652871085695813,"29":-0.04003853137727379,"30":0.03581315574144847,"31":0.07679882963632499,"32":-0.10499086432208506,"33":-0.032798366906136495,"34":-0.1947622816863752,"35":0.08176808955449189,"36":-0.06918814664545891,"37":0.11072930217780878,"38":-0.13313131909753043,"39":0.06713564674124514,"40":0.07852701135799517,"41":-0.023058108159841648,"42":-0.06630360563695775,"43":0.06302448013418957,"44":-0.15581820345356945,"45":-0.0158237775448981,"46":-0.005326692018321435,"47":-0.02653064025071992,"48":-0.12344732488692925,"49":0.0019995424902306785,"50":-0.011984962381319613,"51":-0.04641492858959641,"52":-0.077229689591233,"53":0.020159632492980042,"54":-0.1533419929471817,"55":0.055895644006312105,"56":0.003542520314534074,"57":0.04784346037727916,"58":-0.0022898178862171105,"59":0.08054936019134377,"60":0.0497730601472432,"61":-0.019665458352936333,"62":-0.09414910142671444,"63":-0.03051877768933049,"64":-0.14218684628301614,"65":0.12074633123517821,"66":0.09625163018872689,"67":0.16435695084252033,"68":-0.13396080625187773,"69":0.07207193245560746,"70":0.03182538445167106,"71":0.03978498919436476,"72":-0.1165577272276381,"73":-0.09369524406850248,"74":-0.1901404218426384,"75":0.03851774269986554,"76":-0.026947696990973578,"77":0.14372489279505374,"78":-0.1120069750854224,"79":0.06507538900489125,"80":0.04071391393289685,"81":0.14248091316154454,"82":-0.11590647822171056,"83":0.0016883804987227408,"84":-0.11186898245546642,"85":0.09793825709901394,"86":-0.030809664259711735,"87":0.06385184015184746,"88":-0.1597719483601648,"89":0.03754117501244191,"90":0.08670990051152158,"91":0.03446842313807525,"92":0.0743789258715348,"93":-0.05577315745896536,"94":-0.16233836819367964,"95":0.08007824571793468,"96":0.05449739441427481,"97":0.15241073827566298,"98":-0.09520765087518536,"99":0.13656782007538312,"100":0.06364153310370245,"101":-0.07034120243787266,"102":-0.13426716728430937,"103":-0.11506010167947285,"104":-0.1181584325489753,"105":0.2102803157969583,"106":0.03219660129396455,"107":0.18746948937910912,"108":-0.21903762112669012,"109":0.13388024195884643,"110":-0.04546050393941484,"111":0.024894885933376933,"112":-0.08363114875586533,"113":-0.12982250249352617,"114":-0.053403283430629424,"115":0.1069938193709542,"116":0.005736193353196526,"117":0.0359247351125833,"118":-0.07318695244494158,"119":0.13641099407530782,"120":0.16478567616167533,"121":0.0031076161333661785,"122":-0.08811222890475884,"123":0.03782778072608279,"124":-0.1196075966037598,"125":0.10267010021879958,"126":0.11924021066013568,"127":0.005164075803133409,"128":-0.09532075565318414,"129":0.05242724527676833,"130":0.014864588460749164,"131":0.08979736610487206,"132":0.10133293739382356,"133":0.032003175874637094,"134":-0.0693484106215392,"135":0.08315626500807353,"136":0.014130984858114965,"137":0.08634524968286249,"138":0.012084896110441964,"139":0.060859561872124955,"140":0.11944107910306612,"141":0.01708305436248045,"142":-0.10885495528905033,"143":0.07533103485311311,"144":0.053455698825884884,"145":0.05144008587898018,"146":-0.031363067203316414,"147":0.038064989994584165,"148":-0.05343456745746576,"149":0.1927950012205891,"150":-0.04239544794135633,"151":0.044265038699895336,"152":-0.15365617032655432,"153":-0.0783650722754483,"154":-0.09556510171899638,"155":0.10785164597485843,"156":-0.10107849821008447,"157":0.1627012425482888,"158":0.0066277901835509875,"159":-0.006242503880702337,"160":-0.0788773299040739,"161":0.03740777358087636,"162":-0.14020401362408663,"163":-0.20540668026006484,"164":0.004996104160841009,"165":0.0833146766808902,"166":0.023205366288225455,"167":0.11330943897577177,"168":-0.06816489854856454,"169":0.009607427087246814,"170":-0.010567990517391587,"171":0.09840497401263436,"172":-0.036262825410618364,"173":0.03924546083379781,"174":-0.15902368156615637,"175":0.03177362745177525,"176":-0.07672615832699646,"177":0.08399183069587948,"178":-0.042578158547691036,"179":0.01858048058394027,"180":0.14625174916551056,"181":-0.05165451931656906,"182":-0.013548180165260932,"183":0.1226157208190576,"184":-0.09918822166178576,"185":0.11493498362332973,"186":-0.03533410863718995,"187":0.002679486131820403,"188":-0.14145736188332783,"189":0.009823923209202013,"190":0.094706885098354,"191":0.07386809706272393,"192":-0.029856179519767587,"193":0.04860124649433495,"194":0.056954856078759435,"195":0.04592986816184647,"196":-0.0877818152908722,"197":0.09885095676721196,"198":0.0006315644827859958,"199":0.0896184300687269,"200":-0.040001455002966035,"201":0.08752999583668439,"202":0.026882201539065207,"203":-0.08146259608660443,"204":-0.18501753423877051,"205":0.022816092193405586,"206":-0.031660560037838306,"207":0.12938679868373973,"208":-0.023157396637782643,"209":-0.042162135656244666,"210":0.07511648067393041,"211":0.1278609980415206,"212":0.001590976177746226,"213":-0.03622208938340716,"214":-0.10281092401310973,"215":0.11409488777232402,"216":0.0021869384915571607,"217":0.13033160289562337,"218":-0.14002250220223988,"219":0.10258460159675857,"220":0.04440302143300437,"221":0.01653735849492008,"222":-0.004080495183156814,"223":-0.02718457403524388,"224":-0.1600512846881052,"225":0.07951975534457242,"226":0.051817803563700505,"227":-0.08239896942192337,"228":-0.11539769722052787,"229":-0.08646538257124413,"230":0.08254662183309726,"231":0.03519728512627866,"232":-0.02847425796703941,"233":0.000600132317570578,"234":-0.1460910315314138,"235":0.10365765755366944,"236":0.007315341090804057,"237":0.05824119498089534,"238":0.05200049313963651,"239":0.08900531093870982,"240":-0.05082263228579358,"241":0.04691377325257448,"242":-0.02939384079364859,"243":-0.030200435027270104,"244":0.019443585737710364,"245":-0.014999387127600584,"246":0.06450976550743927,"247":0.10578318734270835,"248":-0.12477398148413525,"249":-0.028876164981573034}},{"sx":5,"sy":5,"depth":10,"w":{"0":-0.07677683189783012,"1":-0.03360234734519989,"2":0.05098996213450096,"3":0.025189506562280833,"4":0.0953338527012488,"5":-0.0026938962849877577,"6":-0.07644228909032764,"7":0.08016004770087642,"8":-0.02701214622382519,"9":-0.1988774859887285,"10":0.011806760307588633,"11":-0.10086109543736038,"12":0.13884980262105057,"13":-0.0013970266128846198,"14":0.043475229780483814,"15":-0.05432090786157467,"16":-0.11305936153475289,"17":0.0798956506409423,"18":0.02204517222776386,"19":-0.2318890842410844,"20":-0.028807234249957663,"21":-0.08955900193967706,"22":0.12471434469868387,"23":-0.0812599404645547,"24":-0.008390454848342596,"25":-0.00614601421975669,"26":-0.14056403506728402,"27":0.13345609508074308,"28":0.04345692764517158,"29":-0.06053833945727608,"30":0.0011545597667245238,"31":-0.05543007338553501,"32":0.07454989091390667,"33":-0.004315671707704665,"34":-0.060806905978905625,"35":-0.0842054015111537,"36":-0.04208196490755303,"37":-0.05040622978468295,"38":-0.07420245172191045,"39":-0.11328705512476298,"40":-0.10797379753712616,"41":-0.04378562428399606,"42":-0.04303726593823183,"43":0.005789598716971262,"44":0.004594545985853247,"45":-0.21506396353289103,"46":-0.18044773966788308,"47":-0.16285603049847694,"48":0.029290539306254273,"49":-0.17463108029541027,"50":-0.11726062638787163,"51":-0.04169544835144718,"52":0.07195019261406653,"53":-0.08897072335195157,"54":0.030875761346417566,"55":-0.04613246520423155,"56":-0.05741507947296415,"57":0.10188501876829013,"58":-0.0682575992577561,"59":-0.11640983171065493,"60":-0.023250821384645487,"61":-0.18777532873203642,"62":0.08810093841179747,"63":0.060702891032497985,"64":0.038934942058649905,"65":-0.04250268046334719,"66":0.004232641615704044,"67":0.04726183472150692,"68":-0.0496643907379329,"69":-0.23505866705504883,"70":-0.011741370326497916,"71":-0.013993944560218291,"72":0.0906253494918847,"73":-0.04759800941586211,"74":0.0723213538647267,"75":0.015601707326797803,"76":-0.03494097796870661,"77":0.16021000574524868,"78":-0.005204572721601033,"79":-0.10876940201638054,"80":-0.0029516173545641195,"81":0.0008231840428740062,"82":0.05557273629845684,"83":0.01580163074515465,"84":0.13788306633450526,"85":0.054762704205687456,"86":-0.15493389745266564,"87":0.009943070357360775,"88":-0.08079435732998015,"89":-0.0806171222808367,"90":-0.050017094257107854,"91":-0.1650948439332825,"92":0.009634151390411775,"93":0.06104795537236896,"94":0.08271238199890317,"95":0.027701554947658174,"96":-0.14665304604041748,"97":-0.05475813389070195,"98":-0.05874800914466709,"99":-0.0320369540156733,"100":-0.09127051724194844,"101":-0.033320845137970255,"102":0.020948683319113273,"103":-0.0629187894631133,"104":0.003487518948305859,"105":-0.03969779769447851,"106":-0.01494568764560665,"107":-0.09470666559746059,"108":0.09407433691679874,"109":-0.16374856031545904,"110":0.05984886210325353,"111":-0.04594815887017381,"112":0.062360793468072544,"113":0.03830153877599868,"114":0.04460992961617895,"115":-0.02832114699820436,"116":-0.0858560764108254,"117":-0.058657089290812904,"118":-0.026001692354081826,"119":0.004803415297951691,"120":0.04142287319583205,"121":-0.05516972907039451,"122":0.011588429050440332,"123":0.01827898846486491,"124":0.04402867080502865,"125":0.045204074489278434,"126":-0.09148743261883749,"127":0.05900636180784646,"128":0.060670937876394035,"129":-0.03260435650240525,"130":0.0437735215339782,"131":-0.008404264876972713,"132":0.06315530646323762,"133":-0.015923798523238965,"134":0.18876013001778494,"135":-0.012228277423312254,"136":-0.11582175601996118,"137":-0.053434926584532444,"138":0.05059865599429419,"139":-0.07130744235163519,"140":-0.007459554423700546,"141":0.04865782635526514,"142":0.002797075781924748,"143":-0.09808066802474302,"144":0.11852585451386174,"145":-0.015506888963624215,"146":-0.08088109361599209,"147":0.037362871734414514,"148":0.04744534223583363,"149":-0.06295455947257211,"150":0.07079458867680131,"151":-0.12188914373637591,"152":-0.06559754641723423,"153":0.13873987698628576,"154":-0.07766022060947733,"155":0.034151107131140314,"156":-0.030779801285280427,"157":-0.011595587616770217,"158":-0.034573852031929406,"159":-0.06957970261327959,"160":0.04639737866409479,"161":-0.0019441348667424052,"162":-0.05397559661716912,"163":0.13125638286206595,"164":0.17624836188865853,"165":0.039771818475008866,"166":-0.07817701459178732,"167":-0.05174939109975717,"168":0.07522636303523328,"169":0.07450548301082482,"170":0.1990593367272446,"171":-0.032597223041743555,"172":-0.048145495045715254,"173":0.12967118298891978,"174":0.05430259499135526,"175":0.04568882897821055,"176":0.006971167349290644,"177":0.20179488956494912,"178":0.06637094946362936,"179":-0.005061548120900065,"180":0.10911353535841288,"181":0.07263065577981978,"182":-0.037821687563605155,"183":0.10245703564480464,"184":0.10585669790854779,"185":0.08770621172307397,"186":-0.04631102576391105,"187":0.045471532809191896,"188":0.04086692750322357,"189":-0.030703298672068263,"190":0.1557168818412692,"191":-0.04025024486213022,"192":0.0991659014213775,"193":-0.051171923093089856,"194":0.046775844837180745,"195":0.1161301622212053,"196":-0.04099656578438632,"197":0.03214028159629138,"198":0.08754466632474815,"199":-0.03091269044397363,"200":-0.11692406881832032,"201":-0.10291385130289425,"202":-0.09272245325978884,"203":0.009676437439585303,"204":0.12333522740051536,"205":-0.02864341418855598,"206":-0.08339391918649415,"207":-0.08110021347381156,"208":0.054471648175842886,"209":-0.0223290281195987,"210":-0.00013410219576567817,"211":-0.09081517187925016,"212":-0.0012889303211763323,"213":0.0035504100973925362,"214":0.14914257368604555,"215":-0.039785953687256334,"216":-0.17168229343179628,"217":-0.03188496373185834,"218":-0.0006340516905000215,"219":-0.023463447996162883,"220":-0.04211000928056781,"221":-0.07036216462305106,"222":0.04179359531842253,"223":0.06619332869720558,"224":0.15189672611606844,"225":0.11321836111134766,"226":-0.15641628148158282,"227":-0.000970977618262308,"228":-0.08783539979968517,"229":0.002619932493057898,"230":0.0432734173399129,"231":-0.06682312040098497,"232":0.02294998129015487,"233":0.11493096092562631,"234":0.22178494989860484,"235":-0.03746314851441015,"236":-0.05120093117708166,"237":-0.0018376903760647658,"238":-0.02303064263449351,"239":-0.03532565988526515,"240":0.04349716463800256,"241":-0.21868572991942087,"242":-0.09203804472482631,"243":-0.11508374100264948,"244":0.1278227333274911,"245":-0.01853888973277586,"246":-0.019468921305749936,"247":0.019298823343357346,"248":0.015769708521947055,"249":-0.0896975715456865}},{"sx":5,"sy":5,"depth":10,"w":{"0":0.007995934591818748,"1":-0.19550301945223453,"2":0.03384976964231326,"3":-0.011705908627759887,"4":-0.059434324980593874,"5":-0.01288094335591876,"6":-0.09724231643287752,"7":0.040088465379237916,"8":-0.02935378643401192,"9":-0.06919862504908525,"10":-0.027936251254257007,"11":-0.2109608970585162,"12":0.08648521968056747,"13":-0.03858502005808835,"14":0.11766533522108903,"15":-0.009390939331830196,"16":-0.25347531317098426,"17":0.12152821988637776,"18":-0.0414803122848365,"19":-0.04226943064403098,"20":0.03913272837545245,"21":-0.2476888453868518,"22":0.07338725471036615,"23":0.0692622740891664,"24":0.2278739592018567,"25":0.005270057279123983,"26":-0.1320913452667988,"27":-0.008167288878565352,"28":0.10459269358755716,"29":-0.08902582810929152,"30":0.025586072978955293,"31":-0.13038626882697346,"32":-0.09472190427289211,"33":-0.016112503405607388,"34":0.15520336828465167,"35":-0.05008294061637085,"36":-0.19788532923210575,"37":0.05298831297446075,"38":0.05903532947105138,"39":0.05677716238647978,"40":0.016479860262206165,"41":-0.27686586016666354,"42":0.04729796642154339,"43":0.08580736765857765,"44":0.20148161922030516,"45":0.013074855895283982,"46":-0.17114882204548537,"47":-0.010820513741809978,"48":0.08426886732574936,"49":0.05553088950412773,"50":-0.14781207565164312,"51":-0.16555007404005648,"52":-0.03443150214377481,"53":0.012679808802275963,"54":0.00562355689679503,"55":0.00012219962869314418,"56":-0.2459329617542147,"57":-0.01758014908124512,"58":0.022012974503208504,"59":-0.028005515164766855,"60":-0.03833606594336142,"61":-0.2516707627523157,"62":-0.0036161240892849398,"63":-0.06406637125953096,"64":-0.03242667612657285,"65":0.036070036545360694,"66":-0.31550292158623006,"67":-0.04013763043003901,"68":0.053174379483286585,"69":-0.047124717108055526,"70":-0.0841422731989859,"71":-0.22513069730472762,"72":-0.12983902317613502,"73":0.08960781576366492,"74":-0.04529284403468272,"75":0.019486532732455333,"76":-0.21582924964694244,"77":-0.002290561694246819,"78":-0.012848224259616245,"79":-0.12438112917715789,"80":-0.04557436054732833,"81":-0.2487092224647643,"82":-0.03583806833067178,"83":0.0003902149621953352,"84":0.13799035300344903,"85":-0.047484500959047556,"86":-0.18702049258026185,"87":-0.002109530025097137,"88":0.009163674824721732,"89":-0.005917230329149964,"90":-0.011338980088810789,"91":-0.24812241517726957,"92":-0.025428495563537205,"93":0.043467972002846855,"94":0.10222989363678993,"95":-0.11529540772494197,"96":-0.20723925910191618,"97":0.11610063949167704,"98":-0.0055351724943702805,"99":0.03009605405076667,"100":-0.05459655439461853,"101":-0.19572638766167683,"102":-0.0757866766016271,"103":-0.08099843463743753,"104":-0.03664424603082274,"105":-0.027975366627189392,"106":-0.24952185036329613,"107":-0.03366755299143526,"108":-0.0011854752288199004,"109":-0.04200308312733023,"110":-0.13163627092961724,"111":-0.22469501290179497,"112":-0.07473076088297047,"113":-0.0013613683346786645,"114":0.058429161268226025,"115":-0.06649472083276796,"116":-0.2042842071299123,"117":-0.17694020491555942,"118":0.07737101827037723,"119":-0.15038217948920285,"120":-0.07026150659604259,"121":-0.0947562923345775,"122":-0.04882377136549604,"123":-0.08006288376086536,"124":0.016611003706936214,"125":0.01388840550996005,"126":-0.09981653597363513,"127":-0.06525498691076423,"128":-0.013972689567232958,"129":-0.11979425735361483,"130":-0.20631220288513527,"131":-0.13405013578129515,"132":-0.03867986499875386,"133":-0.05341578744347983,"134":0.03586952331136203,"135":-0.029435270679823322,"136":-0.18925268095844255,"137":-0.03292119819117085,"138":-0.07788041358563566,"139":-0.013030940329167911,"140":0.023680525532582184,"141":-0.11602380033938549,"142":-0.040171231046132475,"143":0.06551152675545409,"144":0.0890633232738657,"145":-0.08641749092129256,"146":-0.14680200986298605,"147":-0.06557155800609185,"148":-0.015330855685277332,"149":-0.1207862949594192,"150":-0.04082307669466307,"151":-0.14365240834568904,"152":-0.15992260616137485,"153":-0.07534273589848542,"154":-0.00388705147910526,"155":-0.03635362214636445,"156":-0.08732909904373827,"157":-0.0639804285190148,"158":0.007510318617290087,"159":0.054319974988536426,"160":0.019892588744488664,"161":-0.0977021312205901,"162":-0.06525746176964002,"163":-0.04718544532044748,"164":-0.08013155577699009,"165":-0.13997951808424874,"166":-0.051539026786250004,"167":-0.04945273497807421,"168":-0.04768726630375822,"169":0.14278614589730518,"170":-0.059121773067844885,"171":-0.07555605922463951,"172":-0.130892727300745,"173":-0.02594923719085458,"174":0.013292541286269494,"175":-0.10759425876340376,"176":-0.08652102879140755,"177":-0.07243744779028313,"178":0.06254047461702214,"179":0.13283043579266446,"180":0.011652404667767258,"181":-0.18363004679736977,"182":-0.09010834889607476,"183":-0.07770929429225634,"184":-0.040829798714168725,"185":-0.06344200406638194,"186":-0.14985205955287922,"187":-0.09752197257273436,"188":0.09599339917053204,"189":0.13908541027434967,"190":0.05747920908384905,"191":-0.2513265124045922,"192":-0.13791746914839534,"193":0.08356479294556986,"194":-0.12127719680783797,"195":-0.019086595516885036,"196":-0.0678471313317807,"197":-0.13738042078650511,"198":0.08891043362704143,"199":0.14170859705796515,"200":-0.016810669786014892,"201":-0.09302519457696662,"202":0.0016539607013307677,"203":0.04171155627247268,"204":0.1904792510312828,"205":0.04953092467310501,"206":-0.07195005305812689,"207":-0.10534414778998592,"208":0.015468424061173694,"209":-0.08469599265537608,"210":0.10382780450749149,"211":0.034488539853633995,"212":0.02061836184315466,"213":0.022936715049395175,"214":0.05113574444902433,"215":-0.04350598250018793,"216":0.02152881537889182,"217":-0.06425100166101466,"218":0.1409744172284002,"219":0.060375395853538655,"220":0.13399543465844854,"221":-0.04992607965593002,"222":-0.04053856447900445,"223":0.06815474376564859,"224":0.03151819973163943,"225":0.11852015391464175,"226":-0.025910439094566882,"227":0.013060320139881608,"228":-0.005829776666776068,"229":0.06568515976157979,"230":0.10381581863158222,"231":-0.06215934327493563,"232":-0.07083874549353536,"233":0.0294801529098924,"234":-0.04089898946250854,"235":0.17227895588958858,"236":-0.17279267422812447,"237":-0.030879855156114258,"238":0.019524955892874205,"239":0.11348999308765219,"240":0.07897688204436963,"241":-0.1976298773768699,"242":-0.14026125769837008,"243":0.10868189329090383,"244":0.14506025335316847,"245":0.12448619459266694,"246":-0.0823522035883262,"247":-0.07241333070445789,"248":0.05032378726561432,"249":0.12579429771673276}},{"sx":5,"sy":5,"depth":10,"w":{"0":-0.0403565161583848,"1":0.08041323791641335,"2":-0.0807514675964591,"3":-0.030822105831345235,"4":-0.0036180559084811534,"5":0.026399613679014642,"6":-0.005501831210491281,"7":0.06263949642187128,"8":-0.03614384777300704,"9":-0.13134682362643066,"10":-0.0611491372746756,"11":0.05195136862608797,"12":0.019353382117461678,"13":-0.032261821696991155,"14":-0.06567311171121976,"15":-0.027128908408969362,"16":0.08261411864430804,"17":0.003920949129956829,"18":-0.10186621259426053,"19":-0.015294979732415592,"20":-0.01454089464730163,"21":-0.026112127062829883,"22":-0.04733813253556467,"23":-0.06775346572017685,"24":-0.02105543702956829,"25":-0.07067513866725435,"26":-0.020002206809978853,"27":0.04690327471152289,"28":0.029692001883261543,"29":-0.07854890008488125,"30":-0.11085226471282456,"31":0.04011462531796967,"32":0.07049636570498892,"33":-0.04134369565832815,"34":-0.0015466182913560235,"35":-0.08864606628001757,"36":-0.08458740951344554,"37":-0.0988875565022838,"38":0.01773784497059585,"39":0.04471142360005065,"40":0.0065262751133418765,"41":-0.1700455308857369,"42":-0.11434618620916105,"43":-0.059327599649332874,"44":-0.03324579523593437,"45":-0.06825033967373063,"46":-0.04138617166040131,"47":0.06886007812194675,"48":-0.012958281973416636,"49":-0.07400804776261032,"50":-0.1831158741766587,"51":0.042593856057179844,"52":-0.08105892416054147,"53":-0.09899192808543153,"54":0.09860573582727121,"55":-0.07826934402310513,"56":0.10187282316458285,"57":-0.02300645588662812,"58":0.06556169695563532,"59":0.02611512921377344,"60":-0.0816829293426686,"61":0.2236514710237444,"62":-0.09662309192603295,"63":-0.022478497768402453,"64":0.08403163193885933,"65":-0.09955433585274828,"66":0.0641311954681681,"67":-0.11726819132368066,"68":-0.1263283399864738,"69":-0.12617375607444256,"70":-0.01642767205664494,"71":0.0994434215165422,"72":-0.002298898129040759,"73":-0.16739340701930178,"74":0.03168922218238576,"75":-0.05125973668516565,"76":0.11387394878046647,"77":-0.14949173242032981,"78":-0.002927159799061442,"79":-0.09182789029382919,"80":0.021210830546369536,"81":0.06519599221402562,"82":-0.02539048233367475,"83":0.05090084663859041,"84":0.07429903407168945,"85":-0.04997181997079319,"86":0.07577940138455606,"87":-0.06905984304570714,"88":-0.054287158027608695,"89":-0.108452618322634,"90":-0.02314558177436294,"91":0.06632926653857912,"92":-0.023977061728072707,"93":-0.05504221843915069,"94":0.011065575072144661,"95":-0.03781728274264784,"96":0.02767515924220504,"97":0.0697168753845867,"98":0.01121033482411589,"99":-0.11540027669132298,"100":-0.07412963096173497,"101":0.15081484187803287,"102":-0.01057628527908603,"103":0.004658356346199932,"104":0.0964846348147774,"105":-0.10253742610950174,"106":0.09764935236228947,"107":-0.053828865408015215,"108":0.01487297772790508,"109":-0.01454303538293826,"110":-0.04758063824842191,"111":0.17938635544777734,"112":-0.05004531686466739,"113":-0.0750773105001909,"114":-0.029012734591755594,"115":-0.07644364189674978,"116":0.18834312300675884,"117":-0.10938040114166289,"118":-0.1434924077818938,"119":0.0827498443790045,"120":0.010052713937105443,"121":0.05513823748835227,"122":-0.14990316083475685,"123":-0.047197331448009354,"124":-0.006240002782454991,"125":-0.009905067424648932,"126":0.045746833186092475,"127":-0.04535613366082061,"128":0.07557267455544732,"129":-0.07654665550299058,"130":-0.07755027978848081,"131":0.06157146539526704,"132":-0.10699087795760191,"133":-0.06920787103904152,"134":-0.08288386327597796,"135":-0.021136955933782307,"136":0.07489596199974466,"137":-0.11964961198231264,"138":0.002441691543561995,"139":-0.12070596827584212,"140":-0.1536808778582874,"141":-0.01244622645683288,"142":-0.05731757346345604,"143":-0.08128279973223017,"144":-0.04603269857060058,"145":-0.1076144022310132,"146":-0.03283551396512748,"147":-0.09593707628330989,"148":-0.09989426049711495,"149":-0.01286430281215327,"150":-0.12151720224517859,"151":0.09259467551335042,"152":-0.06966528946302025,"153":0.006403300520061418,"154":0.03433503233968932,"155":0.05544405068357753,"156":0.03622855278595331,"157":0.021180012995130823,"158":-0.0769368915987203,"159":-0.08766448169045105,"160":-0.053757544014312944,"161":-0.03642263302506904,"162":-0.05345632780948325,"163":-0.07825293122098811,"164":-0.17629685040134815,"165":0.04337226482093983,"166":-0.007326323580605657,"167":-0.03325441692945862,"168":-0.07084588585873121,"169":0.06379028497429033,"170":-0.06960142201694125,"171":0.09437166712119788,"172":-0.10315232386210428,"173":-0.01889589164791232,"174":-0.03719086175452826,"175":0.08408574772485028,"176":0.01745712981285827,"177":-0.06168704385206641,"178":0.027394368538096188,"179":0.10362893051327995,"180":0.03130947477327717,"181":0.03144437526848782,"182":-0.0363976430674976,"183":0.08223433140632845,"184":-0.11997487255713318,"185":0.0074478569581684665,"186":0.005362894163345211,"187":0.015532647495904476,"188":-0.03847181702027147,"189":0.055079362121525775,"190":-0.0783273971463673,"191":0.040045402622667835,"192":-0.1076753530424211,"193":0.03164895808279286,"194":-0.013230836124861693,"195":0.016380266203685677,"196":0.01873422723329252,"197":-0.12364303236580336,"198":-0.12364554369882452,"199":-0.02531758506416415,"200":0.005645016453762732,"201":0.026919484621433357,"202":-0.02764219245023856,"203":-0.04300377317294005,"204":0.028378830163770293,"205":-0.02174682593531004,"206":0.06049282709287141,"207":-0.09206635689045232,"208":-0.07341834763076753,"209":0.06469705870547984,"210":-0.014699862099101544,"211":-0.012436792160978986,"212":-0.13322615925920583,"213":-0.18182284972288218,"214":-0.08526843203293392,"215":0.014638732263371512,"216":0.0486153156337353,"217":-0.08508280286774703,"218":-0.07602546580454445,"219":0.0037590607402927076,"220":0.07714356139780482,"221":-0.11874198264547495,"222":-0.04865609979092651,"223":-0.11543283063269266,"224":-0.082418950756177,"225":0.07980527309116313,"226":0.14504256463377413,"227":-0.13857629969570912,"228":-0.009552264092747505,"229":0.09033004239649983,"230":-0.05601812588299695,"231":0.0491593948695446,"232":-0.013643629078577722,"233":-0.00828894543277376,"234":0.03256915368482807,"235":0.01833338736239679,"236":-0.05812748235816407,"237":0.06711433323573715,"238":0.013270787462337171,"239":0.11122721186812963,"240":-0.011816045188939051,"241":-0.08918747725183353,"242":-0.17869132632049597,"243":-0.00899782326619908,"244":-0.12718544440410628,"245":0.03186600706273738,"246":-0.13086496678855716,"247":-0.12901284869221438,"248":0.10807043163338302,"249":0.13103035975788785}},{"sx":5,"sy":5,"depth":10,"w":{"0":-0.01090673954680597,"1":0.0854041802099496,"2":-0.0722704152691744,"3":-0.1916147570171602,"4":-0.02937696945666608,"5":0.032465307033095914,"6":0.014432187803650779,"7":0.16887259951539618,"8":-0.05738418481484148,"9":-0.020468298951382878,"10":-0.1218501060028401,"11":0.1254839025544484,"12":-0.05757973901075722,"13":-0.13174875044221118,"14":-0.20665023828815754,"15":-0.014209687164425019,"16":-0.023023044745985818,"17":0.010555616793345067,"18":-0.09566153694864746,"19":0.01197948067337794,"20":-0.009315241133089092,"21":0.08513599321466885,"22":-0.08807586056570087,"23":-0.16414621498995963,"24":-0.11678763559600921,"25":-0.03297314903183403,"26":-0.07931040146725507,"27":0.07152625054954133,"28":-0.14416797085618577,"29":-0.04520313547599823,"30":-0.023133362954049587,"31":0.01496678924121062,"32":-0.10043435355960086,"33":0.06323230249799272,"34":-0.0950771099290841,"35":-0.01217906440813691,"36":-0.0960204454622971,"37":-0.11089818633833895,"38":-0.18841611086703952,"39":-0.05524004324861695,"40":-0.054376967021975635,"41":0.026604735248594823,"42":-0.06988814842923184,"43":-0.03250780474999381,"44":-0.08155042828303867,"45":-0.0349764643970391,"46":-0.04838194559280462,"47":0.00827877993572029,"48":-0.15250324895951078,"49":-0.17682230548429584,"50":0.022555278872534383,"51":-0.059841717241038955,"52":0.06168617679569303,"53":-0.10538662541192831,"54":-0.003249966308430635,"55":0.04065779274946932,"56":0.03661364248987341,"57":0.08632573154220945,"58":-0.07357517135712192,"59":-0.057230013444281844,"60":-0.025323290708190102,"61":-0.06218218056017361,"62":0.03920428829973062,"63":-0.12398722441235778,"64":-0.06831810353011167,"65":-0.017149406547995034,"66":-0.004804429705882991,"67":0.07102313759811443,"68":-0.031456641775826584,"69":0.025008976333271402,"70":-0.05720161790215595,"71":-0.031093358845745878,"72":-0.0832141996622603,"73":-0.0013867379532613573,"74":-0.10215883257693924,"75":-0.033401450560449165,"76":0.004689278955586765,"77":0.04427639944245298,"78":-0.09841862003370429,"79":-0.06346790343502108,"80":0.029231562529204107,"81":-0.05009985640411686,"82":-0.05499159266218842,"83":-0.02934282895246738,"84":-0.194725147857818,"85":-0.13485046473574314,"86":-0.05561164513108374,"87":0.04725681237222169,"88":0.019332660551135108,"89":0.05788335155528689,"90":-0.12416258039795132,"91":-0.08263071154830362,"92":-0.06677434226103364,"93":0.021258267856949693,"94":-0.14761241125911664,"95":-0.10844201017456925,"96":0.013425326271446512,"97":0.06660971446437101,"98":-0.03443587831796851,"99":-0.04734089100459352,"100":-0.03610771396931378,"101":0.05452870611833348,"102":0.0963729754189418,"103":0.05233472853452789,"104":-0.10774950561736764,"105":0.09148910229592025,"106":0.07833159530566051,"107":0.08092153609785746,"108":-0.030469533363586696,"109":0.15608835500339804,"110":-0.08811590243762076,"111":-0.0065896154668623795,"112":0.04784716923690876,"113":0.01851097012295624,"114":-0.09418691555648846,"115":0.07973259912343866,"116":0.09722468332164072,"117":-0.06933646676920982,"118":0.028910025866192558,"119":0.19306739368050502,"120":0.007570636717079157,"121":0.07383315013111093,"122":-0.05381685355877715,"123":-0.046881478021096726,"124":-0.15201786296797185,"125":0.04194020449041263,"126":0.05961954339214582,"127":-0.05595587257847208,"128":0.022439377032777878,"129":0.16752150295233698,"130":-0.0017152937609675363,"131":-0.02973269309169801,"132":-0.054973062613792076,"133":-0.02620682655291295,"134":-0.1192799233853449,"135":0.03536767816743906,"136":-0.04680799941531145,"137":-0.1748831020785203,"138":0.02355076401779107,"139":0.1026553727324991,"140":-0.005230201093834391,"141":-0.12064691154778555,"142":-0.2033440251660681,"143":-0.06693763245200297,"144":-0.1705966397150988,"145":0.00018836437682481845,"146":-0.07105728833423193,"147":-0.036056240763224404,"148":0.09697331728044595,"149":0.1644213446171803,"150":-0.021779605600066473,"151":-0.07964635188725237,"152":0.01967765726362498,"153":0.0568527992106125,"154":0.007826594135099074,"155":0.03794946756806115,"156":-0.12556398580357075,"157":0.21597880372571845,"158":-0.004645202530199658,"159":-0.007943836764737849,"160":0.006120495608769828,"161":-0.1290498342481881,"162":0.05036135893692127,"163":0.011226785636209078,"164":0.16942498748788312,"165":0.01299009905888565,"166":-0.0067416724333119816,"167":0.08198593596156128,"168":-0.05095605593397736,"169":0.015526342381419133,"170":-0.07877514720855502,"171":-0.013609822642004332,"172":-0.02164925355859625,"173":-0.01566378274903778,"174":0.11508696942833217,"175":-0.028616467320645128,"176":0.08974048649016825,"177":0.03356410225699739,"178":-0.0664022676146602,"179":-0.03482807300049564,"180":-0.06928434831050159,"181":-0.02097144168558965,"182":-0.055810791180533385,"183":-0.024414931640346967,"184":-0.015074948798110001,"185":0.07657055572633972,"186":-0.025785612442492292,"187":0.016189373799015517,"188":-0.19712125565362063,"189":-0.06067911785116187,"190":-0.21875002398330923,"191":0.03270603425063044,"192":-0.19071137127940682,"193":0.051357409721400966,"194":0.15885741392432373,"195":0.09875821823991864,"196":-0.0796300618092695,"197":-0.10484548400586831,"198":-0.03850801896933073,"199":-0.05958567823262373,"200":0.05865394327575013,"201":-0.05814967045660087,"202":-0.07776118709441499,"203":0.0947198681321009,"204":0.007897788794045821,"205":0.08717534986148057,"206":-0.14273971850774841,"207":0.13218049850074884,"208":0.07857329973361048,"209":0.017638070602879977,"210":0.1508771800096946,"211":-0.02182675825955935,"212":0.001268747413315206,"213":0.1996427814811461,"214":-0.0009081050815953856,"215":0.14128621415462012,"216":-0.026428831186023783,"217":0.20431579026178812,"218":0.04538342497288813,"219":0.012284771154366627,"220":0.06354175466217672,"221":-0.061699738583980084,"222":-0.032035126993653525,"223":-0.08719392949169907,"224":-0.013946915400097933,"225":0.0697979623089604,"226":-0.05688339659833693,"227":0.04083435156373404,"228":0.05312528023656729,"229":0.08002317225622156,"230":-0.02638651452533473,"231":0.03203477256244535,"232":-0.12066794713529642,"233":-0.15747661883815783,"234":-0.07908747969952858,"235":-0.016731539916374362,"236":-0.20395839146894007,"237":-0.0024509153081125144,"238":-0.0026743866512630703,"239":-0.06230895585072137,"240":-0.09710045077350747,"241":-0.023212190911388045,"242":-0.07880517066451194,"243":-0.022354274062217076,"244":0.030877916496850726,"245":-0.19352487831350104,"246":0.011672195784405365,"247":-0.03603101381892843,"248":-0.07138986437110473,"249":-0.17450387092078057}},{"sx":5,"sy":5,"depth":10,"w":{"0":-0.047326654596387865,"1":-0.05551170453504369,"2":-0.1961292379070218,"3":-0.10270404241941086,"4":-0.1387381257202912,"5":-0.09125189289505904,"6":-0.07492761202121,"7":-0.11953992100634116,"8":-0.08552204273868629,"9":0.06451182735381956,"10":-0.059985558992718915,"11":-0.03021627834627511,"12":-0.11031910420165092,"13":-0.09641500064692281,"14":-0.043626085020319054,